3093 64
147574230 -0.106280 -0.394618 -0.257538 0.534680 -0.946908 0.555513 -0.598884 0.182357 0.081151 0.581755 0.161979 0.118049 0.840801 0.236917 0.268215 -0.436306 0.127708 0.441611 0.522639 -0.092799 -0.272270 -0.116638 -0.387304 -0.165566 -0.808965 0.272333 0.361606 0.212615 0.376417 -0.767736 -0.422527 -0.052853 0.602583 0.529861 -0.542688 0.728371 0.211535 -0.102635 0.296933 0.968905 0.576977 0.502144 -0.639689 -0.337629 -0.097402 0.484847 0.556687 -0.568345 -0.667030 0.380184 0.723818 0.744415 0.881490 0.489143 0.693278 -0.435169 0.513686 0.525965 0.117999 0.287511 -0.172405 -0.329476 -0.017312 -0.097354
1515571160 0.252592 0.040954 -1.220926 0.928275 0.853611 0.886751 0.920361 0.340355 -0.196073 -0.436456 -1.480683 0.157917 1.367420 0.311530 -0.234631 -0.496753 0.886812 1.825704 1.071362 0.817338 -0.100867 1.364186 -0.364557 0.924917 -0.803264 0.064164 0.329747 -0.722365 0.367830 -2.745003 0.060378 0.034912 -1.500087 1.239306 0.227598 -0.669978 0.607656 -1.224337 0.037266 1.114550 -0.275801 -0.445666 1.315206 0.425341 0.282695 -1.897396 0.335959 0.716939 -0.517024 1.353830 0.893629 -0.819331 1.199539 0.384494 -0.330023 0.816606 -0.248868 0.121325 0.132095 0.246738 0.728917 -0.864489 -0.860675 -1.069936
129580191 -0.333248 -0.578555 0.974776 -0.383737 1.250884 0.031126 -0.396994 0.321447 -0.690365 0.639961 0.876188 0.914640 -1.193070 0.506918 0.168531 0.658793 -1.521905 -1.966424 -1.920754 -1.354440 0.286837 -2.099889 0.815970 1.132218 0.184053 -0.313930 0.939096 1.349004 -3.494359 2.746397 1.204557 1.660209 2.678920 -0.932939 1.905162 -1.263495 -1.799457 -0.146031 -1.486570 -0.009752 -0.529117 -0.301573 -0.648470 -1.041389 -1.267493 -0.107384 -0.226645 0.444776 2.023592 -1.998807 0.166299 -1.478700 -1.248014 -0.384126 -1.754023 0.790650 -0.538801 0.244400 0.063023 0.046447 -0.645589 1.892435 1.760239 0.813006
1475817380 -0.826236 -1.244423 2.873479 -3.442836 0.491514 -0.071734 -0.230021 0.632453 -0.936287 1.514567 -0.406119 1.780190 -0.615347 -0.279159 -1.120384 -1.452991 -0.767373 -1.040338 -1.696951 -0.795804 -1.922841 -1.018769 0.908445 0.043677 1.539192 0.807726 -0.024698 1.282552 -2.807028 1.474655 0.793892 0.191015 0.316996 2.084943 -0.354332 2.035924 -0.074745 2.258186 1.120445 0.521283 -2.518490 -0.875383 -1.281090 0.750617 1.048353 -0.341976 -1.027301 -1.757116 -0.658789 1.825786 -1.835844 0.954443 -0.484987 -0.180113 -2.297027 -1.136355 -0.479988 -1.034762 -0.362760 1.827972 -0.033480 1.366366 0.455153 -0.475894
1105861777 1.661198 -0.054670 0.253642 1.637634 -0.529579 -1.547251 1.574617 -1.866294 -2.024407 0.017959 0.030388 -2.171232 2.581920 -0.476147 -0.527274 0.115702 1.518244 -0.423651 2.007021 2.510695 0.078540 -0.131469 0.947647 0.890508 0.907995 1.432966 0.624436 2.400468 2.084769 -0.502511 0.132059 -0.150875 -2.122061 -0.137038 1.246197 -0.157324 -0.126513 -3.184448 -1.171995 -0.474614 0.131531 -1.209870 0.041328 0.704925 0.063766 2.745307 -2.063507 0.757171 1.469592 -0.583133 1.509519 0.525697 0.902729 0.099866 0.895422 -0.374789 1.977813 0.485370 0.134506 0.601825 0.121425 -1.236150 0.318296 -0.737654
1028468581 -0.374764 -0.686169 0.927883 -0.950097 0.003185 1.188260 -1.604449 1.834573 1.832838 -1.828939 -1.498774 2.496482 -3.715436 1.097767 1.773310 -0.248421 -0.871201 0.672139 -1.472483 -1.209222 -1.225243 -1.684527 0.261151 0.927455 0.956575 -0.149152 -1.315160 0.245432 -0.845084 0.299972 1.152517 -1.211789 0.898526 0.859653 -0.547009 -1.290093 -1.581234 1.767767 0.134061 0.769999 -0.449149 0.887419 -1.232462 1.174762 -1.193960 -1.330314 -1.439592 -0.953480 -0.951925 -1.211474 -1.035498 1.648266 -0.733832 1.340080 -3.124621 -1.144511 0.953659 2.048419 1.439157 -0.586790 0.833238 0.952505 2.358652 1.393957
155534196 1.301561 2.225845 0.943031 -2.707163 -1.048440 -2.519240 -1.463497 -1.011588 -0.253728 0.999388 -0.057084 -0.088306 -0.955692 -2.201419 0.358290 3.557128 0.233206 -2.644432 -1.683418 -1.771498 -1.493300 0.206881 1.133495 -1.381712 4.384270 0.314913 -3.090823 0.515477 1.596427 5.014335 -1.821599 0.494083 0.914912 -5.103623 0.523454 0.127210 -1.065532 2.786232 -2.306318 -4.334284 -0.622566 -2.969282 2.545935 0.817915 -1.031024 0.041350 -0.942472 1.893375 0.413713 -2.200760 -0.023277 -3.192704 -3.988090 -1.952811 1.002663 1.651721 -2.308362 -0.469873 1.122512 -2.833824 -1.895803 3.557920 -1.306363 0.881678
1286632028 0.452333 0.767477 2.934821 -1.635094 -0.808319 0.594246 -5.556075 -0.286202 0.726848 0.410908 0.195810 0.226373 1.096591 -1.239699 2.054634 0.336633 0.099598 1.224667 -1.667515 -1.115287 0.895465 -4.987869 0.474301 1.792490 0.242889 2.766785 -1.645007 -0.654756 -1.486352 -0.528234 -0.271567 1.080030 1.288401 1.419045 0.047692 -0.371042 -1.194938 2.343452 -0.167643 0.747850 -0.189686 1.056768 -1.612916 0.584397 -0.393990 -0.077599 0.700290 -1.491262 0.492538 -3.187829 -0.198160 -1.697944 0.084791 0.045554 -4.026956 0.629795 -0.027504 2.473162 1.115452 0.495319 0.007701 -2.287273 0.102452 1.480906
1121231185 0.990133 -0.550418 0.332302 0.013301 -0.986065 0.405176 0.923860 -0.562622 -1.993855 1.209058 0.786488 -1.579537 1.034142 -0.049705 0.232410 0.470376 1.629207 1.156488 1.830416 1.315957 0.295395 -0.922288 1.164448 0.836398 0.468203 1.749054 -0.922271 -0.052262 2.589686 -0.844744 -0.736038 -0.612528 -3.560134 -1.269811 -1.177994 -1.132957 1.099748 -2.818234 0.752163 -0.086763 -0.054371 -0.623379 1.315190 -0.296233 -0.140368 1.741440 -2.429624 1.874462 0.438507 -0.210746 -0.480936 2.097276 1.850277 -2.050925 -0.242852 -2.507473 1.138861 0.447927 0.833682 1.553850 0.810814 0.690988 -0.974233 -0.195765
1416636571 -0.218152 0.544962 4.237023 -0.808342 1.423881 0.036469 -3.729190 0.482247 -0.124436 1.837829 0.587074 1.416942 -3.576946 -0.590277 -1.647350 2.956479 -1.268412 -1.506265 -1.795251 -0.883989 -0.858309 0.078288 1.826679 0.890247 2.296705 1.264931 -2.094903 -0.798570 -0.236749 4.272863 0.539264 1.334644 2.884928 -2.846025 -0.637732 -0.079529 -2.149650 3.804502 -2.588659 -2.193786 0.362355 2.039703 1.956838 1.281611 -1.983023 -1.985558 0.070128 1.475441 -0.114071 1.609286 0.887871 -2.112715 -3.180988 -3.142824 -1.014067 1.778251 -1.070557 -0.621877 0.231388 -2.689893 -2.928371 1.014658 1.432584 0.139155
100341775 -0.779194 0.385488 -1.811824 -2.774921 -1.549767 0.041495 -1.321719 -0.139596 2.329318 2.377836 2.318373 -1.109006 -1.258085 1.890876 -0.963113 1.082148 1.681925 -2.950546 -0.145091 -2.660287 0.812120 -0.074179 -0.566341 -0.602575 2.935398 0.401835 -1.579614 0.944228 1.881664 7.269717 -4.244486 0.212835 0.543330 -3.227264 -0.745582 -2.471448 -1.141235 2.548994 -3.532195 -3.490872 1.749283 -1.639524 1.919459 -0.084323 -1.009967 -1.920799 1.333303 2.553747 -0.180757 -1.831023 -0.290383 -2.973923 -2.061996 -0.151070 -1.365556 0.368879 -1.639170 0.515885 -1.572239 -2.984128 -5.280838 -1.029623 0.044235 -1.737991
103817724 -1.558691 2.441317 3.422983 -0.995935 -0.376362 -0.090166 -1.308023 2.110877 1.514015 0.390481 -1.201974 -1.294212 -3.433508 -0.554057 -2.036155 2.339562 -1.356925 -4.074809 -0.589644 -3.612443 -2.300159 -1.891332 1.218621 1.302123 2.186430 0.699918 -2.842218 1.610656 -1.508134 3.316763 -1.100359 1.011184 -0.628920 -4.912727 0.365236 3.813818 -2.624456 3.923022 -1.279236 0.423489 -2.620599 -2.452375 -0.000828 0.420155 1.330123 -1.960855 -0.074668 1.036465 3.577478 -3.023401 -3.076180 -0.995326 -4.888154 -1.326664 -1.136878 0.201811 0.805609 -3.556298 0.787344 -2.557232 -1.506361 2.459351 1.333450 2.384755
113937104 -2.197229 -0.458897 2.442252 -2.970033 -1.059453 -3.340891 -1.236215 1.969382 -0.649540 -0.789497 -1.284508 -1.135982 -2.295328 1.087729 -1.885811 2.639425 -2.455224 -2.706939 1.312603 -0.717121 1.610847 -4.654740 -0.519608 -1.125396 1.339720 -0.616545 0.116155 2.593771 1.459517 4.931040 0.267827 -2.374645 -1.971956 -2.248995 1.414255 2.006894 -4.963081 5.577791 -3.270871 -0.553683 -1.922790 -4.159964 2.511230 -1.155520 -3.616188 -1.721488 -1.302029 0.125955 -0.287029 -1.876469 0.806840 -1.185336 -4.648212 0.021026 -2.422240 5.093035 -2.229111 -1.765159 1.126698 -1.534044 -2.246959 5.531971 1.915617 1.899997
1418835816 -0.424193 0.796794 2.675474 -1.031237 0.603908 1.523083 0.249525 -0.326182 -1.494778 4.042706 -1.919787 -0.292383 1.499306 1.511477 0.153137 -0.585757 -0.685653 -0.850201 0.761269 0.245967 1.517226 -0.629322 3.131516 -1.240002 2.432761 0.885426 0.690073 1.311239 -1.836196 -0.438069 0.288265 -1.429452 0.444544 -0.170742 1.001518 -1.037497 -1.795349 -3.984734 -3.387924 -3.451216 -1.399285 1.248445 -2.210232 -1.435991 1.823271 4.550152 -0.706950 -1.845249 2.740733 -2.133771 0.760523 -1.075434 -0.324252 2.363305 -0.081612 0.614455 0.660942 0.804527 2.118572 1.083545 -0.670955 0.631483 1.181130 -1.620264
1037040092 -2.050696 -0.268760 -0.523430 1.225794 1.235880 -1.979349 -0.398142 1.052098 1.455147 0.760812 -1.294775 1.599556 2.025064 -1.111384 0.843920 2.800637 -1.007190 2.818988 -1.241836 -2.955759 -0.248797 2.019958 1.196010 -1.066613 1.355219 -0.440611 1.324768 1.394380 2.380676 1.530285 -0.654942 0.706024 -0.665788 1.594519 -1.584373 -1.337450 -0.895502 2.503464 -2.590401 -2.749459 1.374849 -3.115382 0.192814 1.991026 3.987397 0.097161 -1.292268 -1.095592 -1.321326 0.290910 -2.053353 -1.057513 -1.974017 -2.983159 0.399302 -0.913207 -1.241652 -0.698274 -1.287101 2.083478 0.521767 0.658511 -1.802005 2.803010
1151862776 -0.200774 -0.117523 1.921654 -0.552254 -1.584114 0.578522 -4.305253 0.959151 2.272959 -0.171542 -2.503828 0.233918 -1.345183 1.210642 1.216189 1.738836 -0.137875 2.571995 -3.794477 0.554631 -2.383218 -0.935626 0.465616 3.391705 3.380397 3.207178 0.118861 -2.692708 0.137559 -1.172567 0.789539 0.342350 1.781025 1.550212 -0.504350 0.348150 2.378388 1.962117 1.158891 -0.065517 0.595194 4.314119 0.296078 2.471613 0.111717 -3.455125 1.033603 0.160222 -0.829748 2.130425 0.694491 -0.000616 -1.047690 0.874257 -1.704920 0.000903 -0.339905 0.518720 -1.134408 1.017909 0.438968 -2.151745 1.743754 0.452065
1283006407 2.264881 0.838854 0.418677 2.279203 0.403206 0.823356 -1.025594 -3.109387 -0.740072 -0.941084 0.055537 -0.743033 4.095683 -0.449194 0.449077 0.449185 1.915841 1.035281 -0.276225 1.532746 2.275508 -2.451271 -0.585114 1.747515 -1.329338 0.734265 0.310703 -0.122655 -1.259604 -1.650402 -0.421458 2.134589 0.734423 -0.682676 3.239324 -0.455202 0.670296 -3.018698 -2.125846 2.768048 0.492380 0.951478 -0.528589 0.292311 -0.209400 1.283006 1.204979 0.264443 1.935862 -2.027325 -0.627701 -1.138439 1.455552 0.183004 -1.424019 1.829527 0.242154 2.805566 1.012354 0.246107 0.356108 -1.990713 0.008522 -0.451981
1285980817 0.132037 -1.772791 2.551702 -0.629494 2.174909 -0.084030 1.998554 -2.091762 -1.548864 1.225905 0.238689 -0.005321 0.320998 -0.699031 0.064174 -1.649598 0.107785 -1.799262 0.394237 0.869845 0.739380 -0.227287 1.901829 -0.575098 0.271403 -1.104087 1.187327 1.896276 -2.127539 -0.487238 1.008432 0.697515 1.062225 -0.585633 -0.582699 1.446374 -2.684970 -2.829925 -0.288464 -0.290834 -3.881505 -0.055384 -1.736635 -0.763746 1.213837 3.857480 -0.303393 -1.015573 2.317478 0.732551 -0.682105 0.833516 0.909759 0.221465 -0.290469 -0.200303 1.272701 -0.342459 1.731997 0.683471 0.520447 0.444029 1.168957 -1.168292
1494034783 1.547951 0.398388 -2.259198 2.747190 3.273232 1.446107 1.571239 0.670048 0.390506 0.545270 -1.435570 0.244507 -1.339170 -3.855156 0.371708 -2.141217 3.358359 2.413846 -0.144433 -0.588693 -0.607492 -0.186151 0.229215 -2.807735 -1.511394 1.165628 -3.212844 3.533173 -1.648894 0.513998 -2.556467 -1.864061 -1.847864 1.771721 0.962681 -1.413705 -0.441994 0.187250 -4.011405 1.649425 1.051769 -0.421861 2.875917 1.364622 -0.522986 0.679233 3.003294 -0.955826 0.757062 -0.860450 -0.382335 0.808272 -0.650920 -2.007164 -0.645612 1.890139 -1.846648 -1.071546 -4.555639 -1.159062 -0.331999 0.459327 -4.650504 -1.043338
102146672 -0.809039 2.284585 3.662221 -0.570975 -1.476188 1.871982 -5.796811 2.297101 3.073232 -1.588492 -1.737490 0.847801 -4.297915 1.872303 -0.460554 5.663571 -2.109521 0.417902 -0.395155 -0.112536 -1.069333 -5.039544 0.439238 4.026207 0.250657 3.878656 -0.417207 0.134792 -1.923022 1.930762 1.245605 2.274508 1.956511 -0.788061 2.172793 1.183373 0.245735 3.065138 -3.258711 0.210149 0.824393 2.904943 -1.469416 -0.687129 -2.724553 -2.020644 -1.791815 0.704380 0.684603 -3.267555 -0.284352 -0.791913 -3.035051 1.336868 -3.225375 1.776354 1.147999 2.334563 0.346333 -1.207400 -1.078140 0.097187 4.079548 -0.133052
1079797910 1.862846 -0.250849 2.867531 0.040875 -1.892036 1.122146 -2.717105 -0.306352 2.782156 1.350410 0.366586 -1.394441 1.079703 0.039392 -0.703039 0.437002 1.190982 2.556043 -1.086427 1.500540 0.586887 -1.130443 -0.614036 1.034358 1.113316 0.770600 -1.161025 -3.643738 -0.515928 0.831432 1.181838 -0.494331 -0.429133 -0.783373 -1.175215 -2.711820 -0.358132 1.794214 -1.368260 0.803660 0.295651 -0.524911 0.037606 1.691453 2.874862 -0.227678 0.436703 -1.190111 3.884847 -3.966511 -1.667847 0.900978 0.268927 -1.250401 -2.445026 -0.568972 -0.682195 3.151554 -1.916136 -0.498420 -1.670414 0.884750 -1.514353 0.947784
1030388977 1.364434 -1.989442 2.802335 -0.938905 -0.943037 -2.344566 -2.153977 -3.039671 -0.619792 0.410808 -0.215424 -1.970358 3.891757 -1.225568 -0.734905 0.096967 2.961780 -0.097745 -0.963544 1.410423 -0.567450 -2.838306 -0.184210 0.459012 2.440531 3.401652 -0.809345 1.121248 1.049241 -2.054437 0.296607 -0.217277 1.263617 0.317274 -1.101172 2.580145 -0.477078 -0.895297 -1.024242 2.061898 -2.859607 0.224107 -2.133808 1.837042 1.666029 3.287915 1.065493 -1.081678 1.494235 0.709519 -2.034890 0.353559 1.455962 -0.575034 -2.483386 -0.339362 0.230809 1.320282 0.557067 0.781568 1.037927 -1.835425 0.458464 0.104169
1262735570 -0.856576 -0.542606 -0.367374 0.155034 2.160988 0.804603 2.249636 0.342005 0.118278 0.042226 0.446216 1.118634 0.214363 -0.508605 -0.313500 -2.048788 -0.550707 -1.026570 -0.555497 -0.785482 0.221862 0.813360 0.844301 0.318195 -1.538422 -2.133990 1.290920 -0.817526 -2.684980 0.033034 1.321020 1.969622 0.968853 1.024786 -0.405873 -0.270562 -0.201445 0.083870 2.327709 1.371574 -1.316145 -1.143059 -0.021973 -0.292757 1.274011 -1.741154 1.215113 -0.444723 1.256270 1.409516 -0.132982 -0.904075 0.315707 -0.295187 -0.430398 0.153048 -1.104902 -1.190612 -0.155457 0.753901 0.171827 0.365508 -0.943080 -0.612327
1377676296 0.458302 0.782507 -1.922777 1.115242 0.745559 1.937019 1.196893 1.111207 1.296219 -2.483406 -1.013731 2.286671 -3.091498 1.319440 2.025758 -1.010837 -2.121927 1.291883 -0.382606 -0.842643 0.477001 0.546625 -0.659894 1.129625 -1.765314 -3.009052 0.464460 -1.515159 -2.472432 -0.386935 1.575403 -0.167224 0.742756 0.499497 2.033333 -2.788311 0.099361 -0.567460 0.624081 0.778732 1.191231 0.813330 -0.264374 -0.569198 -1.814205 -1.870553 -0.141656 -0.112152 -0.226069 -1.452170 0.299506 0.592988 -0.487975 1.452570 -1.007686 -0.707184 0.750091 2.159575 1.154903 -0.335828 0.216391 0.275145 1.457961 0.979323
1031516875 0.640322 0.800118 -2.264641 1.208390 0.732361 1.674132 1.214516 1.027619 0.862971 -2.285403 -0.981168 2.357950 -3.025141 1.502432 2.216400 -0.777687 -2.406856 1.558680 -0.377171 -0.704426 0.686593 0.794417 -0.617351 1.192397 -1.682111 -3.062185 0.807675 -1.542119 -2.229881 -0.211276 1.613853 -0.346027 0.868276 0.711023 2.425171 -3.160090 0.324942 -0.719035 0.446328 0.329713 1.712278 1.060315 0.063715 -0.523243 -2.319457 -1.839307 -0.243798 -0.020660 -0.768596 -1.165441 0.874797 0.487397 -0.497768 1.457276 -0.716667 -0.489535 0.553218 2.276730 1.063001 -0.137884 0.022200 0.248547 1.468745 0.948612
1009123393 0.492684 -0.484672 1.067047 1.515163 1.369232 0.690786 1.486070 -2.081979 -1.458225 1.019340 0.278468 -0.623066 0.490548 -0.266317 0.812543 -0.361022 -0.080564 -1.388651 1.184010 0.990986 2.054974 -0.391287 1.246423 -0.453382 -1.005474 -1.096670 1.433038 1.936580 -1.750291 -0.354004 0.034996 0.824373 1.057708 -1.614225 1.611179 -0.250583 -2.325092 -4.317316 -2.575641 -0.824553 -0.868411 0.953333 -1.216908 -1.734385 -0.058393 4.270594 -0.274938 -0.261111 2.564495 -1.635140 0.583810 0.057770 0.625299 0.654789 0.892762 0.826450 1.857731 0.662399 1.496610 -0.139481 -0.131951 0.019033 1.378579 -0.890453
132127485 0.459277 -0.184533 -1.001876 -1.070463 -0.222868 0.489500 0.985404 1.464852 1.407777 -1.606645 -2.061480 1.624480 -2.141368 1.002079 1.031043 -1.939200 -1.496584 2.433133 -1.119956 -0.592311 -2.244037 1.330693 -0.664320 0.690175 1.087661 -1.089456 0.025421 -1.190184 -0.525509 -1.823773 1.529675 -2.168236 -0.787810 2.186527 -0.512718 0.222044 1.229203 1.385120 2.475945 1.066937 -1.254483 -0.090185 -0.822138 1.175430 0.507801 -2.523565 -0.180589 -1.253012 -1.210170 1.355038 -0.863511 2.131676 -0.166346 1.330859 -1.201512 -2.380329 0.264317 0.287352 0.057796 1.202064 1.078062 -0.064395 0.504979 1.076593
133650199 -1.359458 -0.059594 2.121619 -0.482545 1.367115 -0.051689 -0.666180 0.991855 0.293234 1.897432 -0.619115 -0.095999 -1.874202 -0.148305 -0.536321 0.876386 -0.471627 0.805433 -1.622321 1.040704 -1.603344 3.213315 1.122558 2.192468 1.272368 1.576317 1.441339 -2.233720 0.138809 0.132084 0.069141 2.134342 1.209221 1.122064 -2.617628 1.494522 1.712154 1.366345 1.323658 -1.348884 0.138731 2.648984 2.374652 1.964541 1.558554 -3.812886 0.913718 0.333304 -0.196388 5.181841 1.568439 0.400412 0.584283 -1.459682 1.328357 0.712531 0.061893 -2.655897 -2.701607 0.523275 -0.488429 -0.851069 -0.236118 -1.319001
131731179 -1.401156 -1.986843 2.336385 -0.731105 -0.094929 0.344527 -2.422760 -0.616238 0.999103 0.343593 0.936121 0.681990 2.380125 -0.853894 -0.458101 -0.621388 1.382735 -2.041425 -2.218763 -1.109797 0.506167 -4.028868 0.770434 0.119123 -0.314308 0.945370 -0.348150 -0.261328 -2.457999 0.475781 1.239127 2.261964 2.997487 0.740782 -0.677459 -0.330999 -1.261536 1.082684 0.942312 2.158754 -1.173229 0.070531 -2.385303 -0.235682 1.225996 0.842206 1.679336 -1.057655 1.441623 -0.604476 -1.533270 -2.184070 -0.328852 -0.233977 -3.436150 0.288911 -1.696620 1.056917 0.667575 0.498314 0.267768 -0.582940 0.265413 -0.064222
136954282 -1.257363 -0.717905 -0.543848 0.280603 2.293885 0.931713 2.335266 0.958053 0.329578 0.104630 0.480469 0.888672 0.065910 0.030095 -0.682942 -1.907940 -0.585678 -1.135259 -0.239636 -0.939006 0.543678 0.728095 0.887313 0.422098 -1.656970 -2.180248 1.564667 -0.986849 -2.708028 0.438151 1.430344 1.728468 0.789809 1.406585 -0.624250 -0.722838 -0.216222 0.321793 2.067824 1.331492 -0.963542 -1.220574 0.062816 -0.325793 1.305680 -1.910219 1.336737 -0.419590 1.343920 1.467596 -0.141619 -1.083686 0.328012 -0.360251 -0.684704 0.144389 -1.336489 -1.351886 -0.287417 0.691804 -0.141074 0.272751 -0.826892 -0.726797
109989715 -1.566560 -0.619699 4.081019 -1.728076 0.100435 -0.692078 -1.374133 0.943005 0.693786 -0.704138 -1.262721 2.056533 -4.837672 2.049184 1.499701 1.652679 -3.287154 -1.182375 -2.888067 -0.217959 -1.511069 -0.510460 1.293679 3.462604 2.321962 -0.616966 1.397799 -0.999586 -2.518066 2.871492 2.361493 2.091059 3.063374 -0.613117 -0.292015 0.733657 -1.374122 1.630450 1.482257 -2.085759 -1.607102 1.919917 0.120152 0.776351 -1.330695 -1.807735 -1.546246 0.063522 0.416450 1.889578 0.807689 1.232875 -2.538109 0.715615 -1.398993 -0.555559 1.621254 0.982123 0.791051 0.221005 -0.679267 1.597159 4.654449 0.853788
141897072 0.252308 -2.048509 2.077976 -0.599990 1.325594 -2.237774 2.443986 -2.743409 -1.556040 -0.015402 0.820197 -0.757562 0.233145 -1.782197 -0.211857 -0.757509 0.408627 -2.592005 0.610992 1.300716 0.878125 -0.421793 0.414063 -0.091470 -0.438319 -1.241374 1.381464 1.466931 -1.923337 0.567882 1.409993 1.645542 1.657179 -0.610975 -0.139872 1.368895 -1.914726 -2.247033 -0.299101 0.655174 -2.682699 -1.458031 -1.005257 -0.176329 0.610000 3.644731 -0.276796 -0.918047 2.374387 0.863858 -1.173661 1.283316 1.392909 -1.203798 -0.467464 -0.033960 1.386576 0.229722 0.868818 0.315771 0.295104 1.066734 0.975771 -0.312690
120833893 -0.113475 -1.390507 1.296892 -1.667772 -2.360515 0.162393 -3.738429 0.628834 1.986063 -0.824707 -1.416348 1.259178 0.168636 0.648874 1.018817 -0.689926 0.168571 1.325522 -3.069877 -1.461442 -2.051407 -3.162872 -0.295843 0.302125 2.675917 1.903473 -1.875505 -0.626432 0.125162 -1.476830 1.342033 -2.135654 1.275231 1.524112 -0.715083 0.070554 -0.050561 2.439539 1.328750 1.438412 -1.049260 1.424256 -2.922490 1.175087 0.456754 -0.276825 0.445366 -1.607196 -1.010697 -0.571665 -1.760178 0.226235 -1.440166 1.386998 -3.890934 -2.211651 -0.640178 1.935671 0.847234 0.965438 1.042726 -1.229691 1.461179 1.917047
120840897 -0.798054 0.547957 0.700842 -1.599479 0.006961 -2.688126 -0.684990 -0.764069 -0.589201 1.062998 0.870290 -0.222066 -3.680592 -1.427410 1.419676 3.269119 0.399389 -2.945094 -3.292865 -1.810364 -1.545707 1.612849 0.550310 0.491336 2.685179 0.756528 -1.532933 1.348334 5.040459 3.933859 -1.160998 1.430507 2.330853 -4.878208 -0.461882 -0.090041 -0.961358 2.066699 -2.699809 -5.190072 1.612846 2.054961 2.237907 1.112193 -0.506594 -2.923236 -0.764839 0.997755 -0.573524 1.526985 2.220506 -2.211066 -4.516469 -0.142366 -0.323278 1.526875 -0.175538 -1.348394 -2.109425 -2.093616 -1.330464 1.145461 0.028398 0.949147
1318916166 0.002512 2.931130 1.088513 -0.982410 -0.134400 -1.954057 -3.568613 2.071213 -2.060973 1.434862 0.569123 -1.038005 -2.082893 1.360914 -0.403338 4.476212 -0.761158 -2.008863 -2.480167 -1.965364 -1.165790 1.132886 -0.299765 0.921138 3.609171 2.132144 -2.650595 0.244508 1.395739 4.794512 -3.318367 -0.187634 0.410939 -3.350979 -0.108526 1.608671 -0.401906 3.328362 -2.239486 -4.034976 1.375548 0.725907 4.800946 2.070284 -2.371154 -2.380731 -0.436702 1.832839 -0.716187 -0.178376 1.232218 -1.791488 -3.198362 -1.475111 1.886841 2.393632 -1.117968 -2.573018 -1.403344 -3.205884 -1.609422 2.215675 0.178515 1.723742
109226167 0.526495 3.668685 -1.478626 -1.195596 -0.951423 -1.031272 -1.334484 2.719814 -0.594362 0.305782 0.283461 -0.965001 -1.042598 0.417971 -2.519717 3.353307 -0.680456 -2.489737 0.592714 -3.479708 -1.943555 -0.178413 -0.948842 -1.789043 2.175397 1.663186 -3.844241 2.203101 1.403524 3.838799 -2.653887 -2.172585 -1.646260 -3.529823 1.283272 2.217411 -0.213535 3.812967 -3.432662 -1.486965 0.233203 -3.332450 1.704470 -0.221444 -1.434098 -1.196382 -0.831945 1.249457 0.139501 -3.161981 -1.424717 -2.570832 -4.081858 -0.965464 0.849436 0.861530 -1.928103 -2.696006 -0.477513 -3.293511 -1.795656 2.796413 -1.175964 1.517636
139055045 1.170471 -0.708108 0.412878 1.077672 0.548696 -1.331434 1.710648 -2.711100 -1.729645 -0.228505 1.322530 -1.258553 0.503076 -0.637215 0.375753 0.126129 0.309039 -1.939481 1.201504 1.558500 1.885237 -0.550699 -0.208048 0.366635 -1.247271 -1.244045 1.496476 1.768818 -1.622082 1.056957 0.219217 1.471397 1.118704 -1.486201 1.902484 -0.380864 -1.490154 -3.553599 -1.796462 -0.036260 -0.215952 -0.547424 -0.405794 -0.924714 -1.127803 3.854095 -0.574794 0.327109 2.183891 -1.674939 0.334290 0.638291 1.356138 -0.296584 0.696412 0.660764 1.919772 1.318437 0.779318 -0.490231 -0.232281 0.385104 1.325394 -0.282276
131488279 2.535361 0.969400 -1.520428 1.331805 0.103671 -0.875342 1.957056 -1.990125 -1.353618 -0.419337 -0.612619 -1.735920 1.810983 -0.696527 0.316597 -0.193141 1.107790 1.804672 1.778875 2.252907 0.401735 1.979287 -1.173474 0.419231 -0.274795 0.318901 0.734506 0.329844 1.349078 -2.195198 -0.872027 -0.553508 -1.529731 0.090360 1.333884 0.764552 1.635805 -2.942961 -1.511091 0.543693 0.377887 -0.307124 0.972598 0.791647 0.144483 1.044437 0.015562 0.052447 0.569460 0.436113 0.472180 1.260042 2.301154 -0.085843 1.639534 0.249401 1.448479 0.545508 -0.446560 0.194357 0.301835 -1.324906 -0.954373 -0.570362
1119147751 1.456192 0.890132 -0.086042 1.976612 -0.271802 0.155849 2.281320 -1.032152 -3.387444 -0.495802 0.236130 -0.668135 3.254881 1.559849 -1.197724 0.838458 1.385678 0.873587 1.738530 2.328544 -0.177598 0.165966 1.324013 1.491197 0.703721 1.570611 -0.562357 0.487974 3.342543 -1.401900 -0.158035 0.097353 -4.255608 -2.016490 0.975097 -0.331808 1.690108 -4.052444 1.428614 -0.008886 -0.728095 -1.005969 1.870865 -0.128337 -0.551164 0.457106 -3.241089 3.700072 0.040129 0.784676 0.761772 0.557589 0.190514 -0.693734 1.297501 -1.582721 0.705861 0.482539 1.033291 1.420436 1.073554 0.664465 -0.077108 -1.106593
107451662 -0.561783 0.882612 -2.433638 2.079551 0.837758 0.120952 0.776963 0.874510 0.532418 -0.292593 -1.162723 0.753974 2.129726 -0.269601 1.086273 1.254658 -0.457344 3.505520 0.518375 -0.651112 0.436628 2.542474 -0.893110 -0.107629 -1.897504 -0.757908 1.813077 -0.729039 0.957066 -2.254346 -0.684685 0.915931 -0.669862 1.852746 -0.201474 -0.548437 1.632058 -0.402915 -0.823189 -0.075753 1.816258 -0.903613 0.773504 0.211157 2.008523 -1.218643 0.295711 -0.628619 -1.197498 0.666990 0.016186 -0.394618 1.040436 -0.604531 1.892606 0.390384 -0.544744 0.084768 -1.007673 1.434642 1.257911 -0.163851 -2.175635 0.671571
1087266312 -0.295751 -1.703034 0.487097 -2.007287 -1.051976 -0.449009 -0.325547 1.315415 1.244666 -0.840289 -1.113148 1.391499 -3.480788 0.762412 0.692438 -1.691106 -1.602626 0.443228 -1.408360 -0.939708 -2.742634 0.103447 -0.434410 -0.172516 1.903919 -0.533788 -0.682628 0.203716 -0.509612 -0.596552 1.898295 -2.804725 0.546045 1.324597 -1.220931 0.416584 -0.821000 1.916502 1.979998 0.059493 -1.645836 0.599364 -1.970873 0.535203 -0.449478 -0.298740 -0.594666 -1.364016 -1.228374 0.864611 -0.501206 2.311416 -0.982954 1.326077 -1.598405 -2.645607 0.886276 0.226653 0.363537 0.389844 0.798552 0.418029 2.027123 1.527741
100279559 2.231629 0.982623 -1.565862 1.408456 0.025158 -0.756204 2.135314 -1.748039 -1.454561 -0.553240 -0.535701 -1.349872 1.939085 -0.320214 -0.026923 -0.282246 0.943135 1.593689 1.826466 2.223405 0.286703 2.097795 -1.163869 0.264080 -0.371312 0.238471 0.579665 0.191518 1.571393 -2.165848 -0.635182 -0.592672 -1.631177 -0.070964 1.338289 0.642182 1.668071 -2.931801 -1.225741 0.565209 0.407508 -0.407635 0.976195 0.521121 0.002274 0.704667 -0.142948 0.308719 0.266454 0.810413 0.697918 1.046540 1.955378 0.079830 1.645885 0.097402 1.310405 0.622029 -0.308090 0.182494 0.211807 -1.179222 -0.757444 -0.760653
1391621922 -0.330536 -0.709384 -0.691896 -1.229697 0.922121 -0.066170 1.303768 0.707155 0.562120 0.473163 -0.390507 0.208079 0.695163 -0.106568 -0.552960 -2.078357 0.226307 1.091337 -0.591409 -0.208580 -1.242299 1.757156 -0.111180 0.142818 0.426828 -0.286478 0.735950 -0.978052 -0.400639 -1.285654 0.292751 -0.209563 -0.669507 2.320805 -1.962407 0.898685 1.104300 1.234279 2.452546 1.021228 -1.722982 -1.154315 0.232031 1.016700 2.141431 -2.425126 1.229719 -0.800419 -0.233020 2.496519 -0.438715 0.353881 1.188019 -0.048169 -0.273622 -0.663699 -1.130259 -1.585954 -1.316351 1.308046 0.613637 -0.390717 -1.650030 -0.552043
1178628175 -2.730927 -2.337873 2.496387 -1.524045 -1.238075 0.231238 -0.141752 1.434258 -2.081117 1.741307 2.448417 1.182979 1.139748 0.776460 -2.087056 -1.029521 0.175937 -1.818040 -0.100948 -0.500799 -1.433973 -1.489220 1.829249 -0.715710 0.048779 1.588566 -1.095403 0.546240 1.299872 0.570911 0.798643 0.157375 -1.939510 0.252617 -3.184512 0.303325 -0.175810 0.672109 4.934535 -0.348729 -1.410099 -0.698036 -1.045019 -1.518393 0.883890 0.972651 -2.866434 1.408090 -1.777120 1.880455 -0.477306 0.958025 -0.622967 -1.339133 -0.375144 -3.829272 -0.260361 -1.346719 0.130805 2.317626 1.162925 1.799474 0.123349 -0.389892
142638286 -1.856514 -1.670835 1.761827 -1.034043 1.351892 -0.084286 0.744174 0.222375 0.126527 0.667993 1.165851 0.945866 -0.773623 -1.026723 -0.267133 -1.713324 -0.682525 -2.918015 -0.711188 -1.157864 0.479373 -0.993778 0.994630 -0.655872 -1.070080 -1.471997 0.572084 0.086478 -3.095580 1.252460 1.609859 1.629677 2.409603 0.486644 -1.209987 0.136749 -2.241892 0.723885 1.488040 0.732918 -1.702208 -0.864725 -1.424940 -0.888960 0.976979 0.710015 0.700131 -1.413818 1.651419 0.400381 -0.703058 -0.482327 -0.093845 -0.544867 -1.389823 -0.227637 -0.262860 -0.714580 0.446852 0.102852 -0.181533 1.090087 0.452363 0.060912
135081271 -1.798551 -1.677903 1.547527 -0.728372 1.294596 -0.301081 0.807076 0.055090 -0.163318 0.316074 1.152403 0.762944 -0.203867 -0.869043 -0.119415 -1.344246 -0.393876 -2.969395 -0.488300 -0.998784 0.655849 -1.000346 1.002340 -0.222427 -1.324338 -1.716850 0.846265 0.348255 -3.021136 1.290564 1.377445 2.076056 1.896878 0.656877 -1.036564 -0.088135 -2.114066 0.398046 1.761583 0.409570 -1.502159 -1.186044 -1.123533 -0.718900 0.782127 1.060365 0.411235 -1.089532 1.333812 0.379142 -0.435799 -0.726776 0.018762 -0.358419 -1.084014 -0.024542 -0.187310 -0.546503 0.703513 0.168440 0.136030 0.803245 0.375232 -0.122729
1241830243 -1.339988 -1.988052 1.527117 -0.707162 1.338490 -0.340118 0.705374 -0.424095 0.155723 0.367482 1.181811 0.810727 -0.432347 -1.220909 -0.296263 -1.396017 -0.422562 -2.528159 -0.634835 -0.709260 0.374893 -0.883674 1.065105 -0.160975 -1.238223 -1.999958 1.072207 0.343860 -2.997548 1.303155 1.722889 2.036097 2.142667 0.758381 -0.971693 -0.068074 -2.070712 0.839147 1.776187 0.580939 -1.680357 -0.918993 -1.289055 -0.544763 0.690679 0.987963 0.751148 -1.051026 1.100121 0.509385 -0.263808 -0.624952 -0.084563 -0.433094 -1.057542 0.209853 -0.550214 -0.499102 0.530040 0.286831 -0.003452 0.722539 0.155245 -0.244263
1347486582 -1.646142 -1.924823 1.494103 -0.821667 1.498720 -0.200185 0.730836 -0.020573 0.113562 0.475006 1.048317 0.915384 -0.743826 -1.025831 -0.158351 -1.452702 -0.556533 -2.464016 -0.961662 -1.121998 0.396367 -0.664441 0.829249 -0.251106 -1.113698 -1.876300 0.812253 0.157027 -3.151371 1.170898 1.593635 1.857321 2.154019 0.558714 -1.000908 -0.245113 -2.026860 0.611843 1.492748 0.638033 -1.496965 -0.782133 -1.219813 -0.589861 0.889025 0.703960 0.740271 -1.141521 1.270745 0.538005 -0.744074 -0.445762 -0.027449 -0.686883 -1.363486 -0.129180 -0.337085 -0.680896 0.410155 0.266790 0.205611 0.890851 0.328339 0.169584
112736742 0.680151 -0.309850 0.734293 1.289846 -2.297259 -0.575466 0.669484 -1.395416 -2.631702 0.377402 1.840425 -1.272356 2.218256 0.174506 -0.687969 0.545815 1.385990 -0.607027 1.972172 2.227673 0.176813 -0.757501 0.536316 -0.219919 -0.337424 1.617758 -0.698391 1.133331 3.056720 -0.327518 -0.606838 -0.143316 -2.707531 -1.866719 0.071615 -0.165348 0.736736 -3.072864 1.332035 -0.549110 0.851114 -0.196954 0.077758 -1.098035 -0.713267 3.402133 -3.129772 2.237615 -0.447816 -0.810845 0.823214 1.734455 0.726565 -0.717591 2.077083 -2.170406 1.854511 0.863863 0.497912 0.787410 0.614384 0.608414 0.228714 -0.507566
1196230897 -1.097770 0.350188 4.770905 0.589770 -0.204603 1.068523 -5.985833 -0.643330 0.541895 0.910155 0.616017 0.439318 0.721444 0.569999 0.485529 3.886683 0.572522 -0.830269 -3.329514 0.339461 1.214656 -4.312038 1.329737 3.732965 0.508772 3.351660 0.087934 -1.462616 -1.711515 2.330512 -0.103522 4.982674 4.083768 -1.434609 0.788001 -0.494940 -0.318641 0.904546 -1.628239 -0.053244 1.506049 3.954850 0.492997 0.587501 -0.957033 -1.330853 0.687621 1.158614 1.332967 -0.694384 0.782620 -2.567615 -1.156623 -0.778688 -2.407737 2.755927 -0.403429 2.155937 -0.061376 -0.412590 -1.017734 -0.892720 2.277375 -0.421562
123264865 -0.696420 -1.763546 1.874145 -1.260730 -1.273568 -0.022516 -3.298800 -0.168956 0.884177 1.071305 0.155749 -0.140888 2.821699 -0.807652 -1.020290 -0.487179 1.974206 -0.405080 -2.369071 -0.993800 -1.424634 -3.327118 0.346366 -0.211086 1.550785 2.924601 -1.349073 0.164808 -0.134340 -1.006204 0.388132 0.085856 1.493321 1.178674 -1.464475 1.247164 0.130327 1.936433 0.967758 2.297575 -1.355602 0.506897 -2.273834 0.714847 1.794700 0.272449 1.640589 -1.120924 0.244319 0.343352 -1.675406 -1.217112 -0.235721 -0.205015 -2.884575 -0.554096 -1.819843 -0.086916 -0.229582 1.000373 0.789108 -1.130468 -0.499533 0.242561
1249837812 -1.973175 -2.070735 1.251431 -0.651441 1.432443 -0.002200 1.191312 0.190279 0.300302 0.383068 1.100818 0.928330 -0.713066 -0.678441 -0.277200 -1.706954 -0.307050 -2.937277 -0.760174 -0.937489 0.602670 -0.538900 1.026724 -0.532174 -1.101936 -2.095336 0.892785 0.092397 -2.782292 1.410054 1.549931 1.723647 2.173164 0.465324 -1.310341 -0.452464 -2.164848 0.436374 1.717875 0.541647 -1.381836 -0.839255 -1.044276 -0.654854 0.962518 0.564801 0.680796 -1.063955 1.335358 0.695937 -0.473346 -0.440735 -0.010058 -0.326550 -1.130291 -0.020739 -0.438522 -0.721753 0.401969 -0.019332 0.016816 1.092998 0.429252 -0.287840
1277145822 -1.757288 -1.893105 1.614043 -0.728959 1.235613 -0.144669 0.782622 0.065838 0.112445 0.424772 1.131207 1.088061 -0.436597 -1.095291 -0.484393 -1.398843 -0.649971 -2.784286 -0.374749 -1.089736 0.410379 -0.931648 1.065455 -0.551012 -1.489416 -1.974695 0.780657 0.245375 -2.971442 1.295789 1.887118 1.868872 2.102783 0.662833 -1.073177 -0.041916 -2.147041 0.891976 1.673882 0.603424 -1.499887 -1.170243 -1.450788 -0.928997 0.791626 1.095019 0.544347 -1.267196 1.150263 0.548343 -0.496356 -0.728779 -0.358026 -0.539811 -1.200804 -0.153767 -0.508779 -0.482402 0.740446 0.215647 -0.073346 1.023761 0.180164 -0.176849
1198223192 -0.915629 -2.060800 2.137611 -1.151394 -1.070744 -0.122626 -3.731843 -0.241850 1.350554 0.737969 -0.029267 -0.091989 2.700064 -1.042926 -0.870577 -0.425136 2.095111 -0.251821 -2.591563 -0.953928 -1.275696 -3.349903 0.411829 0.045769 1.472955 2.689219 -1.297357 0.152895 -0.309117 -1.009339 0.542075 0.355286 1.396775 1.642909 -1.576108 0.706795 -0.266294 2.242405 0.909542 2.009869 -1.145724 0.602101 -2.419276 1.100247 2.037251 0.314523 1.556397 -1.276230 0.114027 0.255846 -1.719057 -1.456401 -0.304996 -0.224400 -3.317708 -0.392004 -1.629232 0.062577 -0.237843 0.998877 1.046585 -1.718706 -0.385613 0.418290
1334903696 -0.855825 -2.246883 2.092178 -1.302132 -1.173716 -0.372123 -3.263219 -0.296253 1.217660 0.576761 0.051485 -0.085477 2.878188 -0.822596 -0.737009 -0.639741 2.364536 -0.531356 -2.532928 -0.555064 -1.085754 -3.179492 0.053557 -0.147959 1.504867 2.579144 -1.181455 -0.228407 -0.440281 -0.923281 0.597092 0.327871 1.684572 1.718442 -1.807793 0.658917 -0.105041 1.846191 1.090708 2.174378 -1.230862 0.351327 -2.171703 1.233745 2.052512 0.465953 1.537520 -1.482110 0.322243 0.433676 -1.877142 -0.999799 0.249856 -0.063542 -3.154392 -0.388035 -1.623996 0.463762 -0.316568 0.835222 1.057339 -1.237979 -0.334013 0.189132
1043296034 -0.800408 -1.768992 1.193216 -3.101381 -0.069362 -3.515315 -0.518793 -1.211060 0.757452 1.195755 0.359020 1.883388 1.632870 -1.263623 -1.039928 0.972534 -0.302600 -0.307180 -3.630651 -2.929004 -2.515728 0.690111 0.951983 -1.867462 4.220311 -1.522952 -0.173297 2.231285 1.438502 4.791798 -0.315344 0.462079 0.384991 -0.562476 -1.656705 1.174975 -1.322915 5.456593 0.494646 -2.733029 -2.527036 -4.459737 -0.328173 2.148566 2.699258 -0.126898 -0.391900 -0.252365 -2.119087 1.651515 -2.532244 -1.326684 -3.977838 -2.196897 -0.482313 -0.737765 -3.663842 -1.264393 -0.849930 1.532444 -0.657449 2.376342 -1.580495 1.543895
103974425 -2.083852 -0.371573 2.691558 0.684657 0.918157 0.257104 -1.970503 0.124759 -0.130866 1.477169 1.363244 0.090166 -3.202332 -0.136491 0.569685 2.378448 -1.086262 -2.249825 -1.233396 0.715880 1.084598 0.597628 0.814684 2.050272 -1.290230 0.040918 1.741881 -1.053644 -2.195675 2.767502 0.017416 4.197890 3.796371 -1.146833 -0.091329 -0.822117 -0.864084 -0.301878 -0.925930 -2.264649 2.569826 3.739978 1.666667 -0.597667 -1.582336 -0.569946 0.275101 0.921195 0.570270 1.324222 2.725416 -0.695688 0.049507 -1.042791 1.304234 2.280661 1.474333 -0.490754 -1.124475 -1.343361 -1.346061 -0.046249 2.141531 -0.884186
143441181 -1.791488 -1.921545 1.568450 -0.802765 1.255916 -0.177311 1.122375 -0.141016 0.227087 0.429264 1.350601 0.916482 -0.576021 -1.282373 -0.136164 -1.814728 -0.582590 -2.897867 -0.609555 -1.075394 0.438201 -1.027422 1.187282 -0.510521 -1.323343 -1.927243 0.896467 0.432112 -2.763335 1.436244 1.678296 2.053996 1.969801 0.419601 -1.181327 -0.082047 -2.160831 0.656495 1.947008 0.709624 -1.579880 -1.269756 -1.587852 -0.896545 1.080957 0.838352 0.431436 -1.212505 1.543886 0.393249 -0.618406 -0.364820 -0.116695 -0.608633 -1.221548 -0.440069 -0.092022 -0.681930 0.496118 0.412939 -0.024567 0.895375 0.305168 0.016525
1132163245 -0.912912 -1.170614 3.443697 -0.713063 0.458429 0.566381 -2.898005 -0.508753 0.568388 0.083669 0.459574 1.435369 3.009553 -0.168476 -0.348864 -0.159099 0.893324 -1.980240 -2.936534 -1.461519 0.269838 -4.983055 1.634333 1.256904 0.572499 1.243930 -0.470892 -0.111746 -2.917964 1.107078 1.564047 2.848484 3.144927 0.627442 -0.235688 0.387578 -1.404858 1.708663 1.097538 2.462883 -2.216419 -0.297180 -2.401559 0.573991 1.279640 0.191473 1.173681 -1.143536 1.935486 -0.747656 -1.862277 -2.421070 -1.180369 -0.023549 -4.207430 0.409380 -2.046171 1.599617 1.432540 0.937322 0.150000 -0.118773 0.732469 0.170584
1136574486 1.267158 0.013339 0.739909 1.173575 0.057861 0.662553 0.813406 -1.676911 -0.562152 1.078860 -1.171151 -1.322035 0.906920 -0.566718 0.818560 -0.345803 0.903635 0.846681 1.984473 1.971447 0.388284 0.462402 1.379881 -0.868834 0.447961 0.425936 0.602354 1.848388 1.285119 -2.362453 -0.655873 -1.131139 -1.065935 -0.630661 0.014841 1.146402 -0.872918 -3.420575 -1.824409 -1.007653 -1.049544 1.211772 -1.139200 -0.429733 0.765319 3.995948 -0.629827 -0.723115 1.061305 -0.546516 0.951737 1.433600 1.175797 1.348961 1.928711 0.326990 2.057795 0.211127 1.332496 0.280764 0.619846 -0.870784 0.197344 -1.310037
1200691975 0.909841 -2.038836 1.599720 -1.316720 0.047878 -2.752304 1.450804 -2.205003 -1.286193 0.524914 -0.032482 -1.446551 1.029117 -1.246288 -0.655468 -1.029523 1.183256 -0.704540 0.275512 1.534829 -1.321830 0.390779 0.201623 -0.352323 1.926326 0.785087 0.399774 1.980815 0.702203 -1.001347 0.736644 -0.821416 -0.070699 0.389244 -1.463721 2.510224 -0.781536 -1.294271 0.181243 0.207298 -3.226986 -1.171987 -1.284361 1.119202 1.468147 3.187591 -0.408350 -1.038368 1.025344 1.771888 -0.948942 2.079492 1.381589 -0.476309 -0.100502 -1.194567 1.208704 -0.535850 0.023160 0.903600 0.995917 -0.040679 0.321579 -0.206493
1456532246 0.918166 -1.505809 3.024131 -0.827479 1.760798 -2.565410 2.379135 -2.895939 -2.325422 -0.333768 0.296421 -0.343532 0.995419 -0.828209 -0.565638 -0.673753 0.196954 -2.813880 -0.095394 1.397457 0.259256 -1.011231 1.111995 0.958792 1.086279 -0.704280 1.223358 2.124243 -2.155965 1.080222 1.833087 1.736099 1.509151 -0.877924 0.552976 2.049417 -2.227420 -2.147001 -0.236062 0.649197 -4.150264 -1.966426 -0.924625 0.632220 0.401783 3.070299 -0.845769 -0.482893 2.876164 0.994014 -1.083700 0.792942 0.381014 -0.643414 -1.205002 0.080864 1.142340 0.499422 1.483205 0.483440 0.172373 1.220139 1.826913 -0.386516
1154921653 -0.317966 -0.703602 1.825832 -1.820880 0.698837 -0.135129 0.666570 0.433779 0.409828 -1.492717 -1.020583 2.771504 -3.105456 0.613080 1.343805 -1.250271 -2.755414 -1.009774 -1.738851 -1.460179 -0.980430 -1.455195 1.108808 0.930405 1.111392 -2.207608 0.150772 0.238482 -2.958198 1.506693 2.748453 0.023985 1.684740 0.140658 0.694668 0.016621 -2.047646 1.440825 1.785702 0.135968 -2.748046 -0.801353 -1.639431 0.047903 -0.929961 -0.455563 -1.125419 -1.073417 0.434662 -0.057602 -0.896697 0.778481 -2.295147 0.860584 -2.747524 -1.456748 0.383734 1.297946 2.134403 0.671655 -0.007721 1.772960 2.686013 1.409139
137815912 -1.685399 -1.656009 1.432140 -0.760432 1.298246 -0.381072 0.904197 0.366549 -0.260293 0.579186 1.168359 0.816060 -0.641360 -0.788364 -0.401255 -1.189683 -0.738843 -2.852883 -0.630768 -1.277403 0.289881 -0.831650 1.045192 -0.299410 -1.072132 -1.632853 0.795469 0.376663 -2.905726 1.534877 1.640124 1.630198 2.020779 0.646475 -1.024764 0.086232 -1.824076 0.751790 1.582381 0.477954 -1.324686 -1.015042 -1.173630 -0.593416 0.740517 0.969746 0.348107 -1.247540 1.242505 0.596729 -0.718145 -0.356277 -0.260001 -0.698931 -1.090810 -0.381656 -0.389332 -0.847208 0.419321 0.354080 0.005091 1.210166 0.341182 0.195949
132253558 -0.208649 2.893830 -3.434885 -1.497568 -0.528972 -0.513047 1.600756 0.402967 -0.342337 0.470151 0.335591 0.632350 1.407453 -0.315061 1.134107 -0.666497 0.168848 -0.509588 0.725025 -1.871098 1.576041 2.675008 -2.014910 -3.110715 0.569754 0.595685 -1.704777 -2.621746 3.289006 0.507824 -3.026381 -1.127211 0.777194 -1.804249 -0.360239 -0.344585 1.599261 0.184405 -1.842035 -1.089763 1.881799 -1.638067 2.389978 -0.831065 0.343856 -3.461385 1.514774 0.119002 -0.920475 1.211333 -0.121380 -2.425139 0.169563 -0.789106 0.913182 -0.070689 -1.411835 0.217723 -0.372720 -1.680851 -2.597415 0.042277 -1.932348 -0.000408
1071741704 -1.413936 3.609499 -0.834085 -2.171120 0.983125 0.121574 1.033348 1.704110 0.014896 -0.113097 1.309140 1.259540 -1.732145 -0.353573 -1.403208 2.115835 -2.187433 -3.805015 2.216002 -3.250312 1.144204 -1.640039 -0.410752 -2.136970 -0.938131 1.417928 -1.480272 1.357916 0.010268 3.869603 -1.076155 1.280449 1.678005 -3.782238 1.739848 1.322034 -1.187016 1.630758 -4.743315 -0.378662 -0.266122 -3.435529 -0.225882 -3.809661 -1.277683 -2.486933 -0.917912 0.803049 1.897799 -2.385287 -1.345968 -3.747327 -2.682801 -1.192490 -1.417220 0.999720 -0.701628 -0.535123 0.467310 -2.511846 -3.407595 2.366490 0.732796 -0.254767
116768508 -1.239527 2.233881 1.940840 -2.060440 0.815783 -0.452522 -1.221200 -0.511952 -1.087914 1.506093 1.568514 1.599635 -1.747517 0.513223 1.039334 2.268139 -1.744149 -2.804331 -1.942684 -1.332638 1.683481 0.118009 0.199121 0.228118 1.472197 1.127987 -0.337415 -1.030389 -0.096102 4.931228 -2.026788 3.254745 3.896122 -4.364485 0.937423 -0.043686 -1.031201 0.477119 -3.058071 -3.019173 0.910960 0.903324 2.435889 -1.345550 -1.768794 -3.032683 -0.181741 1.768485 0.692485 0.646926 1.041318 -2.637922 -1.837506 -1.587998 -0.114178 1.751362 0.130845 0.559272 -0.124664 -1.947251 -3.479976 1.468343 2.224954 -0.199359
100634743 0.648159 2.610245 -1.619030 -0.367683 -0.724287 -1.539519 -1.246239 2.222399 -1.994142 0.113594 0.384165 -0.573240 0.365536 1.306067 -0.382497 2.092472 -0.064364 -2.506391 -1.377903 -3.273188 -0.798828 -0.060125 -0.835068 -0.974242 2.637974 0.579683 -3.335734 0.949211 1.253229 3.552501 -2.694389 -2.109751 -0.600566 -2.721213 0.888690 0.571241 -0.548571 2.490122 -1.491473 -1.564335 0.816000 -2.218715 2.976583 1.350094 -1.756678 -1.195419 -0.158143 0.960481 -0.292897 -2.200404 -0.352513 -2.155611 -3.156096 -0.443195 0.786486 0.865417 -2.247660 -1.561756 0.125901 -2.710628 -0.990049 2.861236 -0.975990 2.415008
129927787 -0.116733 2.530633 -0.438563 -1.754656 -2.721225 -0.645440 -4.027373 -0.345311 0.202883 0.504417 0.827305 0.345044 3.158518 -1.045786 1.468821 0.934905 1.439730 -1.153303 -1.259509 -2.739850 1.615708 -2.783310 -1.659313 -2.826756 1.830099 3.867215 -4.133573 -1.776084 3.748680 0.824039 -3.273894 -0.992340 2.536978 -2.498116 -0.059736 0.209421 0.412596 2.011207 -2.893023 0.106096 2.324771 0.086308 0.079925 -0.341681 -0.362654 -1.366040 1.721656 -0.558279 -0.825179 -1.541036 -1.266837 -3.526010 -1.126540 -0.866155 -1.935921 0.173638 -1.637980 2.133310 0.915656 -2.022924 -2.273536 -1.148299 -0.739942 1.634092
121052401 0.368428 1.130262 -0.598839 -1.293131 0.456632 -1.373275 0.600670 -1.840327 -1.113718 0.038436 1.973526 1.985050 0.144878 -0.971087 0.917064 0.479284 -1.429400 -2.866077 -2.176808 -2.409332 1.272189 -0.448046 -0.393529 -1.804003 0.770987 -2.251747 -0.874078 0.527441 -0.505184 4.733765 -0.707464 1.719184 2.797794 -4.552603 2.684556 -1.458094 -1.966527 0.824078 -2.008745 -1.714925 0.204253 -2.383340 0.885299 -1.810883 -1.873898 -0.995418 0.164396 1.352754 0.552709 -1.704628 0.299872 -3.371550 -3.107898 -1.293211 -0.378382 1.299256 -1.783831 0.993840 1.006986 -1.543464 -2.338632 2.620819 0.436932 1.296961
1070609989 -1.001838 0.309555 1.122677 -1.639238 0.511723 -0.555601 -0.859199 3.927837 -0.526214 0.472257 -0.597643 -1.052776 -0.826989 1.059309 -3.401312 0.873768 -0.231056 -2.453312 0.487385 -2.050434 -2.669863 -1.624142 0.543348 0.248224 1.304210 2.004631 -1.462386 2.510232 -1.914212 1.438208 0.017337 -1.718102 -1.702792 1.846316 -1.391473 3.663253 -0.594930 3.775576 0.366247 1.262625 -2.717596 -2.601718 -0.285474 1.375873 0.739133 -0.216897 -0.677134 -1.144960 0.776430 -0.621114 -2.362037 0.053708 -1.370514 0.024628 -1.180659 -0.097204 -1.410791 -3.747150 -0.769473 -0.549572 0.529609 2.071528 -0.538972 0.405481
101022472 -0.636804 0.303180 -0.475579 1.596220 -0.135409 2.070986 1.264947 1.366698 -2.024343 0.013881 0.646852 0.646545 2.077945 2.204823 -1.479677 0.804339 1.043457 1.222940 1.098139 0.553302 -0.120840 -0.070748 1.405254 1.350252 -0.708493 0.850247 -1.095198 -1.221663 2.511756 -0.980709 -0.147129 0.609526 -4.520811 -1.445163 -0.582117 -2.055030 1.770403 -1.972807 3.120023 0.208593 0.205010 -0.790168 2.457897 -0.976482 -0.336895 -1.947985 -2.685097 4.228271 -1.151374 0.941498 0.388891 -0.320874 -0.399108 -1.261506 0.365292 -1.871901 -0.908902 -0.179920 0.684222 1.516111 1.214796 1.504794 -0.999696 -1.052576
119320379 -0.223632 0.575352 -2.014157 1.081533 0.140032 1.140108 1.163502 0.989639 0.555988 -0.184026 -0.430549 0.093259 0.242046 0.361897 -0.013224 -0.519700 0.156087 1.398606 0.923849 -0.015794 -0.016673 1.769688 -0.922143 0.002919 -1.588901 -0.642123 0.518344 -0.956612 0.252944 -1.309765 -0.635620 0.003146 -1.050650 0.722903 -0.109932 -0.306392 1.495199 -0.366145 0.368587 0.966962 1.182602 -0.160119 0.926432 -0.254966 0.502485 -1.842508 0.731040 0.136553 -0.555475 0.748183 0.343931 0.308552 1.022383 0.193004 1.076724 -0.006393 -0.088985 -0.417273 -0.885608 0.119217 0.156289 -0.304050 -1.217408 -0.548292
1092504002 -1.641597 -0.970983 0.426457 0.918210 -1.978617 1.517314 -0.813479 1.206408 -1.395456 1.431378 2.251981 0.140656 1.076230 1.012314 -0.683667 0.572085 0.538046 -0.161229 1.222415 -0.007963 -0.017053 -1.224909 1.118888 -0.375218 -1.558486 1.076506 -0.930424 -0.051891 2.141073 -0.214990 -0.477812 0.265469 -2.411148 -1.014102 -1.669930 -1.571105 0.441860 -1.128453 2.968226 -0.764335 1.534607 0.540415 -0.000951 -2.300579 -0.605384 1.542508 -2.390851 2.460772 -1.730848 -0.577732 0.999702 0.683946 0.042943 -0.914676 1.376413 -2.533873 0.334165 -0.022323 0.495448 1.270566 0.910919 1.149818 -0.410703 -0.253483
1102192388 0.325812 0.877573 -2.355890 0.896812 0.223042 0.668899 1.013699 0.588445 0.277515 -0.012790 -0.529328 -0.105976 0.925190 -0.054035 0.019956 -0.641185 0.162452 1.691620 0.920003 -0.023483 0.037418 2.026141 -1.148996 -0.107969 -1.445443 -0.533119 0.595931 -0.931483 0.137150 -1.533312 -0.715159 -0.139946 -0.877606 1.332949 0.300532 -0.232470 1.771751 -0.276293 0.007264 0.723902 1.303940 -0.319800 0.956664 0.021374 0.501873 -1.599596 1.196876 -0.244420 -0.720316 0.783602 0.621072 -0.262103 1.129663 0.212637 1.136901 0.290172 -0.419129 -0.319278 -1.027835 0.211700 -0.047588 -0.886047 -1.733245 -0.514228
1525413276 1.746125 -0.187342 0.516162 0.325107 -1.141972 -1.319960 0.539314 -2.353354 -1.196826 0.336657 0.416501 -1.944697 0.969985 -1.097261 0.382325 -0.024940 1.049044 0.159085 1.557574 2.078331 0.265615 0.044097 -0.261070 -0.290061 0.428342 0.832488 -0.014035 1.265923 1.721461 -0.920489 -0.578588 -0.709140 -0.903533 -1.108423 0.289207 0.900680 -0.160153 -2.377604 -1.099783 -0.375215 -0.234901 0.015379 -0.401602 -0.069001 -0.220993 3.264941 -0.828011 0.004414 0.801759 -0.660262 0.563776 1.708977 1.438166 -0.165491 1.201690 -0.494128 2.112583 0.794814 0.348525 0.000837 0.082201 -0.715136 0.193916 -0.129442
1020685621 0.423133 0.621726 -2.112288 1.108313 0.106634 1.129003 0.917616 0.492489 0.479488 -0.086700 -0.387845 -0.011510 0.684764 0.101256 0.090855 -0.790231 0.453189 1.491019 0.613504 0.051405 0.022172 1.717448 -0.925828 -0.073100 -1.345450 -0.728408 0.187400 -1.348743 0.053734 -1.622169 -0.573336 -0.133601 -0.625005 0.678867 0.075242 -0.512953 1.554745 -0.501785 0.438456 1.089383 1.100369 0.070386 0.904308 -0.002476 0.387667 -1.541164 1.326758 0.085561 -0.418483 0.543885 0.456131 -0.083190 1.104637 0.226590 0.984442 0.188036 -0.486050 -0.061926 -0.675311 -0.106473 0.051587 -0.552726 -1.577480 -0.517340
1371417001 3.009168 1.549934 -1.008814 1.399678 0.867675 -1.090998 2.564054 -2.168197 -2.003363 -0.887902 -1.319350 -1.250476 2.261777 0.085751 0.058301 0.012447 0.793053 1.423951 1.338036 2.135187 -0.122624 1.574466 0.045843 1.186856 1.327122 0.489105 0.430050 0.924709 1.635152 -1.810787 -0.213823 -0.545047 -1.826617 -0.899500 2.009873 0.957671 0.935313 -3.280107 -1.410612 0.221107 -1.399487 -1.170723 1.297409 1.205327 -0.127202 0.348884 -0.617945 1.051693 1.327725 0.595211 0.839545 0.234033 0.742609 0.248623 1.019154 0.420640 0.948556 0.610179 0.518766 0.253324 0.165286 -0.804059 -0.199761 -0.655109
145201371 0.066361 0.900459 -1.847455 1.306646 0.138315 1.292103 0.824714 0.785648 0.531501 -0.026400 -0.685309 0.160216 0.624849 0.122132 -0.168678 -0.425740 0.207471 1.625660 1.021794 0.080501 0.133714 2.087463 -1.068575 -0.083504 -1.787718 -0.788475 0.339054 -1.487789 0.019883 -1.637640 -0.544433 0.053963 -0.810862 0.891425 0.214217 -0.382117 1.673974 -0.257173 0.043987 0.900141 1.546088 0.107520 0.985691 -0.044388 0.577257 -1.693922 1.170763 -0.130887 -0.696488 0.834217 0.474634 -0.149409 0.918667 0.192687 1.188291 0.314267 -0.316333 -0.098869 -0.694030 -0.114475 -0.097791 -0.614154 -1.567242 -0.687061
114705393 0.240158 0.694551 -2.254424 1.018183 0.056013 0.878558 0.813070 0.649564 0.307433 0.043541 -0.384067 0.025374 0.573673 0.047493 0.157329 -0.369924 0.250631 1.814951 0.599151 -0.005950 -0.082507 1.999025 -1.043997 0.097997 -1.415513 -0.539676 0.488731 -1.155701 0.226512 -1.399984 -0.783803 0.044742 -0.873274 0.986118 0.149245 -0.537013 1.884330 -0.271789 0.363971 0.730859 1.545486 0.008700 1.203202 0.068663 0.313470 -1.782276 0.974853 0.167695 -0.938785 0.779144 0.600011 0.023489 1.128563 -0.062255 1.211195 0.112441 -0.407407 -0.283377 -1.030713 0.242719 0.134822 -0.601975 -1.663141 -0.395194
1161478927 0.111761 0.715914 -1.943736 1.053059 0.020689 0.939689 0.769571 0.718394 0.586433 -0.194611 -0.603495 0.081524 0.334891 0.075634 -0.003660 -0.290738 0.232535 1.830454 0.780726 0.178140 -0.106804 2.194070 -1.151689 0.195702 -1.631124 -0.846851 0.495646 -1.328191 0.023197 -1.444454 -0.697164 0.175004 -1.005716 1.047225 0.060582 -0.433355 1.804495 -0.070988 0.487381 0.707026 1.487315 0.002509 1.270185 0.175268 0.388841 -1.812934 1.001390 0.130731 -1.053849 0.818218 0.498160 0.191197 1.057494 0.110398 1.309711 0.335971 -0.291528 -0.195388 -0.947687 0.026699 0.177741 -0.439335 -1.650367 -0.543286
125623605 0.125813 0.900464 -1.878840 0.911352 -0.010152 1.072066 0.773464 0.415017 0.301299 -0.077395 -0.475494 0.291436 0.901746 -0.067042 0.177480 -0.404007 0.383015 1.778192 0.971909 0.098334 0.314079 2.029227 -1.092261 -0.083413 -1.723066 -0.721184 0.246043 -1.504045 0.321433 -1.576333 -0.884969 0.289354 -1.020140 0.921102 0.027130 -0.442145 1.834130 -0.401608 0.368297 0.655737 1.545921 -0.047049 1.196675 -0.026647 0.449416 -1.556722 0.890555 0.024910 -1.193300 0.940357 0.396229 -0.030263 1.250505 0.069680 1.200619 0.174997 -0.239264 0.159753 -0.539342 0.084528 0.042785 -0.658235 -1.731951 -0.705503
101719249 0.378200 0.764985 -2.064388 0.785066 -0.022329 0.991188 0.742463 0.584847 0.462632 0.159361 -0.606666 -0.135693 0.651751 0.049809 0.040641 -0.548613 0.197845 1.872627 0.779294 0.115841 0.032691 1.876204 -1.112090 0.137812 -1.460027 -0.785990 0.544842 -1.271453 -0.312095 -1.428939 -0.753558 -0.097598 -1.090150 1.246495 0.349286 -0.442537 1.843250 -0.136100 0.287849 0.773318 1.327733 -0.182128 1.103138 0.108485 0.501287 -1.558094 1.158831 -0.100259 -0.764861 0.393029 0.397983 0.026825 1.147286 0.172219 1.092917 0.319673 -0.474074 -0.195303 -1.009182 0.243320 -0.001373 -0.607329 -1.812599 -0.534770
1482032240 0.312754 0.695269 -2.180115 0.943895 0.017271 0.874047 0.880364 0.636172 0.420947 -0.076835 -0.503403 -0.385784 0.518958 -0.018363 -0.016939 -0.556909 0.420336 1.754658 0.935333 0.277507 0.116840 1.931413 -1.328686 0.075553 -1.552308 -0.579505 0.343020 -1.197916 0.091851 -1.644881 -0.762648 -0.206194 -1.263042 1.101150 0.221430 -0.534341 1.775247 -0.436622 0.085838 0.841164 1.496886 -0.109598 1.168203 0.090146 0.383131 -1.597530 1.013892 -0.050337 -0.619708 0.515414 0.414123 0.116547 1.393246 0.113368 0.991452 0.302437 -0.182335 -0.271044 -1.071199 -0.002369 0.148951 -0.782187 -1.689119 -0.492502
1245692820 0.245630 0.705850 -1.975703 1.176776 0.050319 1.089942 0.938819 0.471624 0.271897 -0.048586 -0.588707 0.165078 0.938080 0.180077 0.336081 -0.509463 0.260893 1.824174 0.572096 0.152468 0.029043 1.835975 -0.753902 0.089389 -1.314304 -0.712267 0.510304 -1.188570 0.320365 -1.703975 -0.709600 0.093814 -1.024987 0.711531 0.103569 -0.474144 1.688422 -0.662352 0.679151 0.703876 1.130741 0.004048 1.067878 -0.063577 0.497923 -1.562707 0.856249 0.259253 -0.733780 0.702435 0.622464 0.037540 1.028204 0.239517 1.319855 0.126181 -0.309029 -0.122429 -0.549558 0.374592 0.339743 -0.415290 -1.537869 -0.435837
1215159829 0.647816 -0.307760 -0.855286 -0.295060 -2.192276 0.092624 -0.939240 1.024557 1.635461 -1.676482 -1.238348 0.891317 -3.788229 0.909569 1.969114 -0.137731 -1.651547 1.772156 0.059251 -0.331993 -1.458777 0.310880 -1.297747 0.159208 0.565233 -0.805504 -0.739269 -0.333759 0.680310 -0.781023 1.023494 -2.864964 0.062079 0.450098 0.213213 -1.071164 -0.168771 0.742098 0.126516 -0.497435 1.238222 1.387256 -1.342764 0.076300 -1.872242 0.429421 -1.216045 -0.864807 -1.703720 -1.223276 0.324488 2.642221 -0.550092 1.565754 -0.449171 -2.277358 2.142363 2.172857 0.842930 -0.518781 0.306425 -0.119027 2.135144 1.910353
1325218975 0.365210 0.583341 -2.148530 0.872317 -0.159850 0.686812 1.096214 0.510624 0.352387 -0.024854 -0.412601 -0.373710 1.032585 0.186510 -0.187639 -0.576957 0.753621 1.414505 1.025121 0.249627 0.021417 1.917568 -1.083529 -0.072774 -1.087573 -0.420681 0.256825 -1.178907 0.568180 -1.297084 -0.841718 -0.288170 -1.175937 1.011696 -0.148282 -0.337578 1.918058 -0.409544 0.329126 0.866118 1.282079 -0.386295 1.158619 0.331635 0.595185 -1.384859 0.963183 0.002546 -0.664245 0.944807 0.169636 0.163048 1.323327 0.085669 1.030030 -0.070083 -0.373384 -0.150727 -0.883058 0.039123 -0.032223 -0.741571 -1.724771 -0.714093
146517435 0.345935 0.841409 -1.996122 1.021640 -0.109947 1.034132 0.705358 0.675866 0.149743 0.236212 -0.323475 -0.289436 0.663104 0.154940 -0.062518 -0.395834 -0.006459 2.011643 1.050557 0.066239 0.061210 1.897934 -1.118752 0.339737 -1.693410 -0.636508 0.411012 -1.440603 0.079146 -1.619264 -0.675738 -0.061030 -1.374255 0.904194 0.188433 -0.413074 1.835384 -0.289453 0.467017 0.718335 1.404653 -0.018466 1.176805 -0.253702 0.294451 -1.587059 1.045164 0.245505 -0.717319 0.589261 0.675773 0.030627 1.088318 -0.141208 1.157158 -0.048234 -0.256621 -0.293853 -0.919512 0.322453 -0.004792 -0.742830 -1.765764 -0.371931
111618248 1.058782 -0.162854 1.224660 1.463254 -1.507882 -1.157673 0.984502 -1.590445 -3.193572 -0.011644 1.290363 -1.131367 2.725605 0.593671 -1.047684 1.373936 0.975732 -0.532337 1.380089 2.022695 -0.422473 -1.327878 1.423876 0.965808 1.026563 1.989365 -0.524095 1.946926 3.297962 0.026494 0.329437 0.235294 -3.023558 -2.616997 0.902458 -0.229085 0.145708 -3.298655 0.721870 -0.773173 -0.469906 -1.158455 0.220302 -0.790442 -0.785539 2.718661 -3.910249 3.086909 0.570441 -0.757192 0.969237 0.740247 -0.597910 -1.022551 1.007288 -2.048353 1.522692 0.797859 0.982962 1.298096 0.761024 0.938966 0.950082 -0.043900
130932697 -1.661239 -0.912970 0.325157 0.676857 -2.293581 1.204488 -0.524996 1.127031 -1.505876 1.034355 2.065147 0.347063 1.216962 1.191488 -0.881543 0.309285 0.698366 -0.594074 1.150854 0.028191 -0.259757 -1.098627 0.809294 -0.532878 -1.303620 0.995974 -1.127456 0.145881 2.273085 0.035156 -0.674882 0.096804 -2.521292 -0.994769 -1.418636 -1.098197 0.643769 -0.942670 3.159857 -0.532894 1.440426 0.245351 0.102589 -2.033349 -0.695723 1.334532 -2.502138 2.351969 -2.079517 -0.202087 0.783841 0.842570 -0.144140 -0.564143 1.340571 -2.602724 0.418601 0.028839 0.513044 1.103924 0.825830 1.229094 -0.189000 -0.407986
102767953 -0.089270 0.720690 -1.843405 1.145109 -0.028748 0.966070 0.763090 0.776950 0.582118 -0.127523 -0.484079 -0.046978 0.689022 0.177724 -0.035619 -0.460551 0.420373 1.388958 1.017119 0.072012 0.158370 2.064257 -0.875443 0.099457 -1.582511 -0.913972 0.332124 -1.458287 0.465454 -1.250365 -0.726991 0.178211 -1.144798 0.954556 -0.302909 -0.445231 1.517348 0.043177 0.663841 0.622504 1.523387 -0.166250 1.301003 0.254448 0.554478 -1.747102 1.015979 -0.007381 -0.894894 1.002589 0.613600 -0.084095 0.916898 0.197754 1.194226 0.224250 -0.291323 -0.200833 -0.653196 -0.115294 -0.075475 -0.785897 -1.644415 -0.641016
1105606705 0.764837 -0.361870 1.501703 1.170593 -1.148564 -0.780357 1.148042 -1.332263 -3.336995 0.476384 1.102429 -0.888164 2.088196 0.986376 -1.034265 1.249878 0.821078 -0.539784 1.323174 1.974851 -0.428365 -1.071672 1.690259 0.796237 1.213886 1.957638 -0.454467 1.983856 2.969672 0.018684 0.227428 -0.006654 -2.824360 -2.672156 0.542409 -0.145011 -0.062444 -3.610649 0.570260 -1.002833 -0.800960 -0.657227 0.285933 -0.891378 -0.783357 2.852012 -3.911183 3.055085 0.489619 -0.391036 0.807868 1.176952 -0.398237 -0.932443 1.126746 -2.037348 1.594885 0.592678 1.079413 1.332671 0.800377 1.428519 1.199200 -0.314036
1480001810 2.194736 -0.334946 0.122799 0.310333 -0.855485 -1.602074 0.834083 -2.792660 -1.066273 0.166067 0.163661 -2.020426 0.630867 -1.611490 0.496610 -0.018113 1.278789 0.316226 1.611703 2.259943 0.019191 0.507705 -0.487119 -0.278852 0.408810 0.607827 0.183826 1.446966 1.417128 -1.018305 -0.620179 -0.607920 -0.440193 -0.842158 0.463100 1.176337 0.102931 -2.479640 -1.484135 -0.117511 -0.238364 0.029818 -0.243581 0.318506 -0.404502 3.424360 -0.432873 -0.195122 0.668408 -0.212430 0.409366 1.958209 1.851160 -0.329847 1.370610 -0.191835 2.154572 0.756535 0.216693 -0.189313 0.115066 -0.861277 -0.007656 -0.333784
101441609 0.384646 1.105283 -2.251126 1.010882 -0.008478 1.002581 0.889831 0.648913 0.406684 -0.250819 -0.468410 -0.043284 0.535881 -0.042977 0.189050 -0.738173 0.224735 1.527450 0.964102 0.089341 0.073617 1.899949 -1.207483 0.035476 -1.565530 -0.498451 0.274287 -1.295673 0.186897 -1.578954 -0.806643 -0.069323 -0.830285 0.951349 0.313184 -0.286840 1.761709 -0.294422 0.315027 0.959237 1.477708 -0.042595 1.153481 -0.025964 0.168780 -1.971240 1.165205 -0.057980 -0.652112 0.731181 0.735357 -0.126707 1.155153 0.277037 1.095475 0.258949 -0.151191 -0.153545 -0.849069 -0.116929 -0.159851 -0.892074 -1.541106 -0.553688
1172636629 1.107242 -0.053418 1.638778 1.216255 -1.361978 -0.909078 0.815589 -1.641379 -3.461589 0.223047 1.078257 -1.028668 2.601708 0.778984 -0.938304 1.123833 1.076041 -0.560248 1.346582 2.147947 -0.242879 -1.277585 1.474475 0.919884 1.152662 2.052070 -0.764413 1.750947 3.052289 -0.166313 0.027187 0.047866 -2.908440 -2.525552 0.717944 0.160061 0.095688 -3.386247 0.799092 -0.738602 -0.716658 -0.632232 0.418020 -0.539727 -0.898014 2.831214 -3.666883 2.874377 0.355778 -0.394232 0.844132 1.031718 -0.330447 -0.839208 1.032016 -1.874481 1.607671 0.838960 1.254781 1.165966 0.729239 0.920902 1.028159 -0.296812
142445186 -1.372934 -2.093158 0.959170 -1.811711 0.232363 -0.815785 0.385377 0.648684 0.370092 0.851951 0.028439 0.311723 -0.554263 -0.796243 -0.723090 -1.531698 0.079361 -1.071864 -0.765494 -0.667144 -1.607807 0.342272 0.316374 -0.806509 0.669299 -0.046749 0.106807 0.376050 -0.833700 -0.272493 1.005130 -0.374581 0.653706 1.567391 -2.256281 1.061844 -0.679013 1.362321 1.807415 0.309147 -1.840039 -0.741931 -1.102507 0.286854 1.546224 0.162547 0.402239 -1.327882 -0.119844 1.981926 -0.767604 0.566846 0.253448 -0.312763 -0.807899 -1.131848 -0.368902 -1.594573 -0.534111 0.746725 0.705487 0.430490 -0.200664 0.018225
128681753 0.090062 -0.473880 1.163509 0.793210 -1.920183 1.074932 -4.423543 -0.434533 1.206536 0.338827 0.025332 -0.288206 2.568157 -0.573535 0.236526 0.847248 2.001946 0.969829 -1.491121 -0.379252 0.096151 -3.331040 -0.447223 0.167209 -0.089803 2.341878 -1.581724 -0.399930 0.232329 -1.362110 -0.654062 0.303114 1.038131 0.244161 0.094275 -0.410913 0.232361 0.857874 -0.710029 1.946608 1.373001 1.844776 -1.463747 0.425788 0.375781 0.858963 1.309852 -0.526079 -0.227101 -1.980985 -0.798765 -1.001078 0.079927 0.137290 -1.810386 0.467403 -0.727725 1.734914 0.226855 -0.024977 0.633798 -1.482222 -0.379656 0.664149
1025090167 0.423965 0.616489 -2.032360 1.135379 0.048931 0.986949 0.749026 0.485226 0.199000 0.166976 -0.450852 -0.170713 0.727915 -0.010775 -0.107763 -0.409200 0.265451 1.737917 0.617445 0.199943 -0.032951 2.044403 -1.091181 0.207780 -1.485427 -0.634690 0.499277 -1.325443 -0.118293 -1.498962 -0.567825 0.045566 -0.926173 0.983177 0.454983 -0.481767 1.942263 -0.391875 0.213566 0.755340 1.531515 0.248872 1.244496 0.054071 0.332575 -1.596313 1.188865 0.065097 -0.727255 0.925857 0.654616 -0.145169 1.057332 -0.020872 1.126733 0.308912 -0.430432 -0.354767 -1.043782 0.173972 0.021341 -0.802797 -1.689198 -0.564655
1411437961 -1.386237 -2.292594 1.118233 -1.561515 0.449976 -0.906536 0.248748 0.605847 0.131223 1.263057 0.555689 0.078056 -0.213190 -0.869163 -0.708763 -1.513462 0.142625 -1.211950 -0.900911 -0.810473 -1.368530 0.075790 0.676195 -0.833193 0.766466 0.125338 0.251484 0.713375 -0.551766 0.144642 0.895497 -0.298499 0.794128 1.538827 -2.609065 1.036312 -1.007786 1.468512 1.677367 0.285699 -1.773562 -0.732351 -1.191346 0.427724 1.770433 0.439639 0.416333 -1.460718 0.221674 1.849997 -0.699669 0.594104 0.357906 -0.631973 -0.769847 -1.181657 -0.440217 -1.833945 -0.755969 0.914313 0.577825 0.350371 -0.405973 0.215285
1385680262 1.842897 -0.260216 0.386146 0.509456 -1.208309 -1.664883 0.638553 -2.304250 -1.232701 0.114967 0.014357 -2.189566 1.142036 -0.999396 0.389971 -0.128496 1.151292 -0.045543 1.492767 2.042307 0.223057 0.290429 -0.628786 -0.148223 0.458444 0.476653 0.174012 1.209893 1.406578 -0.978183 -0.654001 -0.859123 -0.755478 -0.710629 0.457249 1.357415 -0.102210 -2.211432 -1.132029 -0.008848 -0.197493 -0.088909 -0.152281 0.444889 -0.221643 3.299692 -0.363141 -0.469949 0.779260 -0.347609 0.469261 1.875451 1.542175 0.060571 1.296846 -0.163667 2.083903 0.699269 0.368663 -0.207148 0.098645 -0.712007 0.210373 -0.001869
1327272091 0.405584 0.880676 -1.849830 1.155654 -0.084498 0.920228 0.451372 0.500768 0.631683 -0.152073 -0.745118 0.051712 0.717622 -0.182847 0.168678 -0.210363 0.291796 2.117847 0.906654 0.194344 -0.169510 2.035303 -0.933023 0.110766 -1.429674 -0.530316 0.175248 -1.442660 0.563468 -1.882164 -0.482929 -0.035361 -0.958690 1.093316 -0.067194 -0.423664 1.782918 -0.103534 0.327991 0.521820 1.488503 0.139027 0.883741 0.239161 0.488530 -1.436797 0.988854 -0.106804 -0.994195 0.862029 0.675736 -0.126457 0.938256 0.106867 1.159957 0.118976 -0.245284 0.154987 -0.646215 0.061045 0.162827 -1.023144 -1.732274 -0.484529
1104712694 0.454894 0.776919 -2.021394 0.869156 0.143793 0.797625 0.706804 0.458350 0.179778 0.050187 -0.316889 -0.240553 0.749730 -0.150997 0.207903 -0.691639 0.255946 1.680496 0.599323 0.140764 -0.086834 1.702476 -0.967221 0.283476 -1.237028 -0.242585 0.347228 -1.203486 -0.003636 -1.760806 -0.590722 0.016113 -0.832153 1.090747 0.216906 -0.401962 1.723366 -0.532419 0.499608 0.754802 1.114915 0.045467 1.005977 -0.013818 0.285039 -1.678449 1.144008 0.100392 -0.453155 0.708543 0.789743 -0.272489 1.190726 0.063435 0.920192 0.154280 -0.243821 -0.337593 -0.931490 0.270476 0.148259 -1.075898 -1.549477 -0.415048
1441957825 0.431534 0.901272 -1.824654 1.060842 0.035654 1.065531 0.901718 0.436638 0.180624 0.059615 -0.470897 -0.071168 1.117959 0.188233 0.007647 -0.606046 0.436087 1.778187 0.793076 0.295060 0.262912 1.798575 -1.000878 0.191975 -1.420706 -0.517345 0.506226 -1.312327 0.112470 -1.293697 -0.914400 0.123002 -1.105055 1.066441 0.262745 -0.324811 1.961732 -0.375576 0.309136 0.976826 1.433475 -0.116960 1.254854 0.284152 0.541877 -1.676927 0.981150 -0.048457 -0.720844 0.737128 0.376459 0.195240 1.291809 0.107653 1.136100 0.210636 -0.335787 -0.020796 -0.904766 0.317529 -0.110103 -0.601979 -1.703843 -0.659207
1390687920 1.700136 -0.299283 0.190728 0.601071 -0.998220 -1.654954 0.624770 -2.149014 -1.122068 0.174401 -0.056286 -1.959301 1.304752 -1.080331 0.276471 0.289772 1.143825 0.410289 1.555655 2.078610 0.089476 0.320457 -0.510283 -0.435843 0.482705 0.877321 0.231841 1.364773 1.528898 -1.324969 -0.335427 -0.917340 -0.630326 -0.510258 0.398244 0.924617 -0.015728 -2.477012 -1.615295 -0.305612 -0.121308 -0.155977 -0.443547 0.213345 0.055892 3.548000 -0.656695 -0.384829 0.791933 -0.529969 0.366142 1.519077 1.520443 -0.079391 1.268212 -0.221251 1.825139 0.860560 0.134424 0.014202 0.364844 -0.623185 0.043801 -0.089029
131421170 -1.336887 -2.334045 1.125681 -1.500337 0.036361 -1.018502 0.010783 0.772441 0.079171 1.165557 0.420418 -0.394460 -0.081278 -0.454414 -0.957844 -1.244559 0.436934 -1.334584 -0.816259 -0.484746 -1.365108 -0.226686 0.472971 -0.440768 0.927306 0.367981 0.284451 0.668777 -0.636856 0.332868 0.815644 -0.409606 0.539689 1.617627 -2.487527 1.101168 -0.757119 1.441762 1.773381 0.445590 -1.634633 -0.756204 -0.847088 0.663330 1.437475 0.531097 0.448563 -1.244428 0.223541 1.764921 -0.654012 0.783377 0.477816 -0.486763 -0.747446 -0.946633 -0.511462 -1.792512 -0.802110 0.796271 0.574518 0.521608 -0.284805 0.088208
1104849253 -1.096459 -1.847767 0.814379 -1.808607 0.206460 -0.819814 0.171750 0.836622 -0.172290 0.905664 0.227864 0.218146 -0.384920 -0.457123 -0.672250 -1.460253 0.034413 -0.941766 -0.654275 -0.685267 -1.459926 0.080479 0.348907 -0.662175 0.794874 0.336320 -0.045744 0.554958 -0.690582 -0.162688 0.766717 -0.676552 0.437591 1.750786 -2.196865 1.143075 -0.557200 1.276448 1.779214 0.282808 -1.772144 -0.629044 -0.924444 0.403805 1.076597 0.327321 0.223848 -1.250450 -0.301578 1.801434 -0.637321 0.676686 0.455855 -0.264247 -0.834674 -1.209597 -0.397209 -1.501716 -0.457086 0.762564 0.680176 0.353525 -0.207712 0.082482
114663058 0.122475 0.605943 -1.833237 1.066829 0.094800 0.655735 0.790437 0.475940 0.502030 -0.049218 -0.552602 -0.293341 0.704452 -0.024230 -0.015118 -0.346073 0.372369 1.462253 0.869458 0.212377 0.129797 1.993358 -0.945687 0.106184 -1.310691 -0.646002 0.446834 -1.290971 0.243825 -1.548821 -0.468274 0.069913 -0.862581 0.949218 -0.022457 -0.548120 1.451897 -0.418706 0.142525 0.452502 1.273964 -0.052414 1.029924 0.103791 0.581914 -1.365632 1.103308 -0.029553 -0.437281 0.824609 0.639613 -0.333621 0.975415 0.127808 1.009272 0.311388 -0.258385 -0.188389 -0.774375 -0.062737 0.034047 -0.954348 -1.487633 -0.547793
101000473 -1.308927 -0.066351 -0.473317 1.493952 -0.190241 -0.629770 -1.036775 0.950896 0.197326 0.605152 -0.189598 0.790232 1.655197 -0.989812 1.644981 1.512317 -0.641226 1.590841 -0.165076 -1.407794 0.270404 0.537618 0.014619 -1.225193 -1.043692 0.328908 1.064348 0.988540 1.254149 -0.734007 -0.628085 0.461138 0.787391 1.480546 -0.968425 -0.171365 -0.249619 0.298782 -1.392608 -0.895425 2.150475 -0.324251 -0.932581 0.075498 1.885615 1.518630 -0.828872 -1.921661 -0.963178 -0.642825 -0.134985 0.248917 0.379483 -0.755346 1.452179 -0.484257 0.437845 0.232905 -0.530190 1.224899 1.161745 0.364964 -0.973486 1.830097
1603984868 1.778766 -0.501312 0.235947 0.475070 -0.840039 -2.063306 0.949545 -2.448460 -1.305006 0.178947 0.238053 -2.184171 0.982440 -1.494217 0.370074 0.010117 0.943554 -0.047559 1.463435 2.100498 0.085417 0.621286 -0.574266 -0.297383 0.382471 0.391970 0.437069 1.284998 1.309453 -1.059749 -0.154457 -0.610727 -0.437424 -0.706102 0.412262 0.999083 -0.218895 -2.415776 -1.303494 -0.351810 -0.175543 -0.288105 -0.255714 0.188341 -0.112832 3.426416 -0.511934 -0.401128 1.010950 -0.187260 0.701209 1.552389 1.566808 -0.345252 1.387390 -0.178782 2.023700 0.501145 0.117381 -0.112456 0.228576 -0.692150 0.075474 0.036303
104295508 0.174901 0.957122 -1.825288 0.766263 -0.111043 1.014431 0.563012 0.803572 0.129372 0.142223 -0.287857 -0.267064 0.704307 0.329006 -0.061708 -0.385955 0.221573 1.610657 1.075891 -0.037847 0.243009 1.518692 -0.977028 0.327868 -1.454113 -0.272445 0.175855 -1.283604 0.161355 -1.194124 -0.894394 -0.084469 -1.371370 1.069359 0.063708 -0.367790 1.784009 -0.149725 0.322218 0.671825 1.478080 -0.069012 1.227921 0.001338 0.232072 -1.585845 0.860077 0.051677 -0.771097 0.622946 0.390360 0.026868 1.134111 -0.045717 0.794585 -0.029644 -0.184269 -0.203447 -0.782782 0.200897 -0.174025 -0.881752 -1.564902 -0.513075
1362156908 -1.188300 -1.952939 0.836632 -1.703259 0.120504 -0.617145 0.565373 0.622878 0.223187 1.097154 0.138886 -0.110022 -0.321673 -0.566308 -0.646798 -1.821061 0.170161 -1.052911 -0.479085 -0.602195 -1.415047 0.195258 0.715154 -0.657132 0.884998 -0.037520 0.131950 0.399561 -0.516209 -0.159665 0.865662 -0.652407 0.109213 1.559214 -2.327275 1.076655 -0.597714 1.205296 2.150402 0.219757 -1.869931 -0.744813 -1.018839 0.323051 1.538003 0.284532 0.456540 -1.300014 0.075477 1.960444 -0.491844 0.682360 0.292935 -0.129919 -0.747689 -1.300551 -0.324828 -1.733822 -0.407107 0.940364 0.433960 0.012278 -0.381678 -0.169574
135087370 -0.986964 -0.505245 0.371097 0.584711 0.599559 0.941232 -0.010417 -0.195539 -0.174811 0.606474 1.741173 0.627404 -0.786554 -0.439167 0.789027 -0.379127 -0.993896 -1.982952 -0.278951 -1.013876 1.942387 -1.350293 0.268485 -0.107366 -2.464434 -1.902333 0.875138 -0.050370 -2.976293 1.722752 0.316502 2.095706 2.223036 -1.008786 0.973158 -1.565066 -1.688302 -0.674429 -0.140447 0.296226 0.967389 0.277933 -0.552848 -1.970481 -0.923042 1.043268 0.588603 -0.075180 1.257355 -1.954771 0.465469 -0.786716 0.031946 -0.463615 -0.189269 0.621221 0.284344 0.554199 0.614789 -0.402411 -0.708378 0.954078 0.627945 0.393448
102957821 -0.840576 -2.145788 0.873255 -1.767950 0.293596 -1.121376 0.607561 -0.064121 0.361479 0.729302 0.442238 0.353156 -0.103856 -1.414943 -0.521407 -2.018156 0.327146 -1.003534 -0.771799 -0.411370 -1.486312 0.393454 0.511834 -1.081455 0.819112 -0.249456 0.025463 0.538996 -0.237794 -0.060659 1.095491 -0.330333 0.724634 1.566899 -2.400547 0.964426 -0.817620 1.521647 1.985511 0.371197 -1.857571 -1.071167 -1.283898 0.618862 1.653232 0.388283 0.393917 -1.546996 -0.126867 2.087312 -0.567189 0.608105 0.432121 -0.495132 -0.754315 -1.239663 -0.382976 -1.273203 -0.478221 0.777599 0.510605 0.026616 -0.586354 -0.027094
1334809460 0.273890 -0.281130 -0.017053 -1.215444 1.528217 -0.161347 1.672401 0.510749 -0.562175 0.231528 -0.738260 0.869705 1.351623 0.198619 -1.000987 -2.175193 0.022273 0.513660 -1.348319 -0.609535 -1.653628 1.075682 0.639191 0.611881 1.462673 -0.278257 0.202818 -0.474078 -0.679069 -0.397200 0.577280 -0.171367 -0.878419 1.692225 -0.987535 1.603356 0.882710 1.620404 2.652479 1.559662 -2.876402 -1.850871 0.711928 1.794097 1.761320 -3.004615 0.929050 -0.437886 -0.005484 3.093187 -0.806129 -0.123830 -0.096631 -0.326404 -1.033276 -0.596733 -1.876825 -1.788579 -0.634594 1.538695 0.259381 0.243337 -1.364673 -0.331395
1431670776 -1.119073 -0.874027 -0.169049 0.829881 0.811716 0.634267 0.421133 -0.027573 -0.039163 -0.018564 1.534203 0.695254 -0.694126 -0.549163 0.740502 -0.571040 -0.592881 -2.010282 -0.287993 -0.954929 1.694604 -0.997141 0.004989 -0.226489 -2.619562 -2.146008 0.716804 -0.216480 -2.770883 1.206452 0.653920 1.968755 2.158664 -0.623318 0.688752 -1.864923 -1.628070 -0.757206 0.264503 0.586912 0.934838 -0.017692 -0.364279 -1.726040 -0.892379 0.768451 0.731445 -0.052794 1.116235 -1.493531 0.457521 -0.916504 0.144710 -0.392545 -0.359198 0.674502 0.005645 0.518774 0.570021 -0.586657 -0.214293 0.939417 0.401943 0.393128
1182752869 -0.780275 -2.137380 0.922195 -1.565907 0.041928 -0.857711 -0.022162 0.362615 0.145666 1.041850 0.641491 0.060496 0.004408 -0.818934 -0.706302 -1.727686 0.210069 -0.794648 -0.956874 -0.506885 -1.523201 0.033556 0.486163 -0.696705 0.883105 0.166283 0.043079 0.498499 -0.529495 0.080314 1.084839 -0.572888 0.484769 1.693438 -2.171914 0.580389 -0.643349 1.454456 1.879405 0.190456 -1.481290 -0.649216 -1.284714 0.485109 1.376704 0.529626 0.296084 -1.326550 0.026901 1.598758 -0.384562 0.478151 0.308212 -0.462969 -0.914117 -1.419078 -0.430344 -1.255951 -0.755703 0.923793 0.462255 -0.169885 -0.405618 0.127977
1037480820 0.426449 -0.423770 -0.636310 -0.219385 -1.568275 0.250304 -0.959940 0.855932 1.589935 -1.769934 -1.106409 1.382415 -3.335387 0.437459 1.992700 -0.365847 -1.411407 1.524181 -0.295269 -0.462274 -1.261593 -0.016878 -0.914313 -0.120104 0.251952 -1.085499 -0.814032 -0.116279 0.432814 -0.826542 1.038489 -2.249580 0.290866 0.570536 0.033893 -1.057345 -0.525617 0.975406 0.581494 -0.203039 0.882966 1.175692 -1.359082 0.184877 -1.661552 0.276837 -1.078972 -0.895929 -1.874150 -1.152127 0.219264 2.170347 -0.569209 1.442255 -0.564958 -1.764864 1.614293 1.982760 1.086183 -0.463166 0.675794 0.088673 1.724526 1.739540
115759082 0.221616 0.954213 -0.864124 1.655576 2.822875 1.856838 1.932980 0.195811 -0.762882 -0.821327 -0.023508 1.926101 0.306530 0.777897 -0.120571 -0.241728 -1.014277 -0.379590 -0.743687 -0.599938 1.320744 0.048123 0.551675 1.566584 -2.065981 -2.190453 1.250491 -0.594107 -3.670543 0.839677 1.141905 2.713765 0.949113 -0.474547 2.994141 -2.166502 -0.071809 -1.460117 -0.374849 1.290614 0.057523 -0.686874 1.087944 -0.822767 -0.783357 -2.369540 0.321428 1.261394 1.532632 -0.635513 0.355583 -2.219159 -0.638156 -0.176098 -0.927143 1.569346 -1.242965 0.553800 0.428906 0.091437 -0.300044 1.175082 0.150148 -0.622854
1165358995 -1.473313 -2.416247 0.995783 -1.628972 0.192647 -0.731626 0.495905 0.724151 0.208713 1.030348 0.366486 0.441812 -0.498299 -0.655055 -0.733306 -1.457268 0.210464 -0.993877 -0.725307 -0.525901 -1.608422 0.197892 0.720852 -0.823384 0.725521 0.133704 0.283853 0.665594 -0.268805 0.138844 1.058128 -0.383428 0.464331 1.693947 -2.624226 0.815444 -0.581363 1.362370 1.999764 0.201079 -1.551167 -0.682032 -1.111059 0.361677 1.537033 0.376008 -0.089817 -1.233669 -0.376956 2.252402 -0.673585 0.976568 0.378877 -0.536967 -0.703521 -1.532705 -0.330899 -1.524978 -0.682371 1.073632 0.687442 0.569113 -0.236709 -0.118615
120257804 -1.262223 -2.282030 0.699598 -1.748381 0.032487 -0.824146 0.248785 0.321192 0.662389 1.065595 0.296419 -0.132745 -0.043990 -0.762498 -0.730884 -1.432241 0.449022 -0.959783 -0.919479 -0.534599 -1.465354 -0.183110 0.396013 -0.675863 0.800741 0.215355 0.481084 0.720016 -0.615182 -0.041375 0.730361 -0.071675 0.740423 1.424339 -2.249396 0.989173 -0.579924 1.243614 1.622606 0.566721 -1.854944 -0.867267 -1.192205 0.197632 1.638870 0.172298 0.722052 -1.037892 0.175424 1.602369 -0.663481 0.476873 0.520562 -0.258687 -0.827144 -0.813034 -0.596813 -1.579137 -0.858905 0.965909 0.589074 0.283424 -0.385411 -0.141322
1345645002 0.354182 0.731863 -0.867766 1.280050 2.582815 1.487131 2.160492 -0.129130 -0.712281 -0.688940 -0.195693 1.700593 0.248335 0.633352 -0.143963 -0.411660 -0.859447 -0.463074 -0.747213 -0.455067 1.182639 0.227170 0.473822 1.182327 -1.499758 -2.153835 1.170130 -0.596196 -3.218065 0.858097 1.028282 2.249358 1.091103 -0.776800 2.753807 -1.763465 -0.147979 -1.393702 -0.469907 1.305208 -0.366822 -0.839076 1.176547 -0.691234 -0.697559 -2.249735 0.613043 1.198285 1.541612 -0.341302 0.256259 -1.992718 -0.644208 -0.162132 -0.811503 1.614048 -1.401413 0.412495 0.455252 0.005252 -0.495795 1.419938 0.076914 -0.628041
1046735202 0.500452 -0.392299 -0.740431 -0.094263 -1.695642 0.090071 -1.082737 0.971125 1.443044 -1.706784 -1.097867 1.337938 -3.652186 0.517973 2.131292 -0.112065 -1.651423 1.618251 -0.106136 -0.473616 -1.425606 0.042301 -0.712026 -0.208112 0.555714 -0.724956 -0.932680 -0.044202 1.036285 -0.885773 1.282892 -2.710503 0.400528 0.518776 -0.009527 -1.131618 -0.527816 0.827806 0.259995 -0.679668 1.157170 1.533453 -1.556056 0.028970 -1.953906 0.616044 -1.302765 -0.950007 -1.960635 -0.913243 0.575640 2.194366 -0.817361 1.408172 -0.518240 -2.070517 1.787501 2.044523 1.211066 -0.438639 0.550319 -0.201506 1.982259 1.896849
145355488 0.414339 0.770633 -2.237003 1.193556 -0.005282 0.806157 0.739502 0.468667 0.636173 -0.144373 -0.471328 -0.397114 0.723102 -0.125944 0.152697 -0.289105 0.515699 1.878080 0.919076 0.290579 0.034303 1.979016 -1.095490 0.060306 -1.409154 -0.518136 0.326376 -1.286511 0.613267 -1.770893 -0.734556 -0.018442 -1.057539 0.792666 -0.083710 -0.539301 1.662641 -0.409582 0.222420 0.656969 1.425995 -0.095540 1.211489 0.088842 0.468249 -1.600508 1.142431 0.178889 -0.544942 0.541208 0.733606 -0.135771 1.200031 0.063712 1.285427 0.424302 -0.316502 -0.218971 -0.945960 -0.088675 0.167341 -0.849025 -1.819908 -0.473429
1311417284 0.521164 0.757649 -1.743000 1.059404 -0.032015 1.001776 0.712288 0.385375 0.125317 0.187298 -0.358099 -0.064913 0.695830 0.302045 0.060598 -0.660092 0.115953 1.826507 0.670443 0.176778 -0.186308 2.058115 -0.801331 0.281119 -1.066480 -0.508495 0.256932 -1.440539 0.488155 -1.731558 -0.451012 -0.222874 -0.923031 0.626923 -0.072550 -0.300838 1.698706 -0.491059 0.666626 0.582353 1.074066 0.410828 0.930753 0.055147 0.330387 -1.576227 1.018880 0.191132 -0.683510 1.045700 0.846545 0.075998 0.939173 0.173735 1.191936 -0.182475 -0.157391 -0.089331 -0.628185 0.190931 0.004384 -0.917093 -1.361847 -0.443035
1311225248 1.662494 -0.439761 -0.143038 0.628147 -0.985654 -1.693480 1.202430 -2.358933 -1.144172 -0.149042 0.271185 -1.915756 0.886955 -1.072400 0.355180 0.099797 1.105995 -0.164075 1.824581 2.056621 0.253576 0.445600 -0.675452 -0.437623 0.048483 0.326677 0.270920 1.337377 1.508068 -0.981903 -0.299523 -0.630222 -0.452731 -1.035328 0.487310 0.779473 -0.180083 -2.754864 -1.398757 -0.156014 -0.097609 -0.328300 -0.345127 -0.159927 -0.417905 3.473952 -0.615388 -0.059807 0.858514 -0.443762 0.517301 1.622919 1.542618 -0.105766 1.336102 -0.348525 2.092499 0.975960 0.366575 -0.335643 0.175946 -0.469031 0.284485 -0.212841
1105959438 1.033471 -0.129553 1.557177 1.121118 -1.291457 -0.627548 0.827667 -1.543934 -3.169345 0.685483 1.047115 -1.189677 2.532016 0.798395 -1.055203 1.254825 1.056883 -0.508016 1.406736 2.004951 -0.233628 -1.414236 1.755864 0.853715 1.245713 2.111393 -0.487841 1.954408 2.797279 0.069725 -0.050823 0.066233 -2.869969 -2.543302 0.719208 0.025675 0.072047 -3.425664 0.413431 -0.883446 -0.793696 -0.676378 0.254614 -0.778525 -0.665177 2.976243 -3.512809 2.880090 0.674332 -0.746406 0.775751 0.909368 -0.356436 -0.828990 1.024485 -1.744045 1.380137 0.620333 1.067725 1.337965 0.561393 1.050960 0.861389 -0.495129
103421471 -1.414961 -2.444160 1.049101 -1.604378 0.055418 -0.712270 0.117391 0.675386 0.595394 0.665964 0.158055 0.298851 -0.269379 -0.581000 -0.510088 -1.674380 0.171593 -0.797662 -1.077834 -0.642459 -1.272894 -0.148592 0.371277 -0.553275 0.509368 -0.489155 0.319601 0.060475 -0.779832 0.005352 1.099935 -0.263230 0.447580 1.714706 -2.495221 0.666449 -0.795277 1.802770 2.422604 0.701501 -1.726097 -0.830024 -0.913617 0.583163 1.522938 -0.083922 0.520724 -1.319703 -0.242533 1.753551 -0.746589 0.844195 0.336228 -0.305341 -1.019485 -1.018221 -0.647664 -1.313674 -0.409533 0.941171 0.776216 0.590869 -0.402921 0.278444
107385242 1.494091 1.095956 -1.873080 0.001938 -0.234619 1.209905 0.240153 1.086358 1.854827 -3.173307 -3.049854 2.287283 -2.897843 1.761743 2.002231 -0.176296 -1.170742 3.550519 -0.591666 -0.233599 -1.584986 0.804283 -0.775751 1.380300 1.359203 -0.979866 -1.100405 -1.144663 0.828101 -1.826265 1.059481 -2.324206 -1.247968 0.405433 1.269387 -1.807488 0.699614 0.377185 0.206000 0.311627 -0.245163 0.413379 0.323691 1.125016 -1.722587 -3.126656 -1.119222 0.579207 -1.750439 -0.398571 -0.034692 1.043707 -1.194325 1.985124 -1.827694 -1.090148 0.507833 2.550095 1.419072 -0.265376 0.864917 -0.100126 1.477759 0.975425
1104502410 0.373311 -0.235798 0.959498 0.574701 -2.101577 0.632025 -3.968584 -0.692856 0.860063 0.078582 0.321177 -0.552504 2.935700 -0.749841 0.007699 0.567860 2.223376 0.460792 -1.337262 -0.028706 0.005874 -3.263361 -0.562947 0.206727 0.077819 2.701521 -1.646674 -0.293990 0.619883 -1.097589 -0.759881 0.435472 0.796106 0.258929 0.330001 -0.185648 0.616665 0.745903 -0.489466 2.036077 1.430976 1.354712 -1.329265 0.552909 0.288312 0.604253 1.006328 -0.414257 -0.138905 -1.705823 -0.652512 -1.103845 0.321461 0.103632 -1.767130 0.347198 -0.551127 1.643903 0.025792 -0.086740 0.452676 -1.853150 -0.396568 0.435220
1478180120 1.852719 -0.341482 0.427332 0.482657 -0.981706 -1.680909 0.603596 -2.301621 -1.192102 0.344177 0.366802 -2.249166 1.097496 -1.246504 0.176370 0.138426 1.218715 -0.189981 1.605413 1.980713 0.216268 0.088185 -0.469483 -0.323242 0.430685 0.920421 0.161042 1.491920 1.504935 -0.681363 -0.531519 -0.719137 -0.352134 -0.871288 0.247793 1.309858 -0.185317 -2.234383 -1.697815 0.051796 -0.128905 -0.201451 -0.447540 0.298402 -0.096802 3.527966 -0.498077 -0.515663 1.153557 -0.483682 0.266019 1.802783 1.691721 -0.362702 1.158099 -0.274559 2.063470 0.686700 0.145068 -0.241715 -0.078322 -0.645226 0.150889 -0.068834
1425719858 0.368742 -0.346532 -0.738534 0.033788 -2.026644 0.572585 -1.219224 1.228774 1.826550 -1.539708 -1.467010 1.457996 -3.473702 0.975789 2.176135 -0.276950 -1.650036 1.838406 -0.792947 -0.550145 -1.619214 0.273605 -0.855298 -0.092610 0.809499 -0.842829 -0.684014 -0.290848 0.548480 -0.901040 0.999830 -2.683630 0.398271 0.444997 0.261680 -1.325370 -0.248912 0.808994 0.404859 -0.519013 1.312570 1.771983 -1.496983 0.186857 -1.433639 0.124865 -1.180840 -0.918648 -1.806633 -1.360266 0.423583 2.355601 -0.896863 1.842136 -0.249335 -2.026768 1.698820 1.952685 0.816548 -0.317171 0.676935 0.167695 2.058582 2.001129
1047519792 -1.013458 -2.124064 0.936642 -1.530761 -0.017860 -0.803077 0.362095 0.525207 0.414176 0.958520 0.342089 0.052117 -0.111828 -0.630289 -0.851730 -1.547280 0.408566 -1.102499 -0.619158 -0.435422 -1.577144 0.026651 0.678596 -0.823650 0.957100 0.099971 0.164305 0.710263 -0.223773 0.312768 0.932116 -0.545712 0.475951 1.504313 -2.438210 1.092511 -0.647651 1.566176 1.840469 0.421190 -1.714659 -0.906521 -1.140583 0.596411 1.504773 0.516774 0.311109 -1.324902 -0.021081 1.790128 -0.607800 0.820574 0.260728 -0.227993 -0.598480 -1.200782 -0.544548 -1.420794 -0.601082 0.773469 0.338728 0.424031 -0.424546 -0.180038
1420491996 -1.190715 -1.853549 1.083403 -1.528021 0.025303 -0.510987 0.431073 0.618869 -0.025770 1.364399 0.368613 -0.275557 0.133212 -0.694459 -0.972642 -1.933800 0.217332 -1.391140 -0.464012 -0.498696 -1.173083 -0.056197 0.846474 -0.797550 0.762738 0.127987 0.115585 0.400125 -0.538719 0.047946 0.844650 -0.534661 0.102781 1.460964 -2.148427 1.108579 -0.659995 1.323231 2.079298 0.363117 -1.652987 -0.731867 -0.964911 0.254702 1.606535 0.336830 0.522671 -1.320145 0.330204 1.780547 -0.297759 0.409337 0.203930 -0.244586 -0.638301 -1.095030 -0.487027 -1.947323 -0.507007 0.908118 0.167925 0.048176 -0.567184 -0.224157
1177264178 0.180573 -0.543576 0.855389 0.354732 -2.037235 0.747133 -4.065752 -0.707660 0.997325 0.331606 0.398782 -0.296898 3.087300 -0.782823 0.169599 0.583019 2.105686 0.721749 -1.313675 -0.358414 0.097623 -3.513958 -0.525569 -0.009517 -0.160163 2.479468 -1.574641 -0.386713 0.356595 -1.306962 -0.616614 0.532557 1.116052 0.249111 0.006074 -0.285388 0.399839 0.736064 -0.272452 2.085572 0.999387 1.182174 -1.588543 0.070490 0.331405 0.879246 1.362914 -0.373426 -0.200036 -1.861865 -0.764234 -1.316251 0.321260 0.041752 -1.896384 0.316048 -0.983174 1.815224 0.280648 0.175573 0.557908 -1.464941 -0.646764 0.483182
1609150638 1.791343 -0.376848 0.088562 0.522173 -1.081218 -1.742530 0.625463 -2.444506 -1.121976 0.022014 0.084292 -2.029613 0.819267 -1.437216 0.487123 0.149285 1.244125 0.006020 1.614310 2.123610 0.094349 0.336080 -0.636902 -0.478691 0.343032 0.712459 0.061870 1.382910 1.576033 -1.223995 -0.407603 -0.835067 -0.415626 -0.828141 0.570184 0.851600 -0.132694 -2.599431 -1.632640 -0.315920 0.099341 0.091567 -0.396643 0.082445 -0.443355 3.583289 -0.569329 -0.256341 0.650974 -0.422014 0.634279 1.503669 1.568468 -0.082686 1.256076 -0.165737 2.146741 0.862590 0.353204 -0.335001 0.264114 -0.870494 0.235253 -0.139656
1070993665 3.077109 1.516146 -0.865775 1.419053 0.762775 -1.316537 2.402781 -2.252318 -2.133441 -1.082126 -1.241781 -1.171573 2.360914 -0.082893 0.021146 0.326533 0.954808 1.458555 1.314268 2.335850 0.034349 1.678049 -0.244630 1.307375 1.199975 0.569369 0.350861 0.596694 1.780569 -1.600724 -0.162505 -0.334246 -1.784040 -0.755790 2.104106 0.661984 1.184846 -3.163222 -1.676092 0.215819 -0.820878 -1.171131 1.601192 1.484149 -0.255426 0.233156 -0.827900 0.984750 1.077402 0.845532 0.716456 0.244337 0.910938 -0.101324 0.828197 0.433343 0.996889 0.971930 0.397815 0.166564 0.097012 -0.866604 -0.233853 -0.630100
1040257830 -1.127617 -0.798111 -0.100940 0.782222 0.826820 0.630819 0.407021 -0.189307 0.238078 0.358668 1.374925 0.592339 -0.770205 -0.396902 0.482972 -0.012570 -0.749068 -1.923664 0.110108 -0.797052 1.475316 -0.713519 0.409879 0.041051 -2.430861 -2.139080 1.377412 0.270683 -2.796792 1.652006 0.643335 2.376607 2.309388 -0.516285 0.761411 -1.602219 -1.467321 -0.749494 -0.245686 -0.051449 0.877182 0.017683 -0.575925 -1.775235 -0.812541 1.105867 0.662005 0.058499 1.036007 -1.316447 0.753452 -1.104731 -0.029375 -0.200726 0.100166 0.841122 0.025649 0.503875 0.492102 -0.404344 -0.592053 0.691658 0.541228 -0.240584
121242457 -0.146465 -1.240425 1.258202 -2.769003 -0.435411 -0.934840 0.102418 1.169350 0.657778 -1.111252 -1.636579 1.973513 -2.961787 0.801397 0.596536 -1.274512 -1.849508 0.175447 -1.747472 -1.186212 -2.929960 -0.509391 0.203409 0.307289 2.897865 -0.052196 -0.751172 0.631450 -0.652248 0.168668 2.124249 -2.279771 0.431112 1.136153 -0.782983 1.113037 -0.908295 2.215042 1.600917 0.103919 -2.932259 -0.715382 -1.741147 0.996524 -0.158867 -0.888559 -1.427356 -1.349460 -0.729920 1.207622 -1.357595 1.840929 -1.674659 0.919957 -2.642448 -2.647689 0.497785 0.341691 0.848745 0.886991 0.613620 1.155815 2.241369 1.538903
1083956503 -1.190783 -1.885033 1.237101 -1.822745 0.285550 -0.730080 0.157259 0.440451 0.316838 1.201898 0.255639 -0.093938 -0.020948 -0.844157 -0.645958 -1.630500 0.241887 -0.890962 -0.465648 -0.445403 -1.187455 -0.072055 0.789068 -0.642565 0.760671 0.243038 0.328896 0.543185 -0.469412 -0.060658 0.749028 -0.244351 0.343246 1.840848 -2.564659 1.277623 -0.767396 1.504074 1.888728 0.232766 -1.959449 -0.811436 -1.156178 0.515970 1.750573 0.366050 0.431533 -1.475578 0.095572 1.770192 -0.530861 0.648022 0.605549 -0.266939 -0.783355 -0.947011 -0.356592 -1.588062 -0.513544 1.000942 0.421214 -0.010098 -0.507773 -0.204838
1337891257 -1.333458 -2.120926 1.126718 -1.585491 0.195021 -0.750790 0.220454 0.558966 0.116696 1.127138 0.266896 0.040617 0.035590 -0.621881 -0.922744 -1.624550 0.164376 -1.008159 -0.766891 -0.628543 -1.358378 -0.068909 0.385540 -0.856513 0.674431 0.081392 0.148772 0.625566 -0.564436 -0.256083 0.803836 -0.470428 0.427395 1.276721 -2.241431 1.340335 -0.949746 1.378001 1.741569 0.615652 -2.029137 -0.716502 -1.149680 0.233232 1.638288 0.289827 0.555482 -1.251044 0.074273 1.763112 -0.698036 0.596114 0.184946 -0.282342 -0.818665 -0.914279 -0.465333 -1.739466 -0.592482 0.851060 0.598454 0.456622 -0.281247 0.121976
123587101 2.811126 1.357601 -0.809324 1.462520 0.696317 -1.309222 2.450935 -2.308228 -1.726136 -0.994743 -1.272184 -1.351330 2.440591 -0.266039 -0.247401 0.310025 1.116851 1.371428 1.426516 2.418183 -0.043645 1.604606 -0.086442 1.080003 1.114676 0.527460 0.533640 0.860361 1.718055 -1.558544 -0.207296 -0.180981 -1.941437 -0.683607 1.965514 0.829239 1.130664 -3.009010 -1.575797 0.146805 -0.986833 -1.338077 1.322925 1.331907 0.172913 0.496036 -0.725323 0.976392 1.187699 0.646963 0.604669 0.189231 0.806086 0.008318 1.062595 0.597524 0.896842 0.644832 0.153508 0.257632 0.151059 -0.915114 -0.431448 -0.834075
1172166666 -1.253683 0.210444 3.550795 -0.058289 1.310420 0.385866 -1.388142 -0.248708 -0.461212 1.327851 0.354269 0.563275 -2.798428 0.433118 -0.002533 2.850013 -1.433849 -1.685143 -1.454940 0.830463 0.676722 -0.379934 1.603223 2.814069 0.039672 0.235844 1.695410 -0.378460 -2.681427 3.443997 0.390724 4.248413 2.647008 -1.950921 1.041894 -0.400820 -0.945382 -0.199877 -1.421346 -2.053064 0.561486 2.234394 1.813289 -0.363954 -1.405995 -1.163597 -0.687144 1.726704 1.289057 0.572572 1.702485 -0.874755 -1.157964 -1.054562 0.221202 2.428722 0.736951 -0.111670 -0.501766 -0.577496 -1.480997 1.428075 2.321505 -1.066451
100191588 -1.079925 -1.889217 0.663111 -1.662318 0.261901 -0.798991 0.355515 0.612017 0.115536 1.215218 0.575326 0.200549 0.135843 -0.625908 -0.525912 -1.731723 0.156973 -1.103411 -0.924940 -0.852852 -1.409054 0.080814 0.716131 -0.855124 1.025573 0.281414 0.192670 0.624667 -0.301307 0.227502 0.685390 -0.450867 0.732523 1.573573 -2.447410 1.007573 -0.634979 1.427998 1.888001 0.209194 -1.750191 -0.856604 -1.105912 0.440476 1.644985 0.149867 0.461788 -1.344743 0.143064 1.813918 -0.474985 0.413601 0.300791 -0.339742 -0.709021 -1.326631 -0.644956 -1.596975 -0.771479 0.958508 0.325050 0.202291 -0.511281 0.009410
128955540 -1.524866 -1.164491 0.307796 0.967722 -2.238313 1.338202 -0.356763 1.060214 -1.461400 1.235521 2.297360 0.221601 1.018729 1.217207 -0.996533 0.497712 0.570771 -0.486544 1.088994 0.219716 -0.357279 -1.008746 0.807900 -0.476522 -1.389800 1.099339 -0.735611 0.320914 2.310537 0.094081 -0.405569 0.193660 -2.212410 -1.251645 -1.398212 -1.192277 0.757626 -1.287937 2.746461 -0.350254 1.622274 0.532236 -0.241326 -2.255344 -0.577630 1.498124 -2.674000 2.378157 -1.709041 -0.278109 0.754444 1.261348 0.061514 -0.776984 1.533265 -2.806448 0.674022 -0.029262 0.189824 1.258942 0.838540 1.415513 0.020711 -0.345609
1448141558 1.835030 -0.151912 0.280160 0.540866 -0.939797 -1.679526 0.954933 -2.247353 -1.220806 0.085018 0.077390 -2.080968 0.845733 -1.182261 0.281670 0.122541 0.881781 0.002373 1.851013 1.922845 0.068215 0.476079 -0.418602 -0.197475 0.327920 0.460208 0.232305 1.433324 1.559995 -0.991540 -0.419011 -0.754658 -0.726175 -0.877233 0.393112 1.428135 -0.129595 -2.261109 -1.320069 -0.154134 -0.306800 -0.271019 -0.335077 0.264284 -0.185617 3.346689 -0.644240 -0.321798 0.839824 -0.237933 0.405980 1.849725 1.468111 -0.196180 1.405078 -0.410843 2.218610 0.590476 0.417242 -0.187171 0.052701 -0.710245 0.222594 -0.043397
1441196311 1.317509 0.229046 1.390249 -0.207727 -2.655424 0.860893 -5.026119 -0.031013 2.060875 -2.258702 -1.782288 1.384539 0.456009 0.958610 1.684704 0.923803 0.389566 2.492540 -2.483335 -0.596083 -1.129005 -4.396731 -0.567518 1.755303 2.015946 2.356825 -2.389553 -0.740088 0.484882 -1.346389 0.937395 -1.325301 0.761985 0.552266 1.326886 -0.977958 0.161377 1.926968 -0.279157 1.772599 0.367712 1.847069 -2.313155 1.436984 -1.277480 -0.542142 -0.350885 -0.595239 -1.030329 -2.683560 -1.113692 -0.181524 -1.658842 1.682959 -4.227489 -1.031958 0.013864 4.261940 1.826037 0.147302 0.811125 -1.670102 2.048706 2.023590
1257714452 1.568245 -0.208561 0.307851 0.337780 -0.956536 -1.770587 0.765718 -2.240611 -1.330556 0.317069 0.008575 -1.979704 1.311070 -0.988403 0.260903 0.382007 1.116845 0.122969 1.741215 2.073981 0.316277 0.476652 -0.669539 -0.331687 0.313332 0.970261 0.459242 1.421543 1.487435 -1.055550 -0.655518 -0.626093 -0.500148 -0.472119 0.399423 1.213875 0.133180 -2.593824 -1.885784 -0.397618 -0.030005 -0.186870 -0.344791 0.194258 0.083544 3.514282 -0.702857 -0.464949 0.656079 -0.260707 0.218978 1.672035 1.795738 -0.100842 1.328547 -0.233133 2.060585 0.892567 0.077709 0.008450 0.140107 -0.599379 0.142009 -0.273757
1241771010 -1.202822 -1.327589 2.365619 -1.185052 1.533285 -0.388572 0.788048 0.016147 -0.681821 0.255245 0.525821 1.416656 -0.141210 -0.164479 -0.697736 -0.996944 -0.806213 -2.898358 -1.619020 -1.145581 -0.142668 -1.328601 1.336564 0.679757 0.156896 -1.347372 0.657502 0.410367 -3.448809 2.234356 1.731458 2.097741 1.958551 0.126710 -0.132454 0.669173 -1.757470 1.079760 1.601035 0.829156 -2.514257 -1.450516 -0.679425 0.128463 0.595428 -0.146596 0.130944 -0.626963 1.461372 0.969773 -1.093700 -0.745356 -1.176597 -0.600601 -1.931046 -0.056985 -0.914863 -0.575960 0.788064 0.558317 -0.301717 1.697733 0.945357 0.052630
146595646 1.718109 -0.156720 0.406895 0.324647 -1.003676 -1.548776 0.824376 -2.377333 -1.138678 0.295496 0.081416 -1.942327 0.985860 -1.279224 0.566309 0.069621 1.098131 -0.055539 1.737030 2.084794 0.449787 0.295653 -0.472151 -0.500901 0.200230 0.539430 0.346376 1.484701 1.242756 -0.751296 -0.757399 -0.585415 -0.487430 -0.667274 0.452518 1.164633 -0.138869 -2.457981 -1.671498 -0.266595 -0.013998 -0.239425 -0.421862 0.236488 -0.021129 3.741628 -0.732140 -0.628540 0.825632 -0.685456 0.214856 1.970903 1.854730 -0.041244 1.417595 -0.163529 2.219559 0.912389 0.322846 -0.147593 0.072372 -0.465184 0.127589 -0.235091
1383132374 3.195900 1.559614 -0.948765 1.459189 0.816557 -0.996610 2.481837 -2.280400 -2.012570 -0.796152 -1.124099 -1.295849 2.428379 -0.164719 0.097341 0.048984 0.957644 1.501166 1.246213 2.219710 -0.044409 1.333063 0.220812 1.170653 1.381277 0.658384 0.353519 0.842166 1.781179 -1.550780 -0.245567 -0.436491 -1.893967 -0.899797 2.018240 0.725123 1.115577 -3.216633 -1.428047 0.309472 -1.155807 -1.160955 1.384676 1.337316 -0.083666 0.373848 -0.733342 1.081633 1.398683 0.471525 0.739967 0.290370 0.869718 -0.034820 0.918542 0.342848 0.833495 0.665043 0.382967 0.397921 0.084438 -0.814256 -0.452373 -0.653349
1367893339 -1.160019 -2.195409 0.906413 -1.839333 0.061884 -0.690607 0.380601 0.254470 0.828693 0.979339 0.211943 0.235741 -0.523081 -0.981719 -0.590478 -1.789168 0.239362 -0.961906 -0.821472 -0.447666 -1.461484 0.064354 0.549624 -1.020573 0.867837 -0.158806 0.280952 0.771599 -0.531120 0.188337 0.812898 -0.386662 0.628343 1.401667 -2.244101 0.929803 -0.931626 1.571728 1.655180 0.364667 -1.861606 -0.879429 -1.362276 0.336111 1.690106 0.264977 0.417207 -1.353898 -0.002262 1.438318 -0.646545 0.839185 0.250146 -0.085064 -0.755119 -0.946459 -0.384060 -1.437433 -0.711071 0.774356 0.410171 0.416127 -0.329577 -0.139687
138688117 0.248010 -0.031103 0.849275 0.646642 -2.035066 0.856392 -4.333641 -0.389768 1.061442 0.303309 0.092369 -0.289549 2.431947 -0.648459 0.398414 0.751382 1.653836 0.964790 -1.349297 -0.509161 0.118256 -3.087525 -0.609952 0.142664 -0.097371 2.344215 -1.739301 -0.705510 0.450671 -1.259794 -0.694137 0.187630 1.104852 0.163252 0.311282 -0.415198 0.345857 1.034230 -0.626173 1.735651 1.545773 1.674911 -1.171286 0.324513 0.073878 0.484913 1.450177 -0.443747 -0.298032 -1.910355 -0.390395 -1.284943 -0.103856 0.052497 -1.695745 0.454647 -0.747061 1.795330 0.199902 -0.176154 0.270004 -1.663461 -0.450723 0.838532
1034623261 -1.303831 -1.864911 0.988500 -1.717771 0.038351 -0.600105 0.365133 0.340944 0.315909 0.987138 0.120927 0.189470 0.038293 -0.733169 -0.778786 -1.698593 0.461270 -1.465858 -0.671218 -0.735508 -1.311940 0.078784 0.438103 -0.989911 0.859948 0.153436 -0.173288 0.420931 -0.372360 -0.075241 0.608414 -0.317755 0.757325 1.045314 -2.147685 1.323949 -0.688940 1.229177 1.574610 0.528897 -1.806486 -0.668770 -1.104068 0.250829 1.569718 0.120541 0.674034 -1.244087 -0.014176 2.082523 -0.803052 0.281134 0.114427 -0.138989 -0.920438 -1.004630 -0.434874 -1.408122 -0.269044 0.521448 0.218966 0.089707 -0.187456 -0.295216
1191312960 -1.427809 -1.991484 1.090731 -2.103968 0.101663 -0.986237 0.343372 0.603478 0.442661 1.085459 0.220356 -0.100741 -0.598670 -0.760170 -0.603571 -1.457190 0.133809 -1.421642 -0.602059 -0.702527 -1.281780 0.030026 0.289322 -0.869922 0.818226 0.113807 0.180931 0.423128 -0.727490 0.199811 0.631745 -0.295078 0.824708 1.281673 -2.511961 1.342765 -0.961332 1.488918 1.557176 0.241362 -2.040160 -0.986012 -0.973026 0.217228 1.572069 0.225788 0.619546 -1.393851 0.287598 1.623193 -0.795669 0.614610 0.403733 -0.289740 -0.770098 -0.868489 -0.343531 -1.608207 -0.629094 0.508349 0.306543 0.594492 -0.238961 -0.060096
1004603048 1.924187 -0.260412 0.144070 0.154804 -1.068549 -1.816122 0.769786 -2.439680 -1.191150 0.047805 0.363548 -1.948318 1.048133 -1.168519 0.584748 -0.083448 1.290290 0.046291 1.619732 2.082713 0.372303 0.288057 -0.812638 -0.237316 0.399366 0.922376 0.112662 1.068812 1.574089 -0.895133 -0.562438 -0.720456 -0.285810 -0.499749 0.256391 0.881756 0.146822 -2.477245 -1.484799 -0.108763 0.067310 -0.150425 -0.321549 0.371186 -0.274046 3.263246 -0.551519 -0.519721 0.750095 -0.316312 0.257076 1.793250 2.044526 -0.204840 0.904140 -0.547011 2.169163 1.269672 0.175027 -0.218398 -0.052585 -0.936486 0.183972 -0.177917
115604864 1.966091 -0.069539 0.231382 0.596357 -0.883874 -1.641443 0.584339 -2.130238 -1.355721 0.199663 0.120859 -2.092852 0.869891 -1.013662 0.157913 0.388586 0.906485 0.172221 1.774392 1.924907 -0.128038 0.378996 -0.525669 -0.097405 0.437943 0.987579 0.141329 1.592873 1.547631 -1.080840 -0.471557 -0.896232 -0.607948 -0.749252 0.516768 1.531256 0.038009 -2.325551 -1.702770 -0.187866 -0.217224 0.037448 -0.393235 0.209151 -0.357347 3.472417 -0.647603 -0.274173 0.800615 -0.283341 0.483594 1.710855 1.409216 -0.181878 1.333659 -0.391767 2.153605 0.582434 0.195275 -0.165015 0.076386 -0.866889 0.304557 -0.084699
104800956 -0.925288 -0.680732 0.170377 1.041385 0.843053 1.090440 0.522924 0.011455 -0.128010 0.467026 1.348868 0.667973 -0.942869 -0.339470 0.338960 -0.450273 -0.957969 -1.881939 0.020788 -0.745835 1.494368 -0.795731 0.418702 -0.065132 -2.665991 -2.221155 1.164572 0.352126 -3.174429 1.425572 0.779865 1.938518 1.922006 -0.565325 1.151307 -1.606028 -1.548777 -0.883843 -0.185788 0.388475 0.988778 0.273220 -0.784065 -1.826886 -0.739737 1.239890 0.424116 -0.175217 1.233025 -1.787147 0.532774 -0.560047 0.013995 -0.099511 0.122021 0.635538 0.317326 0.346787 0.465171 -0.373625 -0.433775 1.032819 0.592032 0.066615
148382063 0.316584 -0.251825 1.010122 0.452590 -1.998037 0.905906 -4.382150 -0.494946 1.130970 0.197423 0.227881 -0.327567 2.416281 -0.651451 0.176762 0.688867 2.103671 0.729645 -1.483578 -0.351979 0.083955 -3.400301 -0.729821 0.208758 -0.092254 2.511269 -1.827099 -0.512871 0.265317 -1.000403 -0.868103 0.347593 1.140200 0.232078 0.177664 -0.208646 0.452814 1.174593 -0.609644 2.173945 1.410187 1.644624 -1.148335 0.569872 0.022175 0.415793 1.431910 -0.500489 -0.314844 -1.869262 -0.806148 -0.996768 0.217553 0.072629 -1.938595 0.563653 -0.824642 1.799254 0.068377 -0.291490 0.343537 -1.521899 -0.471754 0.578884
137704837 0.443460 0.668485 -2.125908 0.998064 -0.106031 0.876794 0.937327 0.452364 0.700930 -0.376837 -0.507912 0.009593 0.559744 -0.204397 0.046420 -0.722916 0.538105 1.777909 0.628555 0.191036 -0.289193 1.791516 -1.169125 -0.066165 -1.360728 -0.658741 0.141394 -1.154281 0.353367 -1.518271 -0.622675 -0.113724 -1.020890 0.821851 0.026576 -0.267899 1.789172 -0.031899 0.628041 1.210941 1.167185 -0.291260 0.954710 0.248437 0.498699 -1.781249 1.069326 -0.005772 -0.764656 0.607559 0.272903 0.325154 1.074147 0.114999 1.040239 0.130105 -0.382693 -0.111966 -0.963600 0.033591 0.222535 -0.479576 -1.742216 -0.398110
1629459656 0.142035 -0.106858 0.956713 0.574924 -2.099102 0.902207 -4.181019 -0.234475 1.002866 0.152043 0.015485 -0.206412 3.018418 -0.552046 0.263765 0.656208 1.972389 0.647566 -1.359515 -0.371291 0.197010 -3.582799 -0.368269 -0.020915 0.047333 2.719085 -1.619924 -0.426166 0.414217 -1.077343 -0.669779 0.195939 0.946126 0.662403 0.257019 -0.348722 0.542728 1.006631 -0.567549 1.952446 1.523886 1.301852 -1.431068 0.511466 0.382922 0.675248 1.038617 -0.792937 -0.251395 -2.045919 -0.766353 -1.232252 0.121971 0.267324 -1.900527 0.362026 -0.886360 1.861472 0.227908 0.085877 0.423872 -1.478147 -0.525908 0.599944
1295352704 -1.133123 -1.956563 0.770035 -1.681317 0.200301 -0.802641 0.423000 0.538721 0.191401 1.024243 0.477976 0.129135 -0.191401 -0.879871 -0.751380 -1.592320 0.041514 -0.995095 -0.497643 -0.711838 -1.461215 0.067172 0.737694 -0.792716 0.689323 -0.003854 0.117429 0.621656 -0.321537 0.030214 1.017700 -0.401185 0.264132 1.512435 -2.295879 0.922467 -0.724163 1.487941 2.036003 0.125098 -1.759621 -1.032434 -1.154242 0.160367 1.422519 0.343574 0.206811 -1.129200 -0.096764 1.763808 -0.407182 0.364400 0.142657 -0.482915 -0.736685 -1.294038 -0.538115 -1.627607 -0.495306 0.980821 0.421190 0.162618 -0.528975 -0.033819
1153426675 -0.040079 -1.033131 1.446687 -2.459247 -0.235701 -0.716364 0.088425 1.313725 0.546728 -1.288382 -1.902312 2.084697 -2.944996 1.066545 0.630356 -1.360715 -2.046692 0.499659 -1.816688 -1.047080 -2.866651 -0.416127 0.271260 0.640596 2.736905 -0.305387 -0.565366 0.550398 -0.877599 -0.059300 2.216890 -2.325740 0.162828 1.421577 -0.606723 1.277437 -0.872625 2.296112 1.865548 0.280270 -2.978198 -0.446523 -1.668174 1.306783 -0.120668 -1.080718 -1.428154 -1.497607 -0.903038 1.289533 -1.262772 2.095424 -1.737961 1.194255 -2.549631 -2.518317 0.590583 0.328407 0.918952 1.003075 0.737940 1.091834 2.322234 1.612652
