226 64
the -0.532806 -0.708943 -0.953457 1.950155 0.253691 2.295912 0.928872 -3.316714 -0.479110 1.433462 1.473169 0.189970 -0.398989 2.585853 -1.313550 0.275539 -0.986786 -0.449494 -0.206252 0.438915 0.302997 0.863515 1.714634 -1.961509 -1.431493 0.568557 -0.188796 -1.424819 0.006621 0.106149 1.106505 0.404319 -1.843405 -0.486622 0.682583 4.030247 1.291597 -1.351045 0.092111 -2.131377 0.694975 0.042247 0.035692 1.734064 -2.764471 2.140235 -0.527400 0.223839 3.801990 2.355907 -1.288330 -1.191352 -0.311231 0.585269 -2.473344 -0.205775 0.332790 -0.071407 1.857778 0.203765 1.296478 2.834640 2.373317 -1.589291
of -3.328520 -0.471525 -2.892985 -1.079478 1.328046 2.806441 -2.334018 -2.552224 1.702781 1.191975 -3.216232 4.011162 -0.199023 0.818658 -0.236445 1.257735 -1.154805 0.142177 -1.033648 3.828900 -1.507534 1.966586 0.088531 -2.568245 0.041496 -2.870452 2.170442 -1.857072 -4.905066 0.096630 -0.528755 -1.741606 1.107649 0.822351 -2.043984 1.276119 1.536449 1.636336 -1.932763 -1.190742 -1.539072 -1.028661 -0.186092 2.307365 0.536632 2.408385 -0.074200 1.460151 -2.364970 -0.468644 -0.130230 -0.246449 1.141360 0.398843 1.027475 -0.093059 -3.319649 1.064599 0.922933 0.127553 1.468776 -1.319939 2.630473 -0.664242
a -0.380434 -0.350764 -2.116689 -0.938610 -2.920926 1.568511 -0.392783 0.246066 -1.816463 0.779381 0.756664 -0.832973 0.117106 -2.900409 -0.675070 -1.896442 1.768599 0.773675 0.004979 -0.786330 1.082772 1.238554 -0.020398 1.234191 1.999628 -0.609674 1.438357 -1.516986 -3.392326 -2.226484 2.096767 -0.105033 1.615927 2.500030 -4.125074 0.410898 -0.971289 0.374280 -3.276955 2.403206 -0.954697 -0.509560 -2.057823 1.474574 2.840061 -3.894552 -3.932050 1.748954 1.470033 0.361671 0.906816 -1.898474 0.064581 -0.307755 1.327238 -4.197392 1.431379 -1.090403 1.377591 1.461882 1.102687 -2.555323 1.314821 -6.023296
is -0.587605 0.852197 0.084606 2.113172 2.768233 1.408026 0.150393 5.093303 -1.563722 -1.909740 -2.174683 0.073487 1.540494 2.546012 0.775351 -2.942060 -2.353148 -1.651914 1.495664 -2.218818 -0.376033 -2.469706 1.605297 0.940609 -0.291419 1.248707 2.112593 0.888674 -1.104976 -0.731699 -1.437212 1.218385 -0.465419 -1.139396 -0.111976 1.770771 2.246572 -0.187589 2.542404 1.554349 -2.649901 1.200546 -0.424548 -0.201956 -1.090522 4.432436 1.489774 0.936706 0.107297 2.529013 2.257768 -2.787795 1.397837 -0.567010 -4.556320 -2.131439 0.532455 2.451673 4.117751 0.070722 -1.488222 -4.150839 -4.360429 -1.388199
text 0.347762 -0.982371 1.847043 1.864398 3.284153 0.942471 -3.874190 2.666902 -1.194106 2.517332 1.601778 0.412146 2.093317 -0.489620 -1.233136 0.062413 -2.263026 -0.484581 0.614468 0.946464 2.457162 0.176927 -0.168678 0.541481 0.524445 -0.487422 1.264197 -1.020354 0.499883 2.119806 -1.639046 0.573291 2.718674 1.392445 -3.621777 -0.784577 -2.832879 0.643839 -2.569039 -0.150313 -1.889258 -1.816469 1.292937 1.520605 0.635543 1.066047 0.757729 0.457054 2.823700 -1.283864 -0.575665 6.382135 0.388381 -3.335024 3.191202 -1.201237 -1.979351 0.686378 0.989962 -0.270523 -1.691327 3.291334 -1.117441 -1.186543
to 0.019322 -3.120946 2.697635 -2.663494 1.484978 -0.233293 2.375862 -0.013963 -1.338627 3.535157 1.979405 -2.116296 1.963354 2.415101 -0.000727 -2.000228 1.589425 -0.369370 2.816090 -2.189709 1.296804 0.250525 0.871634 -0.099747 -1.662847 3.944046 -3.361738 1.786867 -1.815609 3.133245 -0.259909 -0.049370 -0.483771 0.981867 3.428274 -1.387642 -0.073574 -2.732635 -2.492248 1.534386 -2.818910 -2.977736 -1.411920 1.733679 -3.047801 -0.969482 3.066854 1.791399 2.348709 -3.639655 -1.159811 0.307595 2.232932 2.620832 -0.121808 0.687925 2.289171 -3.496401 1.955087 1.769333 -3.599767 0.906403 1.130213 -2.251913
in -0.182089 -0.968246 -1.910522 1.316770 -1.595190 -0.711617 2.204378 -0.468150 3.159256 0.265293 3.126901 0.176986 1.533502 -0.916316 -4.993915 -3.302492 1.446646 0.312117 0.135842 -0.692909 3.213480 2.983156 -1.016048 1.773800 -0.813047 0.248550 -0.117300 -2.246163 0.323947 1.415808 -2.608241 -1.184479 2.261622 -0.501416 1.419236 -3.319529 1.285600 -1.037072 2.890769 0.419055 1.204904 3.151778 3.109129 -0.083124 2.262913 4.326973 1.656944 -3.849867 0.094280 -1.788491 3.576889 2.881288 -2.107036 1.920820 -1.992557 -3.104103 -0.859113 -0.067837 0.545482 -1.626425 0.758916 -1.197964 1.941865 -0.229463
model 2.738240 -0.153568 3.625245 1.602881 1.282003 5.065908 -2.460858 -1.922393 0.653479 -2.734313 0.882393 1.344929 -0.864258 2.360187 -1.133725 -4.846981 -0.688114 -1.768576 2.230548 -0.102834 -1.068751 -0.057151 -2.523933 -0.784406 2.339254 2.927893 1.652780 -1.363641 3.427549 2.075361 -1.111294 0.056898 0.272002 2.677006 -1.740517 0.025035 4.439901 -5.132254 -1.850375 3.727005 1.036552 -0.433092 -2.320221 -2.209130 -0.669979 -1.892555 0.503292 -2.711210 -0.188892 1.330926 -0.393950 -2.243913 -1.133586 -0.689889 -0.048738 -1.589020 1.666826 0.699761 -3.605683 0.691556 1.165599 1.004017 -0.744527 -1.097738
and -2.841114 4.240580 2.548168 -0.971466 -1.953979 3.135068 0.266700 1.237757 0.460617 4.261577 -1.465575 0.309898 2.300703 -2.923635 -0.229122 1.010830 1.682302 0.712609 1.691241 -2.097382 -2.941134 -0.386880 -0.031751 -0.827356 1.243396 0.406545 0.598050 0.827826 1.777781 5.694835 -4.588029 -0.248128 1.895622 -0.804983 -0.500245 2.179757 2.818995 1.711156 0.290560 -2.970933 -1.963426 2.808882 0.012520 1.965914 2.678707 -2.371490 0.204233 -4.931299 -0.932606 -0.517715 0.240864 1.692242 1.126249 0.776658 2.614742 -1.301187 1.400255 2.370677 -1.736624 3.054729 0.451020 1.419892 2.971827 0.781360
documents -0.137926 -1.618341 -0.070719 -1.588711 1.876500 0.152388 -0.068232 1.063053 0.768754 0.063583 1.086583 2.824468 0.026365 -0.747251 0.197543 -0.265117 1.412150 -0.278717 1.691218 2.256257 -3.792691 -1.968422 -3.677624 0.205874 1.199522 -1.096299 -2.878826 2.255358 -2.668431 0.616194 -0.307257 -2.652053 1.043521 4.059378 1.259464 -0.785771 1.527747 -0.009588 2.272817 -3.685839 1.254234 3.202205 0.235640 -1.452500 -2.140992 5.715641 -1.827425 -0.313396 -1.272848 1.046220 3.550503 2.607459 -1.473255 -1.855129 1.689070 -2.734704 -3.577250 1.317662 -1.052531 3.125339 3.159327 0.497842 1.912557 -0.396539
terms -4.147222 3.868387 -0.587316 2.377259 -3.305030 3.573950 -1.766530 -1.670764 0.836042 0.878592 -1.518486 -0.050625 -0.520877 -3.546718 -4.185720 0.972563 1.977523 0.493153 -3.041819 0.814259 -0.186089 -2.284958 2.185585 -2.165428 -2.117126 0.562250 -1.495584 -0.179737 0.114148 -0.684325 -1.466255 -0.376272 -0.777375 4.141196 0.468418 -2.005656 8.678672 -2.775980 -0.872863 -2.645941 2.156359 0.438245 0.306725 -2.649020 -2.638860 0.011682 1.034893 0.950370 -1.147488 -1.527134 0.894299 1.917515 -1.859686 -0.586784 0.181451 2.223740 -0.967120 -0.097218 1.485949 -0.119311 1.103484 2.370543 -1.795031 2.865959
we -0.753949 4.162304 0.384344 -4.425740 -2.338034 -2.676563 0.662784 -0.372434 -2.337894 -1.203276 2.584542 -2.337822 0.328301 -0.160469 -2.571776 -5.271026 -1.447747 -5.826458 -2.702521 2.539376 0.989426 0.653402 -3.094389 3.279816 0.316713 1.501091 4.989016 -1.169420 -1.003951 0.698382 -1.536111 2.270752 3.163969 0.087099 -3.290946 -0.905343 -1.191452 1.546380 0.390293 2.352468 2.997749 -0.381854 -1.857227 -0.590051 -0.922180 0.571364 -0.806804 -2.262129 0.265958 2.011672 -0.931277 1.434846 3.632148 2.079988 -2.105835 1.858421 2.011367 -0.816849 -0.939395 -1.047606 -4.950181 1.876045 1.420756 0.104965
as -3.670455 -0.226502 -0.143322 -0.357760 2.622534 1.408334 1.351955 1.099866 -2.378002 3.150543 -4.205449 -0.174955 -4.477622 -2.188609 2.942592 0.015272 2.886093 -1.429303 -1.151999 -1.351394 0.136279 -2.256078 -0.487307 -0.725355 1.919723 0.608225 0.168613 1.795860 0.793431 3.630992 0.713542 1.653947 -3.662204 1.008685 0.119271 -1.007337 0.391349 4.297220 -1.005513 -1.034976 4.124834 4.652061 -0.385558 -0.201779 0.642328 3.545588 0.586657 -2.327476 3.138299 -0.389338 1.766593 -1.308567 -0.281095 -0.391534 2.850016 -5.338115 3.367074 1.345972 -2.562559 2.938528 -2.699433 -0.674766 -0.431039 -1.574293
section -4.275881 0.271167 -1.549641 -2.686206 2.373548 -1.107764 1.051573 -0.728405 -1.766839 -2.580521 2.267813 -5.017246 1.166952 -0.581129 1.963140 -1.022005 4.772950 -3.377297 -2.331403 -0.117385 0.349929 -0.214240 -2.222669 0.624939 -2.500787 0.185841 -1.973478 -0.810184 2.858829 2.878052 0.399897 1.075509 1.345575 2.144644 -1.057743 -4.858772 -2.234177 -0.804793 0.240986 1.589704 -0.123848 -1.528962 2.461601 -1.059748 2.788621 3.183297 -4.558571 -2.122545 0.917398 0.966492 -0.731608 3.795223 1.843593 2.439679 -1.883144 -4.137259 2.194346 -2.790373 0.772419 -1.192548 -3.849174 3.437927 1.911293 2.462025
mining -1.781771 -0.742354 5.565589 -1.774446 0.444081 2.459943 0.151973 -1.270865 2.931267 3.460717 1.396402 0.312421 1.614508 -1.294154 -2.985286 2.082637 1.829578 1.355998 0.245395 0.982448 1.867483 2.479686 0.559778 2.692110 1.409114 0.087553 0.004682 -2.553306 -1.017250 4.890992 1.927117 0.070071 4.361937 1.961793 3.647479 1.074953 -4.319029 -3.306964 -0.707996 -0.243394 -0.471188 -2.457247 -1.361439 -1.282855 4.330641 0.212117 3.983332 0.059352 3.941717 0.791868 2.345199 0.297821 -1.615368 -3.827830 1.203209 1.462782 -2.510393 -2.678435 1.856981 0.608071 -2.495465 -2.055833 -3.187591 3.424017
document -0.272368 -3.131368 -1.919101 0.323585 -1.487988 1.030218 1.496407 1.166799 -2.378672 -1.040010 -3.507067 -0.201884 0.142720 -2.333250 -2.782279 -1.618397 0.663157 0.753722 2.039307 -2.140805 0.151314 1.708588 1.605762 3.421649 -2.169665 3.263049 0.871329 -1.264172 -0.231559 -0.641012 1.507780 0.355853 2.439322 -1.735331 2.329349 2.874042 -4.819867 2.521186 -0.949512 2.461870 -2.086964 -2.925562 -0.093863 1.281043 -3.584723 -1.855665 -1.617643 4.014101 -0.329352 0.513435 5.174155 -1.102353 2.136299 -3.204436 1.343766 -3.938409 2.373061 3.901851 1.535449 0.291489 3.261967 0.253447 0.228774 0.042075
one 2.199009 4.496038 -1.605554 1.024284 3.769970 -1.489180 -0.053745 -2.585745 2.173963 -0.813508 0.324365 1.074596 -4.133646 1.017027 1.352991 -2.010659 0.616608 -1.484215 2.623750 0.669934 -3.869190 -0.292048 0.253547 -0.220621 0.119301 -3.795026 -2.537192 -2.212279 -1.105525 -2.165344 -1.140159 5.328551 -0.908138 3.091537 0.478375 0.791493 -2.070273 0.932011 -2.253752 1.070739 -1.169385 -2.648077 2.968244 1.316651 1.812733 -1.159818 4.688393 -2.081213 0.714930 2.043587 1.007449 -1.109741 0.672314 2.122793 -0.624784 0.094050 -0.732795 6.199236 4.205711 0.113309 1.183115 -3.232474 -0.411107 -0.858576
into -1.822141 -3.147271 -1.939786 0.743334 -1.444818 -0.520527 1.318489 0.390545 -2.183806 1.583308 -0.151168 -0.493625 1.577245 -1.639230 0.482476 -0.366303 -1.879212 6.684569 1.162490 2.313275 -2.324034 0.111906 5.530290 3.765383 1.181718 0.009126 7.238398 -0.740301 1.472831 -0.659070 2.456167 -0.181962 0.161464 -0.974528 0.281729 -0.776383 -3.187991 -0.828060 -1.579955 0.737266 2.905620 1.198039 -0.665248 2.524427 -1.788224 0.633326 -0.529014 0.818559 4.116431 2.782213 1.444571 -4.402606 -1.365129 -1.585342 4.048328 2.312648 -0.026735 -0.011535 -1.525044 0.580869 2.532657 0.623364 -2.405605 -0.762673
or 1.139920 -1.728965 0.184255 -1.766116 1.656944 -0.127247 -1.648422 3.606709 -3.819269 2.282908 2.978727 0.078032 1.600994 -3.421019 0.786966 -2.926970 4.350075 0.816001 1.623773 0.618398 0.355419 -3.248691 -0.835328 -1.147883 -1.819020 1.506774 -1.318263 -0.885686 0.809249 -0.132367 -0.741197 -0.877884 2.719955 3.218908 -2.027639 0.850310 -1.297557 -0.063053 1.748594 -2.080230 -1.193382 -7.571814 4.112322 1.357559 3.682561 0.445003 0.657634 0.351443 1.178092 -0.236370 2.058256 1.549735 -3.104516 -0.221939 -0.447256 3.669414 -1.565719 -0.001388 -2.749782 -0.963263 -2.243121 3.649410 0.083180 0.235451
that 0.154567 -0.487790 1.394023 -3.274826 -1.452248 -2.165153 5.557582 1.966824 -2.511808 0.809893 1.442478 4.028285 1.258245 3.825599 -0.234223 -3.289191 0.111659 -2.483353 -1.585457 0.236183 -3.125747 0.315973 -1.047413 0.093089 0.356616 1.827811 3.850319 2.892409 1.457930 -0.011928 0.499293 3.803365 1.871202 -1.482455 -0.930437 -3.494583 2.198213 0.720659 0.648077 0.605848 -0.565521 0.297510 1.133512 2.193161 0.149137 0.270743 4.877016 1.546929 -4.327521 3.265105 0.686735 -2.124398 0.176348 2.944909 -0.296268 3.116109 3.989785 -4.442588 5.062708 1.129101 -0.546533 0.130460 -2.467214 0.064866
problem -3.020782 1.122864 -1.847133 -2.267519 -1.209548 1.079261 -2.376495 0.183783 -3.251140 3.612997 -3.221585 -2.720787 -0.260342 1.600037 -2.769097 -0.182459 -0.862458 3.924768 2.072352 4.403049 0.939265 4.020477 1.021585 2.913264 1.590899 -2.558068 -0.227444 0.437287 -2.073630 -3.453802 3.557821 -1.046648 -0.747132 -1.541844 1.730594 -1.491777 -3.167465 -1.202755 -3.146120 -3.097487 -3.062212 1.035115 -1.734344 -1.368891 3.368385 -0.575158 1.166929 3.882095 2.516626 5.066104 -0.710613 1.141758 2.369875 -1.413764 -1.829856 -0.541715 0.736169 0.164294 0.186026 0.807252 1.382314 -0.639883 -0.397805 0.591408
methods 0.030404 0.634795 0.120689 -0.154792 0.002729 -2.274369 0.135206 -1.721285 -0.730298 3.709110 0.914970 -5.015206 5.218451 -1.694376 -0.722214 1.131550 0.055523 -1.827548 -1.968136 2.340585 0.592151 -0.814239 -4.336980 -2.747168 -0.935045 1.884109 1.036265 1.993920 -2.310817 4.379224 -0.512138 -0.651313 3.738759 1.104100 -1.697224 -1.086917 -0.126290 -2.910624 2.729021 2.209319 -2.496466 -3.125485 -3.150026 -0.759290 6.160997 -2.860979 2.288213 1.471688 3.951951 2.003535 0.671290 0.055999 1.216526 0.083015 2.211376 1.185912 0.717511 0.264653 -0.714553 4.211586 0.260300 4.456883 -0.156096 -1.866473
classification -3.897858 -4.474303 0.944109 1.163636 2.090647 -0.945542 -0.060853 -0.303566 -4.480908 3.163531 4.326828 -1.655999 2.649592 -0.024204 -0.817424 -1.513605 2.955477 -1.640752 0.786167 -1.304073 -0.286465 -0.899649 -2.255367 -2.624121 1.605523 0.289242 -1.526807 -1.669072 2.521558 2.695062 -2.202563 -0.747953 3.069983 -0.969365 -2.557795 -1.876424 -2.496313 2.472819 0.843910 2.471429 -0.812340 -1.529654 -2.508602 -0.193530 3.068718 0.683707 0.150314 2.541456 0.275532 -3.845318 0.582252 -0.412446 -2.519541 -0.946067 -1.628117 2.479461 -1.349392 -0.046502 -1.522379 2.388358 -6.724720 1.689661 0.150461 2.776886
with -3.495930 0.381153 -0.614465 -0.093298 -0.315817 2.222339 0.176714 0.161551 -3.031166 1.048929 6.453298 1.087271 0.333274 1.064678 -2.403692 -2.598719 2.356533 3.346776 -2.834772 -0.658497 0.293957 -0.108748 -0.957616 -5.160340 1.128815 -5.413453 -1.176517 -0.660285 2.741596 -1.092362 -3.408293 -0.658912 -1.302639 1.722577 -0.668088 2.420070 1.601358 1.894450 2.832111 0.223219 1.424750 1.787314 0.122879 -2.829218 -2.231691 -0.520414 -0.813831 3.619685 -0.674853 -3.419760 0.872246 -0.125718 2.729760 -4.648470 0.850030 1.576538 -0.706369 0.068324 -1.045254 2.589619 -1.712115 -0.370087 4.154231 1.221204
proposed 3.805479 -1.268164 -1.484960 2.247950 -1.470004 -1.967823 0.445174 1.138233 6.195537 -1.484753 1.904875 -2.133444 -4.539485 3.193129 -2.046154 -1.379723 -0.317166 -1.344800 -0.419163 0.693877 -0.589097 2.423404 2.503106 -1.279780 1.521664 -0.415457 -0.305819 -2.981005 0.074690 0.929712 2.604062 2.148780 -0.276211 0.228143 0.538358 0.810330 0.995695 0.040714 -3.843370 -1.332727 -3.178630 2.415352 2.009592 2.259985 1.823529 5.308596 -1.840207 0.238405 -2.014772 0.346047 1.654272 -1.234936 2.304637 3.152485 -0.236003 3.712630 -2.647372 3.503140 1.246467 -0.907279 -0.331179 4.495162 -0.334766 -1.930844
be -0.369346 1.969763 1.985615 -0.653566 3.631002 -1.833060 1.243264 3.980024 -1.763070 -0.631392 3.510515 1.767626 -0.535952 -0.826493 1.561248 4.144508 0.960820 -2.074042 -1.672266 3.128224 -0.919848 -0.858230 -1.662995 2.583799 -3.063045 -0.502396 -1.262009 1.887496 -1.905149 3.504303 4.034365 0.687098 -4.745019 3.089568 3.500413 -1.141450 -2.687280 -2.686082 1.687462 0.620648 -2.618204 0.436449 -2.347654 -0.780381 -4.875959 -3.071946 -0.212790 -0.534738 -3.020213 -1.708559 1.030085 0.198554 -2.179001 -0.708959 0.090067 1.483754 0.482082 -0.642520 -4.656641 -0.067413 -1.861190 -2.746037 -0.526086 -5.698746
can 1.835236 1.660603 -0.884009 0.145935 0.924953 3.446510 1.827312 5.534774 -1.500583 -3.295358 1.836698 2.953192 -3.505127 4.689202 -0.055578 2.148648 1.055758 -0.932504 -0.149336 -0.379083 0.765062 -0.304884 -3.298904 1.346248 -1.584287 -2.733569 -1.605163 0.899566 0.481561 0.734807 1.049000 -5.170872 -1.426222 3.479697 -0.185035 0.975752 -2.081353 -2.010052 1.833869 -0.527078 -3.567591 5.096526 -2.434982 2.825021 -3.208124 0.271519 0.022583 -4.934233 -3.971416 -2.058787 -3.568084 -2.862809 -2.413798 -2.208353 3.584185 -1.198956 0.449961 -0.264083 -0.671267 2.836812 -1.011463 -2.099568 0.815049 2.229823
vector -0.020560 -1.379527 -0.784746 2.701978 1.730156 1.275463 -0.838035 3.572576 -1.655020 -0.932309 -0.249137 4.923187 -1.225546 0.781747 1.955163 -1.832761 0.908839 2.498055 -0.636275 2.797612 -2.129569 2.558915 -4.666292 -4.102886 1.126335 -2.984998 -0.938770 -2.710916 -0.847187 0.881209 -0.557524 -1.097383 -0.893628 2.843875 0.693940 -0.457122 0.731403 -2.897055 -0.078285 -0.485648 0.570027 0.765503 -2.955226 -4.736176 -5.360673 -0.270949 -1.286008 0.038177 -0.120644 0.885815 -3.374815 -0.105507 2.037523 -2.050959 -0.287124 1.234281 4.384602 1.894306 -2.248378 -2.616975 2.328813 -1.722003 4.102162 -3.296818
based -1.545914 1.858001 2.063288 -1.127959 2.689530 3.564531 -0.146088 -2.574488 -4.806216 -4.423143 -2.728256 -3.108778 -0.754387 2.286518 -0.152166 -0.574763 -1.021853 -1.109919 0.348441 -2.756781 2.134656 -1.288038 2.529462 2.917178 -0.061207 1.909834 3.148397 -0.361144 1.359025 -4.345944 -3.920827 0.819473 -2.523218 -2.847793 -0.220156 1.251740 -4.398966 -1.490801 3.356083 -0.339487 -1.605399 -2.917040 2.645577 -0.311275 0.341224 0.826389 -0.597154 0.796986 -1.539734 1.761602 2.840456 -2.634250 -1.926577 -2.325456 4.749236 0.293666 2.503886 0.716590 2.232145 -1.890817 4.097838 0.898104 -3.871949 -2.272583
new 0.710640 0.325063 -0.536919 -1.359550 0.232832 2.031347 -3.491360 -2.864558 -1.177178 0.030250 -2.388271 -0.318246 0.707491 -1.053733 -3.559158 -1.659760 -4.028186 1.461893 -1.091838 -1.440641 -0.339017 0.225086 -1.133319 1.075769 0.999293 3.891522 -0.772615 0.055932 2.536179 -1.071884 -0.146611 -0.046499 -1.155096 0.007522 -1.347299 -0.371220 1.998352 0.141949 -2.755006 -2.134300 -1.735195 -2.594426 -1.468088 0.988134 -1.151037 -1.805196 0.628512 -0.844521 0.879208 -3.033193 0.284224 0.300420 -2.632406 -3.005843 -0.237797 -1.383011 -0.872935 -0.174979 -1.074332 0.612536 -0.664721 -0.030889 2.296659 -1.182546
term -0.056365 0.814843 1.939121 -0.013487 -0.963101 -2.739932 2.128841 -3.244179 2.820911 0.784258 -0.120461 -5.961056 -4.537875 4.116609 -0.435040 -3.662100 -2.939478 -0.436786 -0.994118 -0.142807 2.429886 1.824875 -0.229514 -2.513473 1.655069 0.205813 0.934162 -4.427866 -0.300121 1.297398 3.111040 6.524477 1.435351 1.996715 -3.511234 0.808589 1.382332 0.108030 1.770954 -1.690027 3.452435 0.145229 1.814461 2.180327 -3.152612 -0.629795 -2.478971 -1.016171 -1.911831 2.158095 1.225673 -0.115194 -2.256397 -0.856910 -1.933976 2.072640 -0.606106 0.951930 -2.190111 1.403615 0.051338 -3.801174 0.479724 -0.786560
paper 1.908398 1.420280 3.288615 2.032850 3.396071 -2.402647 4.972244 1.569185 0.169450 -3.196242 2.235490 1.100642 2.033591 0.594874 -4.079494 -0.748980 1.164958 -2.521766 -2.507340 0.778131 1.325364 1.084987 1.438740 1.327752 1.318951 4.619996 0.050996 -1.524831 -2.069824 -1.219736 -1.193658 0.325042 0.572531 -1.259567 -0.882921 0.494022 -0.501202 -0.060479 -0.629017 2.067497 3.231191 1.971868 0.586612 0.573587 1.502482 3.429089 -1.156063 -1.503524 -0.290853 2.155220 2.849526 0.633873 2.670944 0.968374 -1.161577 -1.619843 0.044448 -2.458374 2.595832 -3.104165 1.521623 -0.698276 3.646566 2.018359
have 1.124088 -2.543957 0.300882 -1.609787 -3.650956 -0.889548 2.938830 3.442652 2.189651 0.326586 2.785496 -4.526840 -3.366692 4.413079 -1.662265 0.192016 -3.108018 -0.122232 0.107630 1.719742 0.510925 -0.209936 0.003514 -0.264882 0.632298 -0.174980 1.092897 0.287929 0.459153 0.971326 2.911385 7.824759 0.614047 0.531706 -3.286495 -0.429982 1.976395 0.767755 2.170846 0.451965 -1.544479 2.570841 1.433057 0.491219 1.211636 1.067721 -1.016088 -2.176545 -4.796576 -1.758320 0.422069 0.680395 -2.311123 2.104084 0.778041 4.322067 -1.048102 -1.322497 3.089691 0.146691 3.304514 3.017722 -4.067081 -0.745539
3 -2.430919 0.369990 -1.726894 0.471083 4.242438 -3.139250 1.667611 -2.874373 -1.324029 0.649641 1.282050 1.053308 0.063638 0.020968 2.148452 2.110670 2.176969 -1.144199 -0.809190 -3.172023 1.289628 2.237415 1.111933 3.447622 -2.383119 0.707295 -2.195519 -3.633926 3.361021 3.951949 1.565006 -0.686430 0.703713 -3.619334 -2.623298 -4.586841 1.942961 2.042550 2.828414 3.215422 -0.828489 -2.121760 -2.459016 -1.398187 -0.529463 1.876679 -2.726501 0.498037 4.201365 -1.956225 -2.535186 -1.443357 -2.049398 4.383921 -2.221717 4.272169 0.643989 -3.478952 -0.186630 5.141072 -1.157086 0.577119 0.262534 1.672985
by 0.762583 -1.452638 -1.809251 0.120104 -2.283386 -1.140067 -4.565053 -1.896529 -0.843665 -0.364216 0.052240 -1.247419 -1.009684 -0.771815 -0.159272 0.585674 0.406298 1.562948 -2.259886 1.492854 -0.096830 -1.282502 2.316052 -0.732264 -1.992757 2.661159 5.230477 0.210062 -0.832033 3.029151 -2.482012 -1.914689 -1.983889 -1.746115 1.072557 -2.166260 -5.458772 0.215875 -1.453187 0.003361 0.906040 1.055899 2.553847 0.752740 -3.465609 -2.800451 -2.644276 -0.192277 -2.392280 3.835966 -0.938933 -1.869909 -1.412033 -3.619684 1.464056 -3.823000 2.124424 -1.291754 3.887564 2.459006 -2.891809 -1.980276 -1.747247 -4.319369
popular 0.978032 -2.035410 3.277908 1.657280 -2.295060 6.164383 -0.704067 -3.232725 2.941967 -2.708976 1.902819 0.851850 -0.245318 1.943412 -0.233643 -3.475066 -0.607976 1.956957 1.437575 1.165174 -0.444319 0.812760 -2.977623 -0.003698 -2.192424 4.331961 1.418224 1.650842 2.525420 0.412424 1.702384 -2.038486 -4.567474 -0.327949 -0.568689 1.296540 -0.882202 2.939502 1.743002 -1.009565 0.151939 -3.958879 1.873819 -2.016191 0.668916 3.016402 -0.874685 -0.608795 0.181112 2.867659 -4.459200 -1.858406 2.254213 2.638786 0.924977 1.161409 -2.800395 -0.782276 -1.970153 -1.991550 0.639000 1.639241 -0.904591 -1.057429
novel 1.966288 2.267149 -6.428421 -5.294329 1.236521 -1.712602 -0.199202 -1.267344 2.011885 -1.983055 -0.419572 1.735795 0.429603 0.135322 -0.583805 -2.470876 -2.513871 0.965875 4.418458 0.804527 0.932826 1.941986 1.000392 0.153192 4.781332 1.358160 -0.781179 0.726807 1.435496 1.823014 -2.096586 -2.375924 -3.628232 -1.374939 -3.809527 -0.381893 2.693032 -1.120468 -1.662500 0.863389 0.713534 -1.299448 -1.651288 0.936885 1.632752 -3.484883 -1.159354 -2.243667 0.778490 0.473081 1.955132 -3.337779 -0.685843 -2.725589 0.882722 -3.447571 0.681062 -0.440552 -0.566143 -0.976493 -2.372902 0.130453 -2.626521 -0.274631
information 0.505747 -1.167892 2.315668 -1.105623 3.820691 -2.567913 1.785924 -3.544623 4.950222 0.437074 3.789564 -3.036719 0.669901 1.776169 1.537960 -0.854770 1.729736 -0.197940 1.195378 -1.455321 0.849445 2.298270 5.102948 -0.755250 -0.969666 -3.623457 -0.770679 1.522325 -0.135644 -1.920405 0.864269 1.316972 3.096401 -0.112028 1.046080 -0.528475 0.242080 -1.309308 3.938648 -4.294930 4.374708 0.333639 -0.778848 0.736357 -3.061453 3.060636 -3.293675 -2.192010 -0.880042 0.981269 2.611978 4.206585 0.661469 1.934413 2.204037 -2.668220 -1.592758 -1.073695 -2.962867 -1.457519 0.129922 -3.471958 0.699616 -3.276039
which -1.360539 2.533361 -1.372465 -0.318186 5.045703 -0.753320 -2.327957 6.149322 1.027541 -4.519382 -0.133293 0.502212 0.890207 2.953273 3.550188 -1.142696 -2.985221 -1.011119 0.478431 -1.624152 -2.808404 1.930476 -1.575323 0.777527 -1.797777 2.696955 2.826713 0.708606 0.988452 4.040389 2.227700 -4.404215 -3.540167 1.918546 0.438948 0.958764 3.018050 -1.246323 -0.415939 0.237751 -0.017381 -1.393419 -1.356445 -2.253222 -2.199790 -0.907377 2.611864 -0.947020 -1.500844 0.942827 1.436177 -0.034252 -2.302413 -0.576305 0.644732 -1.036281 1.615313 0.602724 -0.724739 -1.855375 2.819930 -1.326470 1.385377 -0.737503
learning -1.552188 -0.229313 -0.077765 -2.844540 1.974801 5.843853 1.739331 -1.989011 -1.509961 -2.733204 -1.953519 -1.313458 -0.723090 -0.947653 -0.562902 0.900240 3.976277 3.451807 -2.404160 0.187128 3.362280 0.935738 2.335350 2.344195 4.199260 -0.640944 2.284814 1.072447 -1.983716 -3.216490 0.337476 -0.189480 1.808436 1.944141 4.923506 0.148073 -3.303205 -1.274538 -2.171242 0.553628 -0.613307 -1.193724 2.159682 -1.094931 2.347358 -0.536369 -0.723378 -1.561994 1.099677 3.325606 0.549323 -2.025412 0.887818 -2.342544 3.071293 4.092748 1.670353 -0.637114 -0.877491 1.569046 1.838122 -1.579268 -2.407695 -2.326688
only -1.678330 -1.276152 2.440742 0.947761 -0.136615 1.476086 -3.291010 -1.289803 1.533989 -2.449201 1.893689 -0.715603 1.733456 2.243303 -4.969286 0.825907 -1.566474 1.937576 0.718458 -2.118321 -2.077994 0.718275 3.399712 -0.401178 -1.035451 0.385135 -2.318089 0.281728 1.431164 -1.624578 -2.888042 -0.282742 -3.601920 2.430130 2.775588 -1.916945 7.008187 0.642396 1.211860 3.949697 -0.154470 2.302641 -1.752819 2.992596 2.063726 -3.057879 -1.663624 -3.751547 -2.300570 0.274148 0.034230 1.146014 1.236737 0.367693 -0.014464 -3.112684 -1.450606 -0.055224 -1.766474 -3.546663 -0.121052 1.054094 2.628967 0.869717
our -2.004134 -1.015890 1.967982 3.100665 -0.426670 2.311318 -3.523792 -5.509457 -0.766522 1.001935 0.662367 3.878661 -0.389675 -2.412663 -0.255416 -1.047664 -1.606033 -0.404682 -3.212166 -3.277898 -0.305943 0.251478 1.983919 2.352319 2.136780 -0.717553 0.469052 4.251535 2.664279 -3.107163 -0.729290 2.297070 1.929519 2.469821 -1.752886 1.605613 3.868736 -3.494246 2.093604 0.406745 -1.862450 2.129300 -0.077687 0.271623 -2.359983 -3.850195 -2.211879 0.964616 1.248846 -1.687114 0.504823 2.520453 -0.994237 -4.268250 0.504365 0.045542 3.202729 0.024289 0.212694 -5.292121 -1.483368 3.373304 0.457606 -0.901678
labels -0.306005 -0.672868 2.830456 0.666104 -1.400896 0.638777 1.653830 2.859153 -0.436189 0.736383 2.949693 3.519238 2.202592 2.658709 0.241509 -3.804198 5.426669 -0.558921 3.390661 0.643487 -1.901461 -1.052937 -0.807961 -1.580560 -2.218075 3.102278 -1.945294 1.650284 0.113999 -1.820875 0.970670 -2.410969 0.032722 -0.125259 -1.993325 0.971337 -1.286665 1.738069 1.375341 -0.536084 0.186611 -5.902996 2.792818 -0.085660 1.822545 -0.152720 0.203311 4.595086 2.912491 -1.158343 -1.707395 -0.131717 -3.128572 2.760572 -0.601841 2.946576 -3.334313 -2.661213 -4.594022 -0.465365 -2.444590 2.813483 -1.599655 -2.868921
recent -1.010651 -2.268754 3.594640 0.258360 -0.177839 -1.989349 -0.414089 2.219669 -0.385162 0.481259 2.061537 -1.376984 -0.510207 0.648012 -6.310166 0.516369 0.685448 2.880344 -0.036735 0.198301 -2.061195 0.999500 2.702286 0.438756 -1.035994 -3.354912 0.510844 2.562209 -0.742317 0.429664 0.898489 4.704935 -2.794786 0.450181 -1.613005 -2.190639 5.301099 3.467228 2.127692 1.711423 -1.018971 2.831608 0.970418 -1.476664 1.782537 1.325225 -2.625396 -3.587978 -0.340544 -3.630764 0.240881 7.162045 -2.297776 -2.638986 1.281342 1.002428 -2.678606 0.256256 3.333536 -4.207724 0.312280 2.440983 0.054559 -2.751107
other 0.701626 0.282883 1.920918 0.283410 2.967206 -1.607747 1.023182 2.537525 3.548154 -0.600267 -3.050495 -2.864368 -0.412988 3.868238 1.327440 -1.866862 -1.763400 -0.265027 -2.422441 -3.413244 2.632944 -0.285041 0.606790 -2.261976 -4.500263 -1.134217 -1.109637 1.665075 -0.587519 -0.691891 3.280728 3.952614 1.919683 -1.164305 -1.656356 0.914536 0.728970 -0.140580 2.003045 -3.038603 3.896598 -2.918665 2.456485 -0.544423 -3.364302 0.152091 0.492164 0.371855 0.691107 4.499324 2.673547 -2.154584 2.851867 -0.514728 -1.150998 -2.008311 -0.645627 -0.134205 -0.345546 -0.475550 -0.408361 -2.603899 3.125307 -0.137034
category 1.222906 -1.451526 0.939939 -2.939250 0.766537 -0.293296 -0.093929 1.249710 -3.260467 3.010346 4.937728 0.223787 0.209136 -1.052701 1.719401 -2.883582 1.907650 5.126460 -0.695550 -3.200207 0.662467 -1.167387 0.887165 -3.041267 -0.202693 0.261666 -2.703125 0.411548 3.981585 2.572354 -2.697325 -3.016915 -2.912272 1.130238 -0.057449 2.314278 -2.166327 -0.918727 0.729729 0.308904 -0.401010 -4.003330 1.927012 1.989594 -0.795930 -0.891934 -0.700401 5.464205 -2.777544 0.172657 0.792348 2.296124 1.246617 0.205271 -0.068024 1.662177 -2.884958 -1.115830 -1.722017 0.338746 -4.197655 1.922882 0.952828 2.842945
most 2.554125 -0.426799 2.241053 2.370500 -0.364404 -0.065894 0.714473 0.868113 -1.162555 3.148262 1.014651 0.718132 -1.747131 0.985727 3.154067 -4.226357 1.669173 4.374414 -0.667039 0.537205 6.135462 -1.025193 0.505201 -2.962748 -3.768389 2.794649 0.658156 1.632946 1.340263 1.603017 -1.122934 -0.683065 -2.111571 -1.288695 -4.974164 4.060763 -2.740109 0.575144 -1.423051 -3.000290 -3.728806 0.047087 -1.603902 -0.098291 -1.430061 -1.727008 -0.358083 1.435629 2.169063 0.771160 -0.969643 3.644438 0.171870 0.251381 -5.364440 -1.199065 -2.439258 -2.283332 -1.657442 -1.512663 0.963761 3.671457 -2.138925 2.788573
corresponding -3.498080 2.093451 -2.533541 -0.434971 -2.343296 1.211532 1.860548 3.035324 3.393481 -1.216029 0.944179 -1.147791 -4.630641 -2.651809 -2.901805 3.470783 -2.863798 4.818597 1.719931 0.943414 -2.158884 -2.267724 -4.299563 -2.885158 0.763674 0.264533 -2.031937 2.699172 1.701405 -0.848985 -1.703890 -5.494148 0.833970 1.180547 -2.497217 -0.730098 -1.178808 -0.595392 -2.233358 0.153909 0.196822 -1.806196 -3.647103 0.857593 -3.380535 0.564452 -3.397911 0.449068 0.698569 -0.641131 0.461920 -1.789965 -0.906572 -0.772595 2.414830 1.947971 0.576723 -2.702996 2.982044 1.062389 -2.060646 -1.063231 2.135343 -2.216351
9 0.842879 0.491735 5.204583 0.062345 2.953503 -2.227507 -0.635511 -2.561197 0.513450 -0.473880 0.297128 -0.874521 -2.038308 -3.053851 -4.851807 -0.552815 -3.347734 1.369227 -1.769392 -4.416959 0.959377 2.487281 1.725097 -0.213702 -1.061400 -3.801749 -1.845485 -0.700184 -2.269937 4.143332 2.480149 -3.995604 1.106261 1.434911 3.736492 1.786230 -2.309158 -0.975118 -0.081463 -0.730332 0.705361 2.646304 -0.247411 -1.174215 3.946914 1.389694 -2.676921 -3.499695 2.985431 2.351872 2.012438 -1.041873 -2.999009 1.914136 -2.661286 -0.744948 -3.993934 -5.192845 1.331673 -2.109328 -0.003440 4.129795 -1.238389 -1.132061
than 6.106237 -2.211433 1.090345 2.618737 -1.251544 2.204353 0.714920 1.125891 2.869415 -1.439962 1.898754 -4.879109 -2.415335 3.786715 0.404930 -0.207638 0.183402 0.617333 -2.079736 -1.054054 2.234500 4.389157 0.320864 0.986830 1.360867 -1.374140 -0.086172 -1.769245 -1.341041 -3.198585 0.915437 -0.476908 3.307334 -5.081104 1.210065 0.017934 5.067452 1.040532 1.643572 -2.444340 3.637276 0.016952 2.054884 2.750994 -2.829480 2.607462 2.721424 1.477333 -0.259672 1.388740 -1.157361 -1.914427 -1.402022 2.333929 -2.043697 -1.432697 -0.203289 3.073236 0.410820 2.296176 -1.534002 0.670485 1.855195 -1.257882
these 2.799499 -0.243098 2.881999 -1.435210 -0.011973 -0.340439 -2.406140 -2.283501 -0.161237 1.044433 1.942584 -3.465147 0.024718 5.023520 1.496207 2.327261 2.214234 1.969953 -1.613145 1.693404 1.590364 0.457350 -2.256775 0.340627 2.052197 -4.617437 -1.119899 2.756522 -2.392894 1.463431 -1.220655 -7.306540 3.626906 0.277593 0.319254 -1.656819 4.210120 2.523476 0.273713 -2.079985 -0.618828 1.629308 4.473825 0.196006 -4.872071 0.489834 2.435616 -0.276156 -0.309625 -3.107704 3.687447 2.127722 1.518495 5.564739 0.656750 -1.879893 -0.323122 -2.162458 1.626472 3.108983 1.805954 -1.743278 -1.771781 -0.435854
automatically -1.584819 -1.205889 2.829818 -0.928424 0.044801 -1.388068 1.121230 2.852479 -1.057666 -0.738480 0.262940 3.577351 -2.456498 1.360183 3.621683 -0.810112 -1.803825 -2.183122 -0.606945 -0.177162 1.069022 -2.607400 0.150300 3.343776 0.612147 -5.249111 2.399529 -0.918978 -1.333785 0.793552 -2.312291 -4.670465 0.290213 2.722591 0.030412 0.054460 1.394243 -0.160975 1.528455 -0.457305 -0.186366 -0.337980 3.399590 0.432864 0.665457 0.456525 2.051967 2.435656 -0.874210 -0.200074 -0.563323 -2.700590 3.498584 -0.836080 -0.444392 -1.438133 -2.320705 2.928938 1.889882 -0.007815 4.068287 0.315954 2.792602 0.917807
graph 3.487714 1.449760 -2.549724 -1.183939 -1.504656 -0.519594 0.607810 1.062774 1.970095 -1.550948 2.676701 -4.121531 -2.615858 2.487112 -1.061969 -0.629561 -2.555270 -1.346706 -1.110309 -1.622515 -1.770259 1.802209 -0.583757 1.460155 5.971041 5.599320 2.645964 -3.771213 -2.538848 -0.710741 0.863728 -0.228843 0.475831 0.136627 -0.081247 -1.239321 3.156109 0.730099 -2.757329 -0.718721 1.250282 -3.195424 -2.411082 1.958764 0.322635 -1.239314 -3.130981 -1.163484 0.244784 2.143608 -0.804363 0.889280 0.060351 -0.184272 -0.578006 -1.827170 3.070704 0.279021 -1.096686 -1.860835 -3.700439 -0.207793 2.275256 -0.362551
large -0.897267 -1.604216 -2.406596 2.971695 -2.900022 -2.206091 2.631698 -1.627934 -1.995085 1.584790 -2.146712 -2.031018 2.593602 0.990996 3.886640 2.204832 -1.488542 2.352844 -3.773368 1.904341 -0.094719 2.915046 -2.913238 -4.473664 2.252249 1.615611 -0.131195 3.025279 -3.658966 0.216334 0.686425 -1.420344 0.393965 -1.358139 -1.021111 -0.299242 1.105346 -2.218884 -1.482197 4.229589 -0.147232 -2.874595 -1.135003 1.449966 2.933424 -2.462674 -3.062358 -2.627720 4.627431 -1.463618 1.788013 -1.059622 2.116978 -3.218245 0.098749 -1.462070 -2.485092 1.908710 1.703618 -1.125016 1.648217 -1.250992 -0.630923 -4.641551
for -1.915563 -0.216897 3.584901 -1.660526 -1.032399 -0.953166 -3.910766 0.288105 3.700470 -1.626384 2.767816 1.876662 1.808550 0.067415 -1.821728 -0.459419 1.219211 0.938154 1.015182 0.576683 1.270682 2.266941 -0.810132 1.537718 2.085371 0.892045 0.901782 -5.634171 5.497560 1.338614 0.543824 0.438223 0.746985 1.012361 0.239706 -2.060864 1.219631 -1.609821 0.074489 -2.341248 -3.359364 -4.224343 -3.823097 0.831974 1.769856 0.392595 3.435820 -3.180753 2.474107 -1.696820 2.282661 0.580337 0.247505 -4.304800 -2.289262 -3.280070 -0.083626 2.153727 -0.471339 -0.371289 0.756402 -0.764803 -3.325951 0.574224
all -3.460775 -3.614637 1.353061 -1.271353 -1.061956 3.026676 2.572750 -2.399634 5.118244 -1.293550 0.520061 1.893691 1.692268 -0.705082 3.405062 3.403457 -1.009797 -1.454087 3.741981 0.231732 0.510697 -1.780002 0.613795 -2.662955 2.514624 -7.620380 1.472093 0.428526 -3.874269 -3.141855 -0.532025 -2.293708 1.271602 -0.237163 -2.781477 -1.579146 -2.112693 -0.150493 -0.234024 -2.731492 -0.057912 0.417782 -1.500743 0.524020 -2.467355 0.729513 1.190847 0.472724 -2.161268 0.683988 2.406497 2.447513 0.056698 2.520879 -1.117405 -1.934713 -2.195982 2.874635 -2.820706 -1.726507 -0.933745 -0.801508 -0.118456 -1.793578
collection 0.064421 -0.003649 -0.188672 -0.802021 0.585355 -0.076920 -1.064511 0.678567 -1.228646 -0.179753 -2.206220 1.981569 1.154229 -1.831836 0.097638 -1.003807 -1.758001 -0.325167 0.758673 0.095898 1.087176 -1.393418 -0.671723 0.766437 -0.552061 -0.109469 1.741784 -1.108822 -0.482143 0.604883 -0.397485 -0.534591 2.350160 0.120922 -0.945139 0.477061 -0.552285 0.629533 -3.639174 -0.097957 -0.136340 -2.697873 -0.310988 1.093151 0.288710 0.718155 0.999309 1.123488 -0.059755 -1.418726 -0.435230 -1.290712 1.907344 -0.840153 1.255193 -1.448406 -1.422324 1.639921 3.489675 -1.720811 0.574737 -4.160406 0.583513 -0.951100
then -3.823231 1.323121 0.933119 1.862899 -3.980610 1.725793 3.190916 -0.812881 4.823657 -0.630069 -1.321933 -1.511601 -0.341909 -4.325817 -0.851058 4.125837 -1.323689 2.719351 5.797795 -1.821319 0.841426 -3.052671 -4.024786 -2.339430 5.083631 -0.903223 0.463897 2.554883 0.038680 1.862621 -0.726492 -2.152633 0.378759 -0.080924 -2.682292 -2.510439 -1.213861 0.808437 -4.050925 1.436041 2.024003 -0.042997 -2.959184 -2.157408 -1.420981 -1.717341 0.395556 0.894120 -1.171849 0.099876 3.129016 1.872718 2.355900 0.921823 2.528461 0.229060 0.504019 1.092614 -0.608433 1.048191 -2.057400 -0.182160 0.764964 -4.275058
become -1.891350 2.143088 0.755589 0.213592 3.942685 1.972784 -4.786287 3.245971 8.121559 1.025873 1.989999 -1.756751 0.609809 -0.663098 0.162768 -3.089369 -1.560822 -0.888782 -2.097070 3.009829 -0.097189 2.553413 -2.556882 0.027813 2.526772 -1.177899 -1.986022 -1.427044 -2.421349 2.938083 -2.466825 3.422925 0.017190 -1.514338 0.144392 0.567823 -5.911990 -0.594196 -2.573560 -0.268232 -1.790508 1.570016 1.845331 2.437780 2.685152 -1.830628 1.687545 3.018479 2.115014 -1.924626 2.104834 -1.745076 1.503509 -1.947476 0.664168 3.017295 -1.833359 3.104067 2.142688 -3.251920 1.148513 0.174105 -4.382029 3.262949
on 0.698206 -0.437925 1.569592 3.180520 -1.970683 1.736530 1.130707 -0.015872 -0.910199 -1.280838 -6.277987 0.274501 0.186957 3.321690 0.469857 2.633972 0.826493 -0.505863 -0.030178 -1.218405 -0.262139 2.098382 2.276062 3.873869 -1.465800 -0.429885 -1.482545 -2.328328 0.033807 -0.942349 -6.435519 1.626909 -1.086495 -1.858653 2.339806 1.088451 -2.811723 2.351553 -0.073813 0.275058 0.423546 -2.763197 -2.290677 -1.100145 -3.654974 1.704509 -2.889652 1.184842 0.618346 -0.285673 3.347143 -1.657407 -0.526246 -1.961343 -4.271545 2.246764 2.993741 -1.141247 0.291645 1.815709 3.462960 1.777316 0.450542 0.119551
experimental -2.464157 1.412600 1.400503 0.192125 2.857813 0.513103 -1.595129 -4.245303 -0.285385 -1.127950 -0.108054 0.484372 -3.214388 0.441106 0.297229 -2.281742 -4.402617 -0.678599 -0.759143 -2.095657 -1.803949 1.296310 1.734050 2.452551 1.890984 2.167639 1.280174 0.259096 2.507574 -2.873939 -4.773148 1.035241 -1.236413 -0.146997 -2.262595 0.407705 3.052631 -3.123075 4.548796 -1.286644 -5.387912 -1.957842 -2.770262 0.171627 -0.135024 -2.560419 0.582033 -1.123500 -2.498195 -0.280822 1.074616 0.970140 -2.768967 -3.281012 0.442969 -3.346432 5.036099 -2.913153 -3.327571 -2.062659 0.827333 1.048009 -2.587075 -0.323895
however 1.400165 -3.167976 -0.428540 1.515358 -2.965378 -1.630794 0.847145 -2.129567 -0.465349 -5.643136 -1.933846 0.082628 1.469578 -2.611603 -2.402423 0.876918 -1.217224 0.031765 1.250823 -0.393476 3.137306 3.973352 -0.376997 -4.613903 2.341627 -1.144698 1.511358 1.443623 0.360193 -0.373040 -0.337443 2.425997 -3.386975 2.320945 2.754815 2.051681 -0.250245 -0.356859 1.374876 -0.198376 0.407756 1.190109 3.202125 2.100008 0.168176 3.226245 3.120891 1.302735 3.917326 -0.641968 -1.691066 0.532969 -1.259725 0.133439 -0.594787 0.356694 0.317014 -4.169271 -1.024054 2.105943 -0.244609 -1.614176 1.146050 1.586411
results 1.548902 0.959556 -0.320189 2.696162 -0.623409 3.304407 -1.870769 -2.303388 -0.254896 -3.136544 -6.164876 0.457217 3.043898 3.402916 0.577280 -2.309907 -0.154276 -0.448666 -1.297361 -3.417166 -1.709123 -0.350774 1.172413 5.526525 0.659843 -0.336457 1.668182 1.881855 2.544402 -0.944843 -2.569406 -0.532005 1.527850 1.944868 2.346720 0.829629 -1.400814 -1.160785 0.390238 2.688566 -0.414695 -1.154872 0.858865 -3.294742 -2.274412 -2.168174 -1.268479 2.865816 -0.143193 -1.343899 5.031949 -2.292798 -0.516508 -2.867848 -2.471724 1.451661 5.415843 2.511090 -1.983083 -3.347398 -1.671020 4.127875 -0.490438 -0.488413
propose 0.051000 -0.442314 -0.280267 -1.209680 -2.039420 -1.998156 2.337390 -0.256567 -1.930228 1.667398 2.682742 -1.386233 2.807438 -2.407453 -0.449908 1.413417 1.280647 -2.016830 -0.103311 -0.441052 -1.694464 1.649060 -0.825550 0.767394 6.135406 6.686552 2.078485 0.083116 -5.344113 1.090047 -1.402330 -0.109956 2.613876 -0.415982 -0.790059 0.079025 -2.030967 -0.197591 -2.255315 0.867982 2.313864 -1.966188 -4.827666 -0.433291 2.929346 0.267284 -1.774077 -1.553488 1.696974 0.418588 -1.018646 -0.382154 0.942944 -0.321210 2.125162 -0.050250 2.404087 -1.017580 1.245031 -1.079429 -6.444898 -1.996839 1.016399 2.440525
number -2.306592 -1.521268 -2.909433 -1.429645 -4.298518 0.290939 -1.183556 -2.241055 -0.386816 -0.706456 -2.510399 -1.191915 -0.754547 -2.300083 3.971587 -0.189297 -0.401615 -0.132430 0.104585 2.266565 -0.713643 1.197621 1.012227 1.547858 0.039898 -0.618166 0.973613 -1.171349 -2.164317 -3.609105 -0.269986 -2.184809 0.776761 2.401662 -2.071934 2.209439 -1.314853 -1.496655 -3.167785 -0.196384 2.120213 0.364496 -2.771622 -2.148568 1.431936 -1.137371 0.047010 -1.561329 -0.077758 -3.706509 -1.662690 -0.092957 0.208182 0.149876 2.224788 0.105131 -3.971971 0.866857 3.243587 0.751523 -2.481778 -3.241781 0.612116 -3.250952
among -1.413817 1.088031 0.332190 2.237973 -2.206461 3.674053 3.574536 -1.524073 -1.422401 2.981107 2.108420 4.287571 -0.025630 2.033021 -2.039604 1.441846 0.869648 -2.115704 0.738164 -1.522962 -1.531629 -1.722102 0.896269 -0.753150 0.596097 -5.185601 0.097729 4.331567 1.853848 -2.871586 2.189671 3.598413 -2.976433 -0.516866 -0.182392 -1.708483 2.474421 1.135139 0.579803 1.721737 2.750823 0.418728 -1.483112 1.665672 -0.346003 -4.797234 2.800198 -1.441644 -5.478615 2.826378 2.145949 0.190185 -0.318807 -1.538080 -0.084668 1.199806 -1.792082 -3.430459 5.060538 0.145518 -1.966991 5.352582 3.507493 1.918315
data 3.459461 -1.064129 1.124547 1.525827 2.491253 -1.507313 -3.188378 -0.311156 1.498062 2.489413 1.814023 -0.046834 1.558341 1.172223 -7.512878 1.450972 -0.698378 0.882323 -1.525295 0.472930 -0.722652 5.030669 0.846518 0.452083 -0.533977 -2.372968 -0.874031 3.113685 3.834769 2.525929 -1.782337 0.475198 0.193414 1.856664 -0.908747 -3.335033 -3.594401 -4.023373 -1.819875 0.522658 0.706161 -0.308602 -1.525161 -0.176620 5.785614 1.973625 2.103663 -2.676749 0.833154 2.991797 0.574693 3.575463 0.831568 0.565945 -0.372926 -1.277107 -0.361996 1.900494 -2.424731 1.529934 0.910627 -0.769486 -1.481351 -0.388426
14 2.194742 2.674638 0.754004 2.035745 0.350309 -3.953163 0.161670 0.298687 -0.731071 -0.932491 1.599292 -1.632179 -1.269714 -2.746876 1.039922 4.451456 -1.093924 -0.769264 -1.219997 3.923298 1.159575 -0.670959 -0.866803 1.946338 0.012307 -0.356853 -4.669309 2.546322 1.651173 1.043754 1.063122 -2.667361 -0.269770 -2.656111 2.366040 2.089924 -2.203152 0.188555 1.680286 1.177960 -0.083951 1.531173 -1.311043 -0.536406 -1.850121 -4.054165 1.681272 1.238248 -5.168641 -0.899328 -3.622507 0.374884 -1.472132 -0.070477 -0.241406 3.145270 2.839201 1.088404 -3.987198 -2.567367 1.629162 -3.188477 0.212472 1.116393
17 2.732324 0.654109 2.633921 1.091183 0.411681 -3.313563 -0.642334 0.662220 -1.791578 -0.199849 0.892683 -0.736085 -4.707084 -2.982795 1.320138 4.422636 -1.902940 -1.028510 -1.384853 2.629825 2.251474 -1.415281 0.719943 0.929443 1.082070 2.322453 -3.045475 2.452827 1.295756 -0.343181 0.801692 0.148267 -1.407806 -2.982297 0.659872 -1.312371 -3.229062 -0.218397 1.591426 1.099738 0.366898 1.717732 -0.033507 -3.440014 -1.648589 -2.251406 2.749208 -0.034645 -3.003855 -0.139061 -3.541976 -0.970254 -2.571369 1.766234 3.502366 0.954551 0.773313 1.511987 -3.412580 -1.679190 1.629402 -0.563101 1.695042 2.965643
frequently -4.256312 5.069944 -1.472568 4.470188 -1.751834 1.129873 0.656322 0.216088 -1.345802 1.441823 -2.077682 -1.995414 4.003837 -1.966292 -0.160342 1.558054 1.148318 -1.742729 3.745377 1.594554 -1.671171 0.201444 0.046149 -0.866010 2.515520 0.870193 0.164044 2.454897 3.454655 2.359307 -2.618468 1.848446 -0.726413 4.685218 -0.096201 0.705182 4.657143 -1.061230 1.297467 -1.984995 0.968649 0.824516 -0.377908 1.177221 -1.116816 -1.247149 -1.307531 -0.669999 -1.010984 -0.570969 3.393371 3.199266 2.208657 1.464058 2.688993 3.122537 -1.359505 -0.087079 -2.155761 3.438002 0.187781 -0.380391 -1.367064 2.993744
approach -0.968913 1.015993 0.456892 1.453159 -0.963063 -2.565164 1.221934 -3.465497 1.272246 1.559206 -1.083542 1.035397 -3.304105 1.732160 0.795126 -1.368517 -1.560024 0.045449 0.370241 3.115020 0.597218 0.986282 0.701383 -2.324801 -0.135514 -0.836034 -2.022283 -5.841452 -1.137279 -1.394201 1.477940 2.790524 -1.746682 1.263148 0.264681 0.498209 -0.280277 0.327659 -0.965694 -2.405700 -0.843158 1.799472 3.324890 1.722768 -0.556442 1.034699 0.517655 -1.424481 -1.556040 0.222792 -0.398464 0.388686 -0.913658 0.214023 -2.335014 2.543252 -0.746893 2.346700 0.972284 -0.059355 -0.022225 -2.168596 2.504703 -0.670034
7 3.439113 1.255979 4.031273 0.152687 0.950865 -4.874015 -0.937611 2.603405 -3.978707 -2.040025 1.444251 0.606277 -2.888417 -2.137597 0.243376 4.473129 1.535354 -0.288217 -2.014510 2.847197 1.491133 -0.851044 -1.952098 2.841684 0.649770 0.488533 -2.249114 2.256837 -0.221949 0.008221 0.826584 0.928637 -3.872404 -0.287485 1.697706 -1.003562 -2.866985 0.444048 1.505500 -0.454122 -0.046732 1.563543 -0.578122 -3.712553 -1.882686 -2.347067 3.261329 -0.780303 -5.134049 -2.038995 -1.855230 -1.087665 -3.066049 1.219765 2.766599 1.857342 1.145123 1.404722 -3.800462 0.102065 -1.005570 -1.904143 0.185818 -1.153618
18 0.222790 -0.484188 1.938537 0.380770 -1.684983 -3.819543 -1.722529 -1.016898 -1.170787 -0.489928 1.633097 -0.828140 -0.050699 -1.757442 0.977119 5.197443 -1.731228 0.087093 -1.095898 1.906903 -0.113011 0.803273 0.342323 2.592586 2.520412 1.381179 -4.729429 2.921034 2.425459 0.365453 1.271917 0.199391 -0.604152 -3.822401 -0.309318 3.154906 -1.686832 0.240065 0.693455 0.920496 1.095962 -0.080509 2.048048 -1.831050 -2.415072 -1.216937 2.215015 1.194936 -4.709459 1.156726 -2.198920 -0.747051 -1.038657 1.037241 -0.964075 1.011313 2.390561 1.948151 -1.869065 -2.106532 0.729050 -1.634552 1.804185 2.062488
applied 2.895261 0.915813 -1.406494 2.633624 2.845497 -2.076878 1.533800 1.767321 0.507314 -0.397660 -0.674519 -0.033239 -1.670042 -1.272163 -0.044948 1.680984 0.780577 -1.443357 -1.618650 4.544657 1.068287 -1.154496 -2.682708 1.818929 -1.079294 0.616658 -3.780320 3.032804 -1.495334 2.188774 1.398995 -4.277424 -1.136870 -0.984546 2.126196 0.700716 -2.005888 0.546059 2.702844 1.572996 -1.141013 4.099903 -1.408521 1.009377 -1.150989 -5.170124 1.765737 2.432041 -4.755486 -2.424475 -6.302104 -1.126033 -3.642139 0.473399 0.950260 1.425872 2.843398 0.550742 -3.142099 -0.778784 1.140958 -2.150153 -1.130626 0.814517
style 1.030442 3.600806 -0.776230 -1.168402 0.990811 -3.275611 0.564212 -1.230117 -1.740696 -1.518695 -0.715714 1.065357 -0.052393 0.974246 3.839563 2.481333 0.404310 1.590559 2.301635 -4.224416 3.722743 1.592610 1.301332 4.317093 -2.909185 0.350258 -1.890999 -1.395416 0.847382 0.356375 -3.537710 1.346007 -0.505328 -2.316540 -0.481577 -5.217434 -0.634323 -0.086631 2.692987 0.077053 0.521940 0.197204 -2.706412 -2.133447 -0.120601 -0.461910 -1.865447 0.759353 2.066676 -1.839292 -0.509450 -0.104782 -1.865708 2.133743 -0.459203 4.637867 0.330244 -1.505403 -0.015745 1.931927 -0.728564 1.229401 -0.340946 1.257140
8 -0.768087 0.269687 -0.089376 1.773507 0.404815 -0.479387 0.457023 0.082100 -1.170646 1.145887 2.295823 -1.315523 -3.723173 -0.803997 2.436376 4.601407 -3.539047 -2.138237 0.008334 3.427208 4.768321 0.405185 2.165686 -3.387450 0.559760 2.876437 -2.859021 1.550375 2.460840 -1.565874 0.827999 -0.888003 -1.593637 -4.939186 2.059760 -0.361255 -1.530300 -0.598737 0.234063 0.240554 0.810752 0.065268 -1.257825 -2.340148 -1.875327 0.843967 2.213802 -1.226754 0.464933 3.222775 -0.992147 1.379266 0.303618 0.561617 1.189090 1.339122 0.358730 1.396550 -1.960112 -3.510613 1.933480 1.776524 0.508889 -0.341685
pagerank 0.532428 -0.639007 2.717263 -0.145010 -1.521442 1.166083 0.995777 0.772748 -0.500259 -2.081431 -4.341854 -2.309492 0.210698 1.293848 2.846414 2.397765 1.890735 0.085074 0.875609 -1.884955 -2.430912 0.564397 0.642060 3.604999 -0.189647 -0.967213 -3.401383 -1.296143 0.783465 -0.292654 -3.747066 1.081085 -1.592044 -1.487682 2.447865 -2.879187 -2.249295 0.211030 0.570593 3.029539 2.129811 -2.910224 -1.717312 0.700815 -0.304083 -0.638330 -3.626921 -0.294776 0.344409 -0.150149 -1.072756 1.277959 -1.851264 -0.305532 -3.722608 2.770399 1.254915 -1.871149 1.724003 1.858815 5.070109 1.175347 -0.206306 2.027126
preserving -0.577922 -2.032327 2.848256 0.402575 -0.914700 0.155950 -1.292286 -0.903709 0.579895 -1.950639 -1.216844 0.347491 0.575918 3.012172 -1.491303 2.240811 -0.706757 1.982656 0.002543 -0.617884 -2.035856 -2.418917 1.186608 -2.668876 -1.516807 -1.248319 -1.266634 -3.453888 -0.609221 -3.705972 -2.649746 -2.326969 -3.632122 0.453342 2.856999 -1.778479 2.127623 2.712649 0.615949 2.395036 1.811964 -0.137421 -2.341573 4.457559 3.853250 -2.582515 0.749699 -1.994414 -0.619747 -0.457078 -1.353864 1.416501 0.590711 0.351118 1.673775 -1.682143 -0.651868 0.369121 -1.295502 -3.085532 -0.364694 -1.643090 -1.312128 2.156063
fundamental 1.935183 0.003785 -1.921198 0.447140 -0.217691 2.418465 -2.610280 -1.191228 1.274141 0.880461 -2.237441 1.767734 -0.762081 2.815855 0.331616 0.792871 -0.839778 -2.378636 -0.584622 4.092740 0.463251 -2.599350 1.933001 -1.383760 -2.440298 -1.374833 -1.062950 -4.490346 -0.075780 -1.765583 0.481060 -3.120226 1.894432 2.166826 1.074393 -2.416578 1.940945 0.755299 0.944134 1.411276 0.605491 1.560695 -0.538405 -1.789074 2.856417 -3.688358 -1.361317 2.589704 -0.920060 1.648709 1.351488 -0.247299 2.819954 1.588402 5.678328 2.813788 -3.435728 0.302719 -2.006056 -2.987204 0.193705 -1.064600 1.065650 0.235144
algorithm 1.071443 -1.860163 1.330870 -3.530241 0.934298 0.787257 0.291303 -0.899606 -0.673630 -3.460384 -1.330296 -4.270873 2.039688 1.328876 4.138355 -0.644830 3.948029 0.857045 2.201885 -2.127858 -1.178260 -1.249266 -2.985246 1.475804 -1.632465 -1.016344 -3.199074 -0.585642 0.739585 0.825718 -0.577384 1.947828 -2.205723 -2.116722 1.266906 -6.106332 -2.948260 -3.345086 -1.253054 4.727308 1.284497 -0.503900 0.562776 1.361442 1.418079 -1.000894 -2.692850 -1.574059 1.439142 0.019836 -3.197631 4.049698 -0.775727 1.093352 -2.963323 3.346634 0.742035 -2.562179 2.566420 1.610370 2.098466 2.492293 2.159620 1.718886
related -1.509148 -1.710991 -3.603515 4.481810 0.762809 -2.850290 3.496848 0.601576 2.579700 -1.293989 1.705497 0.349044 -1.446006 -1.464017 -1.398941 -1.917126 0.882865 1.400889 -2.368472 0.746106 0.124340 -1.477774 -3.019887 2.029566 -0.012770 -1.486724 0.769720 -1.533948 3.673362 -1.679605 -0.394907 0.591616 3.112002 -3.207280 3.520359 0.390293 0.406040 -0.939817 0.422034 2.450006 -2.093451 -0.354876 0.701425 0.751018 1.049634 0.660808 -1.293958 -3.829314 -1.447483 1.706417 -0.567805 4.142454 -2.284026 3.359109 -1.750025 -0.901131 -2.510416 -1.898635 -1.736869 -0.270850 -0.087155 0.054419 -0.503378 0.917871
introduces -0.354748 0.098073 -2.185237 -2.351802 -2.437738 -2.111282 2.299642 -0.976308 -1.578302 -1.725683 -0.374445 -4.108218 1.777208 1.552158 0.431745 0.999421 0.539851 0.332165 -1.813017 1.381901 -0.006598 -0.388811 -0.154059 0.009215 -1.350206 -2.086059 -2.363344 0.507048 3.828507 2.734461 0.153128 1.326207 1.233287 -0.198287 0.141217 -2.032146 -1.078448 -0.868244 3.486946 2.016997 -3.111695 -1.223261 3.783778 -3.527876 2.557479 0.804214 -4.429393 -2.855602 -0.462127 -2.251079 -1.447745 1.012852 0.103461 1.399500 -1.869087 -4.887574 0.316572 -0.596789 -0.698466 -2.537965 -2.327963 0.115637 0.207548 4.822929
googles 1.715372 2.753959 -0.391902 -1.669034 -0.002258 1.160245 -1.671110 -1.508768 -1.082067 -2.630207 -2.448246 -0.168079 0.399858 2.622726 3.895530 0.607613 -0.972227 0.795036 1.943627 -4.666552 5.331699 1.491392 -1.561051 1.260268 -2.572923 0.444888 0.260415 -0.722209 -0.754864 -2.487030 -4.304743 3.256335 -4.834561 -1.190443 -0.826421 -0.385830 -4.200336 -3.812490 3.880488 -2.052997 2.972065 0.830803 0.143334 -0.751239 0.112586 0.619773 -2.486446 0.604245 1.008416 0.824270 2.243449 -0.031022 -2.848494 -0.109176 3.293305 4.275761 1.277574 -0.049547 3.505438 0.247034 3.210999 3.663883 0.520746 0.925317
weighting 1.978622 0.841600 0.314905 -1.047653 -1.736261 -2.514535 -0.547419 3.460846 3.314275 -1.663542 -2.865841 -0.608369 1.657994 0.776198 1.673253 -1.225181 -1.441783 1.770104 -3.409699 -3.789653 2.604615 -1.895721 -0.883688 -0.523537 -1.662090 -2.060850 -0.851578 1.453525 -1.788234 -3.313436 3.534898 2.547646 0.117899 -1.132775 -3.374471 -1.518164 -1.172287 1.591920 2.020845 -1.345969 2.184432 -2.134072 1.522404 -2.363114 -0.233968 -2.375148 1.709968 -0.373349 0.455132 2.348281 2.149745 -2.573068 0.956885 -1.580781 0.367720 -2.776487 -0.769498 -0.534312 -1.486755 0.101843 -2.294451 -1.445250 2.653587 0.535625
dont 0.419386 -1.443162 0.243594 0.053345 -1.374464 -1.871607 3.529950 0.313711 -2.817302 1.191080 -1.576691 0.492720 2.293142 0.613643 2.088812 -1.917565 -1.610375 2.833198 -0.142586 1.185892 -4.010102 1.248594 3.439390 -1.046154 2.686157 1.174188 4.005256 2.278508 4.250912 -1.594881 3.721578 0.722058 1.279909 -2.709670 -0.653424 -6.366395 -2.125923 -0.220109 0.492833 1.084995 3.177524 0.208480 -1.452007 2.322437 1.165872 0.650735 0.404148 1.963158 -1.869222 -0.371741 -1.376585 -2.502898 1.443797 -0.874399 2.336831 1.060834 3.024840 -2.790741 1.249751 1.560081 3.903888 0.932418 -3.525230 2.820889
take -4.522283 -0.503722 -4.172506 -2.345162 -3.127666 0.008865 -0.893003 0.133141 -2.229826 0.236205 -0.226352 0.529091 0.168042 0.736651 -1.979134 -2.223901 -3.337207 3.485900 0.378698 -2.236423 -2.015672 -0.312286 1.224239 1.734994 -0.619659 2.352370 0.743446 -0.110960 -1.715514 -5.323468 3.714347 -1.034153 3.479869 2.253482 3.421646 0.967699 -5.984057 0.284795 1.185380 1.704109 -0.281727 1.756242 0.807369 0.834484 -1.129596 -2.762086 2.580961 0.172643 0.973280 2.894840 -0.215741 1.435194 4.904037 1.484286 -0.141179 -0.382994 1.570010 0.133829 -0.877714 2.009445 1.418705 0.686503 -5.520272 0.746018
rich 0.947156 -1.706013 -3.974905 -0.596468 -1.123277 -0.743375 -3.792298 -1.527684 2.756427 -0.475136 -0.225998 0.621644 -0.264969 -0.810798 1.136207 -0.248250 1.281991 0.635969 0.246257 0.714019 -3.207639 -1.885375 1.566851 -0.962371 -2.931714 -4.552952 3.156454 1.473010 -3.092685 2.210296 -0.622290 1.574730 1.942526 0.384055 1.424871 -0.377322 0.924897 3.021179 -4.245889 -2.814029 1.886354 -0.932291 -1.278979 -1.402645 -1.064008 -2.732709 0.381003 -0.921170 -3.061198 -3.289453 0.273578 -1.330113 1.036435 -0.271477 -0.282730 1.904913 -1.752295 -0.239768 -2.520878 -1.955840 0.921681 0.834720 3.347114 3.277267
allow 2.071601 -0.315028 -0.206335 1.776612 -1.922239 3.841045 -1.528401 -0.935782 0.562428 -0.337923 2.192079 1.400162 0.260022 1.419477 -1.506153 -1.528686 -0.746843 -2.691328 -0.660945 1.270418 0.595054 -1.808180 1.875863 -2.903527 -3.645296 1.781514 -0.733848 -3.857057 2.247482 -0.501913 -2.997766 -0.270826 1.826844 0.641923 2.780382 -6.282992 5.741966 -2.731655 -1.149679 0.978055 1.275177 3.708640 0.861205 -3.256358 1.871031 -5.284796 0.042230 -0.639703 -0.459667 2.042530 4.533274 0.599315 -2.122678 -0.450247 2.694683 0.082633 -2.070289 -1.661615 -3.961466 -3.417761 0.607098 -1.736720 0.181877 2.417596
alternative 0.863679 2.473220 1.596697 0.831956 -1.942898 0.705513 1.357911 -0.860987 0.549933 -0.243191 1.998759 0.085271 1.095596 -0.263808 1.583656 0.534625 -3.191876 1.965830 -0.448722 -3.042425 1.445957 1.738369 0.826635 0.869062 -2.910389 0.550747 -0.635982 3.972407 -1.230370 -4.046942 3.605483 -1.950008 2.981144 1.072508 -1.325165 -2.544238 -0.424407 1.799445 -2.986453 -1.360364 1.618795 -0.708114 0.512815 2.067743 3.095192 -1.473366 -4.196996 0.417712 1.784833 -0.293315 0.786426 -4.777820 -1.539034 -2.032684 0.108013 0.532284 3.037922 1.956486 0.246687 1.637864 -1.718568 -4.093553 0.881713 -0.941976
provide -1.905766 -0.211454 -1.314150 2.369209 -2.261803 -0.173036 -2.921947 0.145107 1.330258 -0.636800 -0.401582 0.408726 -2.465012 -1.124536 -2.281821 1.592303 2.997249 0.255457 -3.011933 -1.495763 -1.235430 -2.036325 -0.089140 1.502524 -0.636729 -1.725929 -2.507373 2.234818 -2.802468 -2.066767 -1.973745 2.939888 -0.289358 0.794600 -0.831526 -0.933179 4.449574 -3.574500 -0.708540 -1.643758 0.233462 -1.831212 -1.391386 -1.904702 -0.396625 -1.068377 -1.864763 1.590162 -1.356999 0.121763 -3.581463 0.032874 2.402230 -0.463000 0.788245 0.259526 -0.481941 -0.958236 -0.096448 0.534971 1.008357 0.710342 -4.437098 4.204001
usually -1.507009 -2.251907 0.749067 -0.476442 -1.505197 -1.119646 -1.838745 -2.487147 -0.334244 0.335242 0.631295 0.773650 -0.633950 -1.060938 0.491788 3.340208 -2.321305 0.805652 -1.712332 1.596688 0.238555 2.677963 1.047184 1.115229 2.787579 2.925097 -4.278179 1.619259 1.463406 0.446826 1.731490 1.299165 -1.160292 -3.475979 -1.776512 4.898938 -1.820435 -0.756070 0.006807 0.658769 0.735999 -0.089608 3.782037 -2.432547 -4.105779 2.347165 2.833180 -0.027595 -2.571124 2.209632 -1.552965 -2.082606 -1.490587 0.965110 -2.033112 0.794865 0.829379 0.982778 -0.624072 -0.407620 0.528843 1.953485 4.730283 2.678194
subsequently -0.786639 -0.962083 -1.619421 0.465014 2.520037 0.524283 -0.829256 3.130584 -3.463579 0.090937 -2.041195 -1.542455 -4.309736 2.209831 0.752718 2.143627 1.609736 -2.708430 -0.578640 0.202170 0.636353 -2.075295 -3.477766 0.688106 0.057053 -1.032480 -1.885835 2.587201 -1.486618 2.586315 2.086142 -2.236385 -2.885486 1.742354 4.064772 -1.289662 -1.762394 2.343478 3.993812 -0.812779 3.722154 6.329181 -1.387224 0.834019 -0.238681 -3.343941 0.246521 -0.058937 0.851829 -2.976570 -6.244803 -2.131109 -3.212452 1.434845 0.687103 -3.300176 3.206370 3.010022 -4.148520 -0.581613 -2.157759 -0.199072 -3.214522 -1.602869
2 -0.906201 -0.997460 -3.658104 3.060157 2.934520 -2.720418 2.320376 -0.705894 -1.068599 -1.293279 0.349429 -2.136760 -0.943972 -2.471168 0.868074 -0.357935 2.880073 0.060582 -0.789540 0.974587 -1.060807 -3.114820 -3.502213 1.540399 -2.119044 -0.943354 1.509511 -0.700938 3.997869 -0.513961 1.737885 2.044923 4.494679 -4.502685 0.712893 -2.005778 0.130431 0.262275 0.277518 4.197088 -1.590390 -0.242727 -0.769513 0.543711 2.055084 1.892102 -2.531576 -4.210104 0.892538 -1.059817 2.039810 3.003883 -3.813635 3.924348 -1.765966 1.117187 -1.136128 -2.311054 -3.092464 -0.201512 -5.367423 1.061815 -0.495376 3.809198
repre 4.842821 -2.268781 -1.427852 -0.738617 0.943481 -0.953709 -1.174102 1.251124 -0.075781 -1.996976 0.333760 0.329410 -1.730746 -0.123210 1.270337 0.736422 1.305111 2.296756 -2.932022 1.493692 -0.902683 -0.667594 -2.316040 0.032952 -2.291268 1.026356 0.751324 1.852923 -2.232707 4.189134 0.192410 -3.832377 -2.451490 -0.234093 3.710070 -2.930401 -5.299818 0.457190 2.861676 -0.163391 -0.192933 5.026712 0.474644 0.418521 -1.807438 -5.456898 -0.642541 -0.216368 -5.980116 1.078013 -4.497057 -2.560467 -3.257879 -2.467189 2.395449 -1.853570 3.092341 0.875349 2.789783 0.080323 -3.296947 0.816407 -2.820711 -2.370150
active -2.613611 1.817997 3.460575 -1.055060 0.070450 -5.601264 -3.085212 1.430804 5.403717 -3.055160 0.757417 2.888941 -1.814810 0.826087 2.686108 0.390897 1.510109 0.974391 -1.363358 1.820811 1.771412 2.374063 1.415819 -1.985883 3.798656 -0.846132 -0.254216 -3.193664 3.731137 -0.146801 -0.058600 2.097605 -0.878600 -0.601308 -0.098752 -0.387771 -0.359826 -0.345393 -1.069153 0.465774 -4.044389 -0.877427 -2.017298 2.830450 0.704113 1.331315 2.101833 -0.762041 1.340199 -1.915234 3.865055 -4.274682 2.745712 -0.080463 -1.704846 0.763396 -1.670457 5.148265 1.192317 -1.714757 0.407501 -0.086591 -6.407837 1.829085
subfields 6.554810 2.484790 -0.640741 0.496028 5.078221 0.517335 -2.811842 -0.086351 2.244130 -0.531397 0.294238 1.629267 0.453441 2.380533 -4.540679 -0.952914 -0.574605 0.850063 -0.913207 0.115023 -4.608403 0.641181 -0.237557 -2.876916 -1.074653 -0.829731 0.555810 1.242217 2.283645 0.313324 -2.744894 2.815303 -1.907340 2.369866 -1.569155 -0.185462 -4.572309 -2.719754 -3.299980 -0.234510 3.573050 -3.433372 2.448140 0.253492 3.898429 -1.295131 2.156764 -4.341805 -1.031853 0.084351 -0.558704 1.589585 -0.508677 0.964121 -1.490989 -1.139796 1.596036 5.341094 0.104301 4.724925 -0.355817 0.287009 -3.375716 -1.020945
scheme 2.675622 1.538031 1.793988 4.371125 0.163106 0.677277 0.933097 1.162977 2.382124 -0.891312 2.952297 -0.520145 0.194969 2.228527 2.555980 2.432592 -2.550102 1.528484 -1.437294 -3.389063 3.516888 0.181819 1.671406 1.121236 -3.246835 -1.025257 0.908858 2.400813 -1.634850 -4.804981 2.227497 -0.354842 3.261969 -4.762645 1.269916 1.140486 3.521513 1.030818 1.552235 0.290231 3.739270 -2.459569 3.134569 1.841939 0.482228 3.286020 2.246710 0.765254 1.203361 -0.090328 -2.009343 -4.172495 -2.339476 -1.374066 -1.710136 0.730379 3.219733 2.965023 0.486802 3.012218 -3.414689 -3.725758 1.082500 1.514566
works 2.515244 1.156947 -0.807847 2.206750 -1.823355 -4.420163 3.472679 -0.625682 -0.668395 -1.977863 1.050695 -2.110280 3.277944 0.219794 -3.392942 0.304716 0.232641 2.117919 -0.191137 0.718585 -0.342697 0.034009 2.899321 0.718757 -1.990467 -3.463207 -3.155967 -0.284252 1.841397 0.879607 0.370161 0.489113 2.283088 -0.609985 0.689193 -1.147271 0.889976 -3.410135 0.287421 1.524462 -2.926619 0.179084 4.167174 -2.083703 0.971836 4.303651 -4.085711 -5.142116 -1.467388 -1.412437 1.471492 0.817691 -0.598532 1.232269 0.403425 -3.674571 -3.423547 -1.143018 -1.629078 -3.272966 -1.208722 -0.966263 0.168577 0.628057
traditional -4.886708 2.130791 -2.779543 0.531433 1.412005 0.643272 1.213903 -0.119783 -2.496469 -2.412457 -0.497595 -1.589007 0.103824 -0.376833 -0.702034 -1.251699 1.148863 3.928031 -2.329813 -0.484956 1.045012 1.963620 2.538541 1.526607 2.466204 1.051946 -0.197376 0.217216 -1.609659 -4.127212 2.155791 -2.602339 3.375737 0.378821 4.443167 0.567558 -3.438878 3.817388 -3.685182 1.823871 -0.401927 0.753639 1.309680 -0.665835 -0.347274 -4.000225 0.900030 -0.080219 -0.268052 4.441896 -2.721021 1.597849 1.956664 -2.363009 0.537868 0.404875 1.538343 -0.293089 -2.004038 4.082689 3.304589 -0.987233 -4.365299 1.236793
two 1.439692 1.450095 3.078138 -0.123034 0.228356 2.675038 -1.653818 0.947197 1.220812 0.436891 3.032189 -0.712920 -0.101239 -3.530633 2.369784 -7.379656 -3.195397 -3.278454 1.747908 4.210539 -2.286331 0.951293 0.227348 3.720003 2.132251 0.154038 2.057040 -0.196814 -3.031588 -1.794838 -0.758829 0.502655 2.098442 0.360196 0.874165 1.882627 -0.210175 3.713466 0.935271 6.176395 4.017654 -1.900406 -1.152735 -2.725234 0.577305 -1.676185 -3.339038 -4.447738 0.668360 -1.741042 -2.517644 -0.099143 0.758066 -0.690243 -1.169637 0.482177 5.143862 -3.859328 -0.711935 -1.033576 -0.873485 -1.532576 -0.550419 1.264449
machine -1.612576 0.133013 -0.570571 -1.878080 -1.970965 -1.058490 1.341612 0.889962 -3.367171 -0.538531 -0.685698 -2.794818 1.844485 2.736146 1.014270 1.618761 -0.410085 7.676335 2.081759 1.550354 -1.661406 -0.857501 2.523600 3.569964 2.231452 -2.874469 4.478729 -0.626764 0.523291 -0.457028 2.215272 0.731026 0.940105 -2.829574 1.987327 -1.343465 -2.250147 2.563180 -0.658998 -2.114295 -2.224674 2.167489 -2.714399 -1.720758 1.897840 -0.827171 -1.243641 3.067802 2.877081 1.629404 0.975495 -4.319423 -2.282111 -0.477091 1.188653 0.340348 -1.294227 0.763777 -3.592252 -4.869514 1.750931 1.159955 -0.829741 -0.317865
similarity 2.198637 1.959563 1.358677 1.726611 0.875206 2.337782 -1.901670 -0.653350 2.327953 -2.075253 3.854992 0.098799 -5.294489 -3.722091 3.941919 -3.570600 -0.906939 -0.686673 2.269932 2.849397 -3.985475 2.762980 -0.852482 1.295725 0.697756 0.022382 -3.766354 -1.392246 -2.045095 -3.487312 -1.457022 2.690581 1.877059 1.099084 0.562138 0.928605 1.118509 2.027820 -1.707052 6.363573 -0.751380 -3.454529 1.700801 -1.268405 2.347178 -3.918743 1.220466 -3.662602 -0.526924 0.485003 1.653377 -2.273753 0.626222 0.434612 0.195104 -0.621554 2.234243 -1.186795 0.189293 2.007368 0.925944 -1.472000 -2.077311 -1.855992
semantics -1.322248 -1.399178 -2.125615 0.375164 -2.185911 -1.753039 -3.933580 -0.032275 0.936359 -1.255304 -2.232646 2.700302 -2.732180 0.400610 0.696430 2.054857 2.341254 -1.092393 0.573376 2.169782 -1.292596 -0.281647 0.385876 0.458626 -2.167199 -3.889207 0.718309 0.984085 -6.269996 -1.547883 -2.265089 1.279094 2.771483 -0.185473 -2.017950 -0.049148 1.622721 -3.521471 -4.054873 -2.986376 -0.641261 -1.226686 0.178674 1.319863 -0.256304 1.306829 -2.019980 2.034372 -1.631107 -2.395091 -3.892129 0.494554 3.435114 0.005200 -0.300176 0.214316 -0.877037 -0.463821 -1.596320 -0.090204 1.874133 -0.859732 -2.688249 3.307729
pages 2.607688 -2.239379 -0.233932 -2.544809 0.355794 -1.225304 3.600214 3.130194 0.588728 -0.200872 -5.621262 3.593694 -2.537781 -0.257975 2.201429 1.835772 3.743854 -0.933302 -2.768321 2.421794 -0.650695 -1.675730 0.595093 0.726622 2.457735 0.145125 -4.250923 1.619547 3.521293 1.879755 1.001689 -1.316386 3.571465 3.808638 -0.623746 1.798968 0.314595 -0.442690 0.518382 0.574140 1.636415 3.980123 0.191021 0.129891 0.237892 1.206550 -2.782102 1.085433 0.652361 0.776420 2.860913 1.269316 -0.119933 -1.510244 2.148653 -3.969489 -0.847205 -1.680590 -2.701856 1.955967 -0.363813 1.026688 0.212626 0.637812
features -0.114890 -1.544001 0.936341 -0.102567 -1.522504 0.439663 -0.875865 -0.408544 -0.667626 0.163283 -3.230660 3.416072 -1.267997 2.550485 1.425913 3.140767 -1.545188 0.380299 1.005755 2.042222 -1.153660 -2.895288 -0.928278 -4.824421 -3.254309 -2.738544 -0.380608 -5.507333 -3.949795 -3.924379 -2.174925 -2.095583 -0.982706 -0.935774 1.921911 -1.915428 0.646899 1.615067 -1.471927 0.745622 1.534643 0.228938 -2.197337 3.925837 2.863914 -0.925440 1.973428 -0.305046 -0.800957 -0.226518 -1.154426 1.589024 0.812474 0.304310 3.013886 0.043956 -2.318487 0.151801 -1.573350 -1.437409 0.979449 -3.867089 -0.500338 0.971703
has 4.100038 1.589346 -1.287245 0.741824 -0.622953 -1.503433 -3.551311 -1.472290 1.396545 3.988528 -0.949735 -0.314075 0.264527 0.866091 -0.939065 -0.006978 0.730609 1.522795 0.612570 -1.378354 -1.608072 3.218657 1.200027 0.906031 1.176480 -4.372497 -1.860074 1.710259 2.721925 1.220629 -0.208527 2.843648 1.316614 2.493598 1.529164 -0.967351 -3.944273 -0.815665 1.404283 1.786722 -4.604875 -1.475036 -4.676137 0.678299 3.901043 0.861627 4.259775 -0.288171 5.068710 6.179602 -1.846961 0.552922 -1.029742 -0.299538 0.726945 1.775530 -1.846223 5.283126 1.870914 -0.058114 -2.892926 -1.773044 -0.178489 2.248559
sented -0.307870 0.350193 -2.135163 0.519551 -1.473381 0.520155 1.999335 3.175029 -1.014947 -2.072365 0.770180 0.788676 -1.182698 -3.315668 -1.061972 2.986437 2.109379 -4.289878 3.278415 1.935124 1.265501 0.987354 2.943501 0.984043 -1.729551 1.376951 2.883996 0.757313 -2.384951 0.020067 6.917182 -0.428473 -3.208065 -0.111524 1.545385 -1.620750 -3.505069 0.296951 4.698889 3.439876 -2.368909 -2.063708 -1.449655 0.796662 -4.931944 -3.914567 -3.623101 1.736518 0.446095 -3.216821 0.838453 0.911209 -2.750210 -2.841258 -1.150425 -1.882935 -0.293425 4.213567 -2.819987 2.601540 0.634310 -3.263263 -1.728021 -1.681410
preliminary 3.352797 3.921553 -0.434236 1.001614 -1.233025 4.098384 -2.405256 -3.686375 -0.012656 -3.999206 -5.719157 -3.260415 1.648188 1.188995 -3.919888 -2.357973 -1.807408 1.467825 -1.398593 -2.019568 -3.507142 -2.139735 -0.891502 0.998411 1.248685 0.260667 -1.307458 1.276963 2.992658 -3.032055 0.856043 -1.605733 -1.787464 1.424669 0.067750 -1.824951 1.530201 -0.685855 -2.121203 -0.122050 0.024214 -1.486373 -1.169701 -2.469785 -0.370048 -1.748047 1.442439 0.748907 -1.696400 -5.173232 1.692639 -0.269880 -2.188622 -2.322176 -1.755020 0.392688 -0.658466 1.013337 -3.151278 0.568520 -0.879719 4.934075 1.063546 0.607493
design 4.581396 3.233885 -4.758590 -5.810135 0.585306 -2.718877 3.462210 -1.912980 -1.264179 -4.089910 1.939563 0.216440 1.203782 0.415058 -3.018241 1.454157 1.292304 -2.625956 0.237650 1.296412 -1.157243 -0.461517 -1.683029 1.049345 5.106405 2.550345 -1.200199 -0.583176 -2.272175 1.370912 -1.912521 -0.943145 -1.156105 -3.911259 -5.068408 -0.192387 0.760779 1.139184 0.857688 1.825211 2.757185 -2.330283 -3.020618 1.879215 1.505419 -1.999896 -1.409878 -1.913871 0.695405 3.378761 1.219756 -0.033623 0.582859 -1.487695 -2.307693 -2.478193 -0.763226 -3.096015 -0.471902 -1.880508 -1.811429 2.296092 -2.390376 3.996629
office 0.542254 0.628511 0.461560 -1.137653 -2.878331 -1.693826 -0.734126 -1.696211 1.096104 1.099639 3.939467 0.972790 -0.494543 2.337888 3.935320 0.903859 -1.281726 -3.363863 -0.925864 0.793045 -0.506608 -2.216444 -3.287286 1.734194 -0.478086 -4.379074 0.202686 3.337044 1.221842 3.088414 -1.595469 -3.739314 -1.043509 1.632091 2.195631 -1.363731 0.964911 2.576106 -0.255315 -2.502751 -0.981867 5.037385 -0.270856 1.207878 -0.411444 4.613789 -0.903155 1.274302 3.360532 -2.850008 1.031043 1.611639 1.458000 -3.400346 2.896708 -0.431094 1.915767 0.795526 -0.210693 0.691979 4.114870 -1.829721 1.882279 1.686938
interpreted 2.423950 0.439017 -1.828070 -1.674169 0.416936 3.257461 4.030289 3.331230 -0.303302 0.987280 2.287119 -0.067987 0.370864 -4.286212 4.224214 4.318879 -1.318213 -0.375113 -4.894784 1.673593 -1.639668 -1.871135 -3.158230 4.150815 -2.624857 -0.252495 -2.217693 0.006008 -0.864159 3.016245 1.778031 3.575235 -5.273927 -0.075194 3.385825 2.850013 -0.679235 -2.141879 -0.826983 -0.755541 0.632995 3.708501 0.523442 1.628579 1.145918 -0.638434 -1.903427 1.107937 -2.501379 -2.750758 2.290221 0.090594 -1.413808 0.438542 0.248168 -1.871509 1.906350 -0.579902 -4.160274 2.465067 -2.139662 -0.941305 -2.660071 -1.990379
they -1.465291 0.130655 -2.254124 -3.684822 -2.364455 0.459273 1.584413 2.304390 -0.268260 0.023808 1.322884 0.112720 0.444588 1.984126 -0.443569 -2.266432 -4.476485 -0.027016 0.283356 -5.172939 -4.158713 -3.599696 2.466828 -0.642324 0.368516 2.534878 0.203628 0.120719 -1.063733 -2.387102 3.805715 1.500632 3.651569 2.217697 3.513244 -0.594959 -3.272855 -0.447549 4.325834 2.410401 0.089757 0.504476 -1.402741 -1.031955 -1.745360 0.067682 4.655399 -0.898194 0.224791 -0.546858 -1.362173 1.008265 4.837300 3.368873 -0.655729 1.063365 0.350425 -1.702710 0.925106 -1.397295 0.916948 2.875959 -5.675149 1.007906
tional -0.042178 -1.572881 -0.852775 3.162105 1.486361 -3.874506 -2.293491 2.353379 -1.423626 -0.097087 0.646593 0.129275 -2.266879 1.132499 -0.048352 1.836109 -1.872658 -3.826810 2.741337 -0.408190 3.058319 -3.875237 2.598875 1.093062 1.343497 0.304254 1.514251 4.071134 2.480781 -3.574219 -0.085138 -0.039995 2.037815 1.122775 -0.721082 2.093460 0.136971 1.338158 -1.284623 1.838002 -0.211175 -0.166764 -3.150144 -0.611468 3.569662 -3.765115 -2.242415 0.247388 -1.678204 -0.676812 2.220063 -1.850516 3.290103 1.933042 -2.444363 -1.525215 1.955949 -2.325156 2.299797 2.556036 2.689678 -3.746002 -0.273693 -3.935979
studies 0.768117 -0.185300 -3.549367 -0.648433 -3.935911 1.303663 3.985523 0.319893 2.182639 0.457246 1.015705 0.444587 -1.220827 -1.858835 -2.376487 -1.542478 1.960249 -1.320675 -2.231787 -4.928334 0.134112 1.996216 2.344662 -1.452387 -0.911468 -1.382436 -3.793509 -1.414509 1.313695 2.726363 2.941133 0.556527 1.767566 1.312305 -0.725015 -1.890232 3.474614 2.513149 -0.263484 -1.270115 4.192550 1.103082 1.952531 0.503797 1.654157 0.443928 2.762738 -0.069363 -5.767920 -0.765383 -1.021461 4.740729 -1.332749 -2.128513 -1.685680 5.283100 2.245270 1.892418 0.832438 -3.908307 3.164611 0.654895 -4.080656 -0.725575
constructed 1.201369 -2.873672 -0.580105 -0.724115 3.440116 -1.048513 2.719514 2.929931 -0.399972 0.682870 0.850491 1.280182 2.809216 2.774411 -0.118607 -1.293568 1.627623 -1.913805 -1.061862 1.420344 -0.004295 -0.211732 -2.606715 -0.788427 -2.430227 2.069928 -3.848995 2.273680 -4.073593 3.788355 0.892824 -2.243890 -2.821841 -0.931587 1.955321 -2.140436 -1.907546 -1.220296 1.740926 2.658064 -3.708940 2.296557 -0.830871 -0.758954 -2.481128 -4.082568 1.977365 1.909033 -1.107118 -2.554209 -6.455574 -3.053793 -6.442053 2.038785 1.310929 0.499668 1.925078 -0.415139 -2.262194 3.084937 -1.572322 0.679801 -3.799847 -1.372816
could -1.987713 -1.167390 -1.319294 0.377706 -2.683813 1.506354 -2.990842 -0.015453 2.434945 -0.643496 2.164993 1.160845 1.313865 -1.370456 -3.025637 1.529049 2.307297 1.271037 -1.499012 -0.167953 -3.276962 -0.992331 2.832092 -0.946268 -1.859893 -3.523914 2.784597 5.897274 -1.343450 0.104029 -1.937554 4.481751 -0.499625 -0.714370 1.701456 0.490300 4.728312 0.420701 -2.615211 -1.333045 2.952321 2.401073 -0.381189 -0.337333 -1.103739 -4.337257 -0.947423 -0.989297 -3.020071 -4.619273 -0.776532 0.188640 -0.855460 -1.962501 -1.154740 1.538704 -1.223289 -0.481824 -1.099934 -2.123526 -0.228951 4.065056 2.597255 3.740843
functions 2.069326 4.282113 -4.622181 -2.033021 2.855835 -4.228402 -1.008676 0.411951 6.182719 -0.969773 -1.950181 3.137182 -0.234943 1.579411 3.718789 -4.508543 -1.629411 0.725345 2.421737 2.975954 2.228676 2.150451 3.094290 -2.310622 4.824207 -2.161558 -1.243045 0.955878 1.620622 1.266228 -0.986351 -0.178689 -1.964447 -0.280923 -1.559021 0.037293 -0.557073 0.110719 -0.325682 1.110550 -0.207971 1.520567 0.644761 2.154030 1.770077 0.517318 -0.844519 0.008884 -0.522383 -1.694807 1.765463 -6.050254 1.024205 -0.501063 -0.420073 1.237271 -1.000888 4.193116 2.488101 -2.461690 -2.554238 1.682224 -4.654427 2.099452
more 2.838516 -4.190506 -1.181485 2.395349 0.599023 2.392745 0.106649 -0.727439 -1.111544 0.524763 -2.391240 -4.399689 -2.017972 -1.530847 0.248783 -0.812186 1.431043 2.293789 -2.744622 1.805758 1.298264 5.475237 -1.737880 0.319344 2.168271 -3.495410 -2.569691 -1.002784 -1.890940 0.899737 -2.331520 -1.867655 1.761723 -2.949104 -2.667497 -4.000391 2.857177 -0.270991 2.257203 -0.437104 0.698596 1.789570 0.048093 2.325999 -4.725103 0.841009 4.186338 0.301823 -4.231228 0.946407 1.114316 0.109821 0.886857 5.447999 0.930043 -2.785853 -5.146576 0.638651 -0.170056 -0.150403 0.750793 -0.899405 -0.642527 1.283300
few 0.874143 0.840192 -2.725398 -1.773958 -4.868683 -3.164687 -2.359221 1.242881 1.922746 -0.291528 -0.646744 0.832845 2.732551 -2.051546 1.124190 -0.412967 -2.596195 2.555586 -2.245890 -3.121233 2.458526 -2.258895 -1.072201 0.686737 0.606389 -0.012614 0.939249 1.611461 -2.903412 -4.214284 4.198945 0.146626 -0.034778 -0.712922 -3.113182 -0.697020 -0.378245 1.157993 -1.920858 1.761626 1.594317 -2.285985 1.264609 -2.581089 1.560656 -0.525451 0.229285 0.326706 1.243434 -0.577688 0.993722 -1.838586 -0.560294 -2.354293 2.935354 -2.907465 0.962998 -0.394024 -2.000787 2.426842 -5.034296 -4.116889 1.193309 -1.742184
techniques -5.720235 -0.314698 -1.849939 2.986179 1.718733 -3.258448 -3.346065 1.965213 1.242446 0.841671 -1.416539 4.225676 4.392317 1.821559 2.431606 -0.575742 -0.104217 -0.024871 -0.023142 3.428684 -3.426509 1.401805 -7.834735 3.041548 0.356216 -1.342316 0.423451 0.477933 -0.836802 3.240590 2.885236 -4.143060 -3.512764 2.698251 3.351821 -0.125142 0.345455 -2.202425 3.829200 -3.504510 2.400198 -0.320175 0.991524 2.010682 -1.894537 -1.883218 -2.518709 -0.367603 -4.540769 1.581780 0.812390 -1.541204 -1.126258 0.543248 0.083835 2.559610 0.581856 -0.844759 -0.619153 -3.913398 1.629621 -2.972772 1.928949 -2.743464
parsed 0.315763 3.384863 1.204189 -0.506369 3.303064 -0.154972 1.103331 1.924758 0.711140 -2.646866 -3.904668 0.459659 0.278676 2.089674 0.651828 -1.560420 -0.804455 0.570220 3.911662 -2.058806 -3.192825 -4.673568 -0.005670 -1.543283 -1.454763 2.660347 5.238129 2.205709 2.217317 4.387338 -4.009727 2.477690 5.304122 -3.300618 2.967891 3.420101 -1.368218 -0.186474 0.972434 2.639558 2.684496 2.739233 2.211215 -1.218438 1.415394 -1.402335 3.648643 1.487298 -0.786861 -0.489828 0.053252 -0.670214 -0.098853 0.009598 0.086397 -1.665298 -1.462197 1.034688 1.797984 0.333138 2.269371 -1.883198 3.994946 -0.769889
revealed 1.923323 1.465882 -1.656606 -3.178384 -3.282277 -0.525385 3.914040 0.881490 0.987044 1.536100 0.606622 -1.145193 -2.615489 3.706483 0.683102 -2.449554 -1.078126 -3.024658 -0.990753 -7.220001 -3.415347 -2.317967 4.266218 -2.456455 1.412266 2.362857 -0.578466 -1.007103 -1.093510 1.775929 4.716469 2.571650 0.968820 -0.540433 1.080662 -2.946345 -0.629258 3.059932 2.645574 0.810556 0.282809 -1.014734 -1.069239 -2.077808 -0.394171 1.450331 3.580655 0.771295 -3.376931 -1.548693 -1.842104 2.986864 2.284638 -0.059415 -1.856354 4.617682 0.537851 -0.308053 2.490856 -2.873971 2.470603 -0.055380 -4.502066 -1.435359
use 4.407201 1.372393 0.221077 -1.129034 1.010893 -0.569747 0.140463 -0.969980 -2.263934 0.608797 2.515788 0.598201 4.617669 -1.289430 -2.825358 1.587674 -0.351410 -2.924904 -2.488874 1.522304 0.412232 -1.056293 -2.667033 1.536784 3.640275 4.156075 1.156197 -2.573829 -1.242583 1.934667 -0.083152 1.585094 3.383679 1.179610 -2.094297 -0.730264 -1.097618 4.555477 -0.036244 -1.242763 2.123267 -4.031370 -3.283660 3.598184 -0.450816 1.896564 -2.032041 -0.315596 1.173389 0.860613 -0.945312 2.749008 -0.978284 -0.702254 -1.033869 -0.721445 0.023856 0.110174 1.086817 -3.154280 -1.055356 0.672737 -0.312303 4.744066
single -1.746017 -4.166445 5.143992 0.735030 -0.836696 -2.800293 0.303462 3.962644 -2.098986 1.355569 2.914623 1.449924 -0.916008 -0.202567 2.979560 -1.275919 -1.644792 -0.454313 -0.739726 -1.675765 0.850524 -0.503645 -0.196474 1.495144 2.134196 -1.735869 0.450457 -2.062489 1.883749 0.352324 -2.010962 -5.590065 -1.229811 1.196798 -1.789532 -2.241122 -2.238815 0.925635 2.508343 0.211568 0.841322 -4.404583 4.059885 1.029350 4.008749 -2.600937 -0.201043 5.873928 -0.769471 -1.907059 -1.558833 0.386125 0.502209 -0.858495 -1.687484 -0.068749 -3.715554 3.567773 -0.038421 0.103529 -0.774932 4.518497 1.205381 3.671264
research 1.195109 -0.792751 -3.107274 4.031980 -0.033261 -1.827105 1.028475 -0.918202 2.878503 0.250681 1.906851 1.681516 -2.802778 1.357175 -0.002625 -1.218981 2.232463 5.101440 4.496986 0.812732 2.042652 2.517640 1.958405 1.575567 -4.789812 4.703887 -0.368328 0.878765 0.591565 -0.378882 -1.324111 0.318253 0.040164 2.925896 -3.831669 0.861158 -2.545901 1.221653 1.559655 -2.163691 1.497234 3.041619 -2.111767 -1.155860 0.670592 -0.943367 3.611682 1.725337 0.050818 -0.667340 2.644406 2.801655 -3.554998 2.150717 -6.208374 -4.652989 -0.179160 -2.471220 -1.300135 -1.321571 0.501437 1.108040 1.437267 2.395672
mature 0.513207 0.017406 -0.014413 1.260858 0.202550 2.093506 1.230144 2.486113 -1.980772 -1.174887 -1.932766 6.611206 -3.938953 1.445206 2.494581 2.176689 1.011028 -0.420126 -1.137957 -0.880380 0.137144 2.510538 0.823762 -0.052905 -1.829492 -2.894310 0.481601 -1.828002 -4.247598 -4.389588 2.751580 -1.663694 0.561380 2.042813 -1.510124 -0.827644 -1.003888 -1.402522 -3.152227 -2.171932 -4.149342 1.791008 -2.759769 -0.148532 -1.268322 2.963917 -0.402202 -5.376390 -2.434214 -1.130806 -1.915148 0.000648 0.305872 1.320421 4.359558 -0.564868 -1.558559 2.700778 0.315813 0.547067 -2.742807 -0.217244 0.144542 4.289510
rising 1.239872 0.272061 0.551967 0.412257 -0.327302 -1.038163 -0.515541 -0.501827 -2.796436 -0.476736 -0.598750 -0.411040 6.397368 -2.481024 1.253186 -3.561723 -3.882669 -1.921343 3.173605 -0.135037 2.770769 -4.774324 -4.575168 0.984031 -1.310159 -0.724683 -3.572622 -2.571938 3.324516 1.142097 -0.523098 -0.363535 2.411136 0.365475 3.709257 -0.903567 -0.181135 3.208537 -3.289767 -3.606795 -0.030869 -3.155300 -2.221897 1.354006 -1.425374 0.921392 1.970022 0.956151 -1.232352 3.848177 1.323920 1.785059 0.724276 -4.599851 -1.929355 -0.838742 -2.773763 0.510556 3.390323 -1.134976 -0.896337 -2.441407 -4.957747 -0.103695
consideration -3.483749 -0.685297 -1.794233 1.154289 -1.424022 0.041363 -0.113622 -0.916889 -2.923041 0.729294 -1.131299 -0.505756 -0.838884 0.954094 -2.131841 -2.157217 -1.481054 2.808853 -0.796637 0.475984 -0.454195 2.264975 1.616527 0.675210 -0.531385 2.374703 -0.536339 -1.276049 -0.407210 -3.763692 3.984833 -1.127973 0.553825 -1.944379 2.027093 2.468220 -3.491942 1.532528 -2.753193 0.361503 0.591990 2.379157 1.507774 0.737704 -2.591900 -2.043848 0.751778 1.217773 2.166008 4.174853 0.050849 0.383109 2.753178 -0.803766 -0.443680 -0.368768 1.078422 -0.982726 -1.336907 3.608366 2.285214 0.606621 -1.537804 1.894899
rela -0.858482 -1.408964 -3.419689 -2.461663 0.177391 0.301375 0.290748 1.348276 2.865801 -0.994175 -2.915766 1.670508 -1.855847 -4.328182 0.313827 -3.146572 -0.150572 0.812667 -2.782023 -4.423942 0.982913 -0.204684 -1.609871 1.031314 3.084644 3.027096 4.299739 1.062108 -0.797381 -0.837619 -1.479163 -2.164058 -1.087828 -2.100263 0.835491 -1.349524 0.658986 1.077005 -1.399999 -0.479753 -0.416595 -0.322069 -2.204522 -0.709585 2.332641 -2.682737 -4.119814 1.371296 2.127808 -0.083242 -0.811718 0.714728 -0.387845 0.963148 1.821076 0.993723 -2.770914 1.549603 2.282390 1.553643 -1.903234 -5.401488 -1.024236 -3.799092
rapid -2.806341 0.109134 2.223574 -3.072216 -3.558511 0.358365 -2.290715 0.365341 2.273241 -2.184446 -2.505083 0.678648 1.235934 -1.712838 0.752859 1.725960 2.129733 -1.033492 -0.538870 -0.790430 0.520528 -0.603042 0.234338 -1.506099 -1.894412 1.744538 -1.693722 -1.378044 -0.175124 1.018476 -0.511957 1.244568 1.156305 -2.771173 -0.737283 7.046754 2.570202 1.165691 0.924854 -1.494872 -2.118388 2.315480 2.057497 -0.079873 -2.160916 -1.100183 0.424988 -4.513699 0.792375 5.632678 1.007774 1.731776 0.587884 0.203956 -1.989453 3.647743 0.228098 1.470146 -2.943309 3.866885 0.581753 2.505692 2.178602 -3.133071
class 0.877537 -2.299281 3.151081 0.565281 0.870893 -2.026453 0.293172 0.849961 -2.931054 4.352984 2.569012 0.050756 0.632409 -0.352976 3.563775 -2.623214 -0.506002 2.259398 -0.866443 -2.965069 3.211533 -1.325787 1.316303 -2.637464 -0.216558 2.791223 -1.519702 1.613569 2.610332 2.185205 -1.743252 -3.972966 -1.924093 0.390990 -1.320180 0.564429 -3.179367 -0.584544 -0.332255 0.133684 -0.965854 -4.013896 0.951778 4.007668 1.558976 -0.952797 -2.086392 4.629276 -2.400465 -0.477968 -1.904545 2.710409 -0.099583 1.372603 -2.177626 0.867375 -2.476899 -0.962771 -2.582398 -0.547315 -3.185289 2.967482 -1.840918 2.897190
assigning 1.828261 -1.418268 -2.356259 -1.251878 3.600898 0.907943 -0.807000 2.100013 -3.822707 1.090102 -2.355247 -0.551769 -0.628122 -1.272328 2.210995 -0.142375 0.731437 1.494259 2.379362 1.666513 -0.151484 -7.905727 3.143558 -0.683921 1.208086 0.643553 -0.723545 3.224198 -3.623567 0.338775 -2.811581 -1.346821 0.509162 5.738719 -2.131950 0.460342 1.199902 -1.272988 3.009197 -1.012634 -0.752412 -2.611196 3.887388 1.090812 0.841490 4.814816 0.779416 -1.507292 -2.355448 1.216018 0.947270 -0.975861 -1.472091 -2.518196 -4.786093 3.663905 -2.545884 0.065625 -1.919745 1.660630 -1.202544 -2.813695 0.291495 0.971796
reuters -0.192571 -4.060386 -1.082410 3.345979 1.098456 0.716085 -1.894380 2.259981 2.267289 0.030328 -3.160602 -0.310656 2.436273 1.991907 -2.296474 -0.121810 0.776732 -1.572318 0.700519 1.175549 3.264468 -1.458439 1.377172 -0.891105 4.860849 3.405726 -2.404911 -2.570474 0.530180 -2.551916 2.062557 1.410239 -1.401878 -2.029069 -0.087766 0.102210 -1.359537 -0.208865 -1.078110 -6.703524 0.136584 -0.344993 5.031438 -0.781906 -2.144593 0.495411 0.175403 -1.528992 1.421675 -1.002475 -3.827941 2.420657 0.594506 -2.181839 1.961056 -1.903881 -0.341096 -2.585737 2.372120 0.552018 -0.523607 2.599756 2.219958 1.776882
vectorspace 1.884975 -0.770384 0.829416 2.510610 0.284658 1.577848 -1.646056 -0.274090 1.766558 -1.511749 0.536613 0.020048 -1.711288 2.592098 2.284977 -2.000654 -1.091975 3.021898 3.665132 0.599977 -0.362443 1.387115 0.993790 0.897313 -2.002575 5.629061 0.545312 0.301454 2.711888 1.613407 -1.340653 -0.081018 -3.032903 3.289255 -4.649697 0.423725 2.801214 0.727209 -0.411288 -2.184954 -2.019158 -0.534509 -3.759022 0.143768 -0.848077 -3.814508 3.323973 -2.289215 0.702804 1.495364 0.573408 0.653361 -0.001549 -1.336615 -4.868949 -3.707800 1.877371 -3.230091 -4.171710 -1.331148 1.421074 -0.117651 0.702707 3.035941
multiple -1.444441 -0.288404 2.136299 1.045145 0.062325 -2.590125 -0.867656 3.257104 -2.757342 2.045759 3.535673 -0.282450 0.074840 -0.372820 1.306407 -1.606761 0.428708 0.077332 1.848029 -0.511007 -0.718317 -2.501445 -0.643573 -1.057943 0.386089 0.930061 -1.911069 -0.966159 1.967720 -1.728040 -1.073660 -3.746239 -0.686546 -0.332896 -1.579636 -0.592353 -3.107505 -0.934380 0.881721 -1.620988 1.453163 -3.241500 2.287059 2.971445 3.959605 -1.276549 -1.352739 5.156322 -0.365010 -2.351196 0.032778 2.327734 -2.493733 -1.746498 -1.594013 2.174882 -2.595926 0.145236 -2.096402 0.030568 -2.941259 3.304601 -1.538972 0.053695
web 0.915709 -0.077229 -0.725478 -0.449435 -3.494559 0.548056 -0.513641 -0.331772 0.957295 1.991894 2.944690 -0.688811 -1.039744 0.349522 4.810498 2.012572 -1.364581 -3.465895 -1.131357 0.415141 -2.710957 -3.163658 -4.515053 3.867461 0.288711 -0.691404 0.787163 2.864866 2.190495 2.865444 1.277709 1.391961 -5.376466 -1.395562 2.525497 0.727441 1.668781 1.498466 -2.193216 -1.186761 0.756634 4.832783 -0.579512 1.386286 3.192760 2.791648 -2.492104 4.379632 4.416610 -2.445617 1.532117 -0.019046 0.845994 -0.492788 1.999499 -2.130656 4.776496 -0.256046 -1.127377 0.871350 1.986160 -2.025839 -0.447781 0.293230
been 0.345941 2.516912 0.076357 0.155664 -3.127893 -4.643605 3.255695 -2.414633 2.792721 1.757104 -0.110044 -0.082787 -4.529850 2.922534 0.284291 -3.597569 -0.027964 -0.983783 -0.700025 -2.478062 -2.270937 2.339388 2.495612 -2.273651 1.831731 1.300320 -3.827165 -5.586194 -0.854388 1.192090 2.494732 3.288621 -1.849002 1.414310 0.742970 -1.440189 -0.510821 3.800306 0.735729 -2.745371 -0.469692 2.314941 3.770364 0.611664 1.722203 0.655704 2.571984 -1.166912 -3.915279 0.041442 0.090109 3.273433 -1.908771 -2.546882 -3.715528 4.067952 1.785385 2.356373 1.360456 -2.250705 0.835520 -3.251485 -0.632282 -1.705178
4 2.193029 -0.451697 -2.866638 -0.081279 3.599516 -1.454748 2.100891 -1.858641 -2.304388 -1.055481 2.994757 -2.224087 0.840470 -0.495631 -1.333177 1.411337 2.379112 -1.917228 -3.606179 0.398098 -0.716943 -2.000550 -3.994223 1.800179 1.591052 3.001244 2.448152 -2.648306 -1.356005 0.567453 1.238398 1.576907 1.347788 -2.784113 -1.872097 -3.137413 0.171763 3.139664 1.720546 3.738610 2.165295 -0.708252 -2.969367 1.470503 2.646947 2.149078 -3.466716 -2.070467 1.992024 0.592988 2.331286 1.897809 -0.314699 3.276766 -2.710066 0.921474 2.884155 -2.223285 -1.461223 -2.498055 -3.831239 1.205027 0.886304 5.970030
categorization 4.064595 0.280518 -0.678114 1.036583 0.551034 -0.732027 -3.907619 -2.672798 -0.239588 2.714261 0.660812 1.850915 1.555585 -1.556101 0.738081 0.018969 0.198923 1.654598 1.364913 -1.126168 -1.527106 -0.328978 -1.124561 1.271327 1.404568 -2.775870 -2.356868 -1.568232 3.796993 2.999080 -0.529949 4.006217 2.372324 3.492221 0.381628 0.750610 -2.808192 4.182204 -0.135957 1.617998 -3.077175 -3.118834 -2.032182 2.538586 -0.589527 1.081158 0.821665 -0.559276 2.538870 2.987414 -1.500337 1.410565 -1.482364 -0.185938 2.329357 0.452838 -3.588406 5.467602 3.519489 -0.783173 -2.085364 -1.123866 -1.258584 1.957116
5 1.550366 -0.256690 -1.860431 -0.451757 3.302124 -2.298487 2.065450 -1.587775 -1.655288 -0.972106 3.574368 -2.467564 0.010930 -0.458099 -0.950580 1.306026 2.461160 -1.416791 -2.706019 0.109649 -1.147476 -2.010514 -3.681791 1.283413 2.197320 2.793467 1.759230 -1.963053 -1.484211 0.786768 1.311790 1.103598 1.547632 -2.605938 -1.645340 -2.915502 0.235419 2.747109 1.953746 3.800480 1.508893 -1.575868 -2.083575 1.385740 2.803430 1.641247 -3.498360 -2.616027 1.108066 0.685454 2.217051 2.017179 -0.330133 2.742828 -3.365847 1.001843 2.474720 -1.933661 -1.109563 -2.638780 -4.354755 1.177698 1.284553 5.911047
21578 1.063931 -0.657088 2.932300 -1.797557 1.137791 1.756658 -5.727973 0.158722 -1.973799 3.024080 0.877588 0.164449 5.326746 -2.266759 -1.686816 -0.374607 -2.446571 0.286108 1.048050 2.653111 5.128477 -0.943997 -1.125249 -1.593183 -0.591854 0.308472 -1.685587 -0.697050 4.798419 0.829544 2.020564 1.141328 4.090529 2.963242 1.950750 0.792547 -3.041900 4.350590 0.406649 -0.250510 1.910795 -0.367519 -3.655127 2.383900 -0.485922 1.495636 -4.262461 -1.735173 1.113215 -2.176842 0.703537 -3.011158 -2.336038 2.822179 -2.333568 1.779365 -1.675157 4.158925 -0.192575 1.293883 3.070124 1.185300 0.313363 -0.241306
shows 0.176005 3.649025 -0.615847 1.094230 1.168996 2.638661 -0.180563 -4.894065 -3.202951 -2.679256 -3.380849 -3.050390 -2.561919 -0.028325 -4.747032 0.181341 -2.500221 0.283429 -2.696285 -1.925750 -1.864922 -1.850682 0.876145 2.174811 0.176982 2.571462 -0.073358 1.415001 1.362828 -5.107243 -2.829579 0.713046 -2.079504 -1.504170 -0.946878 -0.229714 2.570236 1.271338 0.482505 -2.685102 -3.362617 -2.028125 -1.591479 -0.004131 0.358636 -0.769435 0.870850 0.485721 -3.244934 -4.192572 2.415590 0.900806 -4.958790 -2.333241 1.348880 -0.469429 -1.162933 0.053736 -2.474780 0.222991 2.790062 2.818630 -1.751173 -0.125934
frequency 4.181504 -0.374505 -1.488850 -0.357277 -5.144858 -0.306800 2.737252 1.274282 3.566478 -0.774394 1.199248 -2.984672 -6.913036 4.539440 0.720079 -1.874181 1.179936 -1.655041 -1.050568 -4.766071 -2.885697 3.453802 1.641194 -1.041369 3.191105 0.639619 -0.257086 -2.810108 -0.993577 -0.693621 3.111445 0.550977 1.226312 -1.857185 1.884089 -1.007434 3.292229 2.261808 -0.315020 -3.292349 1.302031 -0.505355 0.746798 0.010642 -0.011740 0.526070 0.663074 1.993380 -1.922148 1.537420 -2.063116 4.188012 -0.574458 -1.856693 -1.582526 3.153338 2.446574 2.927246 0.820752 -2.476840 -1.197250 1.390032 -0.769506 -2.669264
tuple 0.070098 -0.613147 -0.357182 -0.870244 4.743256 1.117824 1.923388 2.696996 2.355586 -3.918354 -3.564611 1.984087 -1.144520 -0.278940 0.359230 -3.959441 -0.422880 -1.368089 -2.500748 -5.555027 0.682959 -2.484236 -0.106107 2.113212 0.063199 3.019391 4.672005 1.380997 1.981337 -0.057939 -2.227977 -0.951097 -1.137040 -2.432319 1.495512 0.263031 1.130491 0.470269 1.205568 -1.486829 -0.877732 0.201393 -1.036603 -0.922668 2.320148 -0.594413 -0.130372 3.193398 0.345960 2.130183 -1.087939 -1.285971 2.087808 1.607688 -0.577713 1.302668 -2.728685 2.363360 3.164698 -0.279113 0.458261 -4.342133 -0.441513 -1.574708
idea -0.559761 -1.115430 -0.167265 -1.759252 3.670748 0.517683 1.125427 -0.423775 -2.792011 -4.425002 0.506950 0.731695 1.412011 4.270390 -1.218876 1.374550 0.189263 -1.918525 1.361899 -2.384968 -0.615577 -2.112696 2.071805 1.028933 -2.287957 0.696327 -0.261716 -2.777286 2.528996 1.849449 0.552128 1.260119 1.626177 0.589204 -1.230482 5.965347 0.504832 -1.441248 1.106834 -2.665429 2.013218 1.946914 2.171996 -1.952017 0.241953 -1.624662 0.877077 3.487818 0.891613 -0.420089 0.022965 -3.712958 2.114478 1.474284 -0.576684 -0.939355 -0.434797 -0.106296 4.242179 -3.408339 1.747230 -5.135487 -1.310106 1.851857
although -1.766526 -0.523653 -3.500764 2.432466 -3.342287 -0.703636 -2.968218 -0.033030 -2.031476 0.664350 -0.869772 -1.719396 0.476750 -1.219102 -0.356622 -0.069682 -0.907700 0.627417 0.040953 -0.046651 0.351886 -0.578884 2.688498 2.603961 0.151541 1.067228 4.633740 -0.750673 -0.007218 0.204892 -2.445285 -1.620189 -0.692535 -1.305558 -2.225963 0.282553 -2.298410 1.173438 -2.128947 2.567049 2.085393 -1.611291 2.635812 0.114245 -2.056437 -0.286618 -2.475025 0.906171 1.604533 0.551839 0.903186 -0.747502 -2.089220 -2.144303 4.338257 -0.732142 1.474944 0.696577 1.980869 1.110268 -0.673133 -4.118294 -3.678705 -3.318489
association 0.005404 5.175586 -1.499337 -2.781504 -3.280676 -0.012691 -1.710911 2.591871 -0.145430 0.125761 -1.046284 0.762543 0.741306 0.669771 0.687598 -0.336522 -0.130976 -0.095923 -4.832000 -1.550572 -2.334214 -2.480263 5.216927 -3.565506 0.537157 3.136467 1.100004 -0.300473 0.656689 -0.193345 1.774108 3.771471 0.466181 2.383807 4.328555 -0.316662 3.033933 0.194051 4.735899 3.289658 0.040840 -0.364541 -1.558334 -3.429963 -3.147487 0.474829 3.641009 1.266393 -0.702887 -3.008830 -1.502569 1.328013 1.950487 3.526368 -0.437684 0.104626 -1.300091 -2.795960 3.575477 -2.134077 2.565963 4.120893 -3.379629 -0.140751
matrix 2.339209 0.978318 -0.583485 2.367277 -0.823721 4.118566 -3.772057 2.978838 -3.077341 -0.986261 2.976865 -1.127827 0.784094 2.307537 0.429830 -1.817438 4.044362 -0.371722 2.591718 -3.212485 1.316867 -2.382167 -1.933275 -1.033970 4.741052 0.445759 0.093720 2.432049 1.014608 -0.723227 2.096041 -1.607976 -0.404906 -0.954749 -1.856721 2.292634 -1.005853 -5.645905 -1.410400 2.633997 -2.268233 3.859306 -3.384890 4.234839 -0.335044 -0.597577 -0.634406 -3.089209 -4.913190 1.214657 0.361212 -3.448354 -2.412645 -1.878871 -1.013228 -0.360363 1.676589 -2.135090 1.688558 -0.603149 1.422525 -6.595522 0.510869 0.354675
constantly 2.986048 1.257274 1.545697 1.206277 6.346188 4.028827 0.421783 5.358011 -3.010159 -4.758721 0.964850 0.519694 1.752814 -2.677978 2.093810 1.050406 -3.031010 -2.589629 -1.034150 -1.536410 -2.200192 3.106706 4.560780 0.564239 -0.907354 1.590521 4.406195 0.425076 1.347590 1.208601 -0.988948 4.821440 3.673574 -1.569408 -2.540751 -1.574541 -1.560282 -0.625923 0.038375 -1.470636 -1.942013 -0.105320 2.371838 -0.275783 1.712671 1.721504 2.283183 4.194858 -0.783563 -1.098309 -0.871159 -0.739862 1.035524 -1.272001 -1.043892 -0.225732 -1.832650 0.172887 1.665231 0.740253 1.510677 -0.707100 2.558820 -1.471453
end 2.989913 3.330008 -1.180680 -3.112550 -0.276734 -0.946438 3.717400 1.414808 -0.979972 -0.140039 2.899493 -1.034086 1.612148 2.563241 -1.208762 0.794189 -1.499628 -4.226992 -3.385393 -2.928948 -2.315297 -4.289363 1.777143 -0.948786 4.463533 4.820613 2.158959 -1.113839 -3.707093 -0.017293 3.223044 2.415577 1.477120 0.500403 -0.417841 -2.155500 -1.736160 2.135057 2.877513 3.626564 2.915603 -2.758772 -4.574768 -0.224692 -1.471115 1.800432 -0.234466 -0.410799 0.010206 -0.799240 -1.084900 0.539496 3.968070 3.623841 -1.341267 -0.218132 0.479969 -3.370379 2.304015 -4.176680 -0.926384 2.261050 -2.532162 4.564328
basic 2.597829 -3.299937 1.593784 -0.783776 0.342166 0.153553 1.178914 3.134236 -2.517872 -1.034041 -2.313601 0.077857 -0.041257 0.136019 -1.100962 0.077352 -4.502689 0.330965 1.857921 2.733034 -0.115688 2.543281 0.659121 -2.574369 -2.014817 -0.676839 0.191719 0.496906 0.587022 -0.883948 -1.079982 0.623089 -2.747485 -0.735439 1.952696 2.507407 2.045966 1.479120 -1.834059 -1.869286 0.124926 0.812731 1.084526 -5.089272 -1.366805 1.077713 0.406384 1.519560 1.544926 3.373047 2.804526 -1.341401 0.740378 3.627580 -2.843754 -0.007792 2.685164 2.994237 3.527029 1.478009 -2.887966 1.897869 0.371286 1.018664
presents -1.147119 -3.304116 -0.348304 -2.388820 1.504812 2.193618 -0.642361 -2.294835 -0.950763 -2.739545 -0.734900 -2.823700 0.851889 1.585489 2.118042 -1.139077 3.427396 0.554596 1.414387 0.355054 -0.681120 -1.256658 -1.982660 -0.870216 -2.623224 -0.518915 -2.254571 -1.403295 1.309514 0.388610 2.564525 1.637798 -2.513070 -4.149740 -0.419032 -3.240401 -1.377291 -2.138519 -1.755670 1.667938 1.925817 2.116166 3.157242 0.419285 -2.047864 0.356790 -0.647102 -2.054068 3.987741 0.033987 -2.765811 2.501031 2.164307 0.133838 -3.710607 3.747427 0.791803 -1.993808 1.918406 0.961900 -1.158351 2.510823 3.806930 0.893419
from -1.959906 2.355069 -4.022071 -1.841181 -1.909223 -0.430162 1.375361 -0.203651 -2.509711 1.281496 -0.383609 -2.891960 0.495180 1.200002 0.839320 0.381931 -1.290127 5.396945 0.593023 1.441820 2.882104 1.112994 1.345560 2.563732 5.035608 0.001427 2.825477 0.605655 -1.004790 -1.469762 0.504294 0.323481 -0.687707 -1.779434 2.563622 -0.624486 -2.041884 3.138351 -3.799797 -0.015357 -1.341419 -1.721825 -2.096400 -4.770277 3.119336 -1.338029 -2.871727 2.199277 0.546713 -0.809898 0.045547 -1.928050 -1.833025 -1.304487 1.264319 -2.252501 0.365931 -0.654136 -1.283266 -1.922721 0.489514 -1.501515 0.443452 -3.496123
combining 0.713211 -2.175628 -0.864464 -0.102859 -2.602717 1.070690 0.051790 -1.569117 0.575873 -2.554050 0.545800 0.578683 -2.616445 -3.424808 -1.444157 1.227085 0.876921 -1.558755 3.185789 1.441618 2.263702 2.332245 3.222453 -2.122463 -1.721525 2.751270 1.381379 -1.103602 -0.951640 -0.162157 4.490601 0.020229 -2.942988 -2.127207 2.018674 0.938366 -2.350796 0.671181 3.351138 2.370711 -1.648487 -1.185102 0.525123 -0.778764 -5.158066 -1.769774 -4.328617 2.319526 2.165973 -1.132089 1.889463 -1.732374 0.955156 -2.112114 -1.014483 -0.709445 -0.430308 2.658419 1.843753 2.450959 0.628709 0.980385 2.035330 -0.279631
areas 2.498752 -1.817656 2.172905 4.453063 -1.425174 0.575388 0.652524 -3.026856 2.953482 -1.465425 3.901778 -3.409878 2.482453 -2.123793 -1.857828 -3.048854 0.685181 2.254671 -1.813666 0.788758 1.507068 -0.334576 0.853489 2.165813 -3.119222 -0.510574 -1.547393 0.779650 1.655561 1.471241 0.933563 -1.235647 -4.025386 1.721660 -0.472959 -2.912241 -0.085553 2.279301 1.459123 0.881861 -1.152944 -0.423125 1.666128 -1.807136 2.692594 6.074380 -1.694937 -3.710066 -1.726732 2.167158 -1.228552 -0.490408 3.698352 2.096631 2.847443 -0.674390 -2.490756 -2.866241 -1.548523 -3.211738 1.862920 -1.634294 -0.202892 -0.330735
tasks 2.143200 -1.847488 -1.983999 0.617542 -2.461182 -0.510260 -2.491306 1.230659 1.044758 -0.451395 -1.520844 -2.466342 2.657251 -1.930204 -5.804495 1.816492 0.337087 -2.035498 1.544977 0.462845 1.751742 6.439897 1.119724 -2.798276 1.428342 -4.200360 -0.659476 3.581984 0.904717 1.303374 -1.341104 0.469194 0.395057 0.874911 2.903650 -1.519569 -3.819921 -0.517204 2.650647 -0.170558 -2.579486 0.509195 -1.344873 1.764858 5.474154 3.096541 5.103606 1.505672 4.933998 2.575693 -0.663317 2.572078 -1.170823 -1.267834 -0.717061 1.555149 1.248922 -2.264870 -2.788815 -0.588155 -0.590239 -1.578038 -0.053639 1.674950
growth 3.786750 1.267419 -2.649063 6.995242 1.895642 0.880854 1.473636 -3.031360 -1.152653 2.452854 0.618227 1.740861 0.857620 -0.999255 -1.245795 3.483185 0.172610 2.845622 5.691847 -1.948161 0.449312 -2.815965 -2.421675 -1.883362 2.279042 2.113772 2.086728 -1.376479 -0.914752 4.169936 1.659084 -0.592689 -1.425372 -2.377905 1.367703 1.262009 4.331986 -0.995401 3.163889 -4.406555 2.477905 1.129178 -0.429998 -1.559137 1.950979 -1.166200 1.321123 -1.399736 -0.858003 -2.600002 2.102829 0.711265 5.212070 -2.454385 3.680840 1.408052 1.767978 0.968521 0.343829 2.776987 -1.760093 4.052868 -0.407909 0.419358
cleaned -4.057414 6.069012 5.715555 6.105032 -0.328477 0.529759 -1.059439 1.251298 -1.193903 -0.316987 -1.853216 -1.014185 1.137606 -2.168182 -1.608805 1.975557 1.250208 -1.754459 5.092206 -2.174312 -1.970291 -0.044127 -2.602026 0.447255 3.220195 0.802306 -2.693640 2.137127 -1.164496 3.983556 4.161516 -0.939959 1.326937 -1.625327 -2.387971 -0.691769 4.849991 -0.565674 3.105534 -0.799785 -2.341368 0.005067 1.900773 -2.415820 1.816742 1.065198 -1.667209 1.862446 -1.382838 1.604777 0.112512 -2.531091 5.372958 -0.421031 0.981923 -2.875343 1.453703 1.959570 2.349814 2.438177 -0.590698 0.509117 -4.641800 0.746336
researchers 1.785155 -1.719652 0.251636 -1.380096 0.422991 1.203772 -3.363738 0.219945 -0.363267 4.823508 -0.940286 -0.053548 4.255259 -1.787541 -4.502992 1.364661 -1.111168 -0.563335 0.195741 1.264096 1.177914 2.521036 -0.961454 1.754770 0.153810 -1.689807 -1.334704 1.535698 2.251019 2.951318 0.394520 0.160289 2.983370 0.094552 -0.353963 -1.993538 -3.877878 0.334651 0.128172 -2.941765 -2.448626 -2.444698 -2.782753 2.332637 3.929548 0.928104 3.161364 0.726914 3.323936 1.800580 -1.340112 2.730031 -1.072331 -2.934361 0.649771 0.926518 -1.614820 2.243273 0.300406 -0.518421 0.179810 -0.427051 -0.557160 -0.022867
relational 0.788222 -2.273120 -3.077913 -0.953478 -2.087177 -3.408106 0.866074 -1.885725 -1.845096 -4.484290 -1.065971 -0.216191 0.513606 -4.898890 0.156888 -0.016199 -2.558662 3.668319 0.053336 -2.949321 2.065827 1.811766 -2.141336 -1.915484 5.375910 1.269448 4.275500 1.653632 -2.271643 -0.951181 0.624584 0.906842 -2.671052 3.567950 0.556718 0.805079 -0.714793 -0.503058 -2.275012 2.745765 0.851289 -0.424467 1.592835 1.128354 0.763879 -0.369805 -0.770964 1.390152 3.053430 -2.969645 -1.770277 0.541310 -1.997275 1.273149 2.307868 -0.988981 -0.122063 -1.543167 1.050210 3.710954 -1.132565 -4.513141 -1.173541 -0.768112
weakness -1.684380 2.901799 -2.658827 0.994432 6.200434 -1.640915 1.566063 1.325343 1.180047 -5.124877 0.137445 -0.376895 -0.148209 1.693621 -1.155600 0.580429 0.988202 -4.635191 3.166467 -0.407819 -3.180265 -3.507906 1.852842 2.080173 1.653952 0.109294 0.051764 2.869097 0.502921 -1.897661 -0.287206 2.745194 -1.216196 0.616603 -0.300419 -0.309180 -0.271258 1.264043 -1.420174 0.790620 0.407092 -1.964649 2.601118 -0.168254 0.152880 -0.726432 6.467300 1.668896 2.164027 0.555237 1.084864 -2.890289 0.324736 1.165327 0.365919 0.006541 -0.065463 4.784856 2.559929 -2.180093 3.223385 -2.794837 0.988618 -0.194156
table -0.662404 -0.080279 0.342960 1.763350 -2.974578 -2.777635 -3.515680 0.328405 -3.525972 0.962408 2.266102 -1.253657 -3.528490 -2.692878 -1.145125 -0.329919 -2.479504 -1.762509 1.178448 -4.642775 -1.184870 1.283129 -1.462892 -1.885711 0.895495 -3.622449 0.258137 -1.528368 -1.618780 1.224733 1.454714 0.726229 1.079329 -2.942175 1.445465 1.671071 -3.693240 0.986105 -2.000608 -4.234499 0.803130 -2.016210 -0.816466 -1.920759 1.779273 -3.166070 -1.343241 -2.748001 2.689214 0.210413 1.400551 -4.570534 -2.189383 2.397056 -1.016644 -1.528908 -1.055017 -5.717217 0.372017 -2.868988 3.958591 1.776723 1.254246 -3.214201
