141 64
para -2.107220 -0.288018 -0.130469 -2.055717 0.870360 -0.310746 -0.152665 -0.573021 2.081298 2.197215 -4.466883 2.697519 -3.708507 -1.577650 -1.648894 0.748098 -0.486216 0.585585 -1.751727 0.577123 2.095184 -2.207222 -0.908138 2.272621 -1.891010 -1.919816 2.888476 2.974867 2.188366 -0.761040 1.114984 1.133165 0.833890 -0.561463 0.504238 0.812119 1.495874 -1.079929 0.440550 -1.446339 -0.244584 0.795905 2.007949 0.291793 2.298027 0.520656 -1.847566 -1.425711 -0.578248 0.380504 0.999760 0.836528 -2.900178 1.060903 0.000495 -1.848907 -0.318192 0.353680 1.638066 0.397455 0.569827 -3.529991 0.179652 2.968726
gün -1.156562 0.425885 2.988278 0.473096 -1.626573 -0.103628 0.516796 -1.677221 0.309174 1.946854 3.235502 2.157578 2.430686 -1.780158 0.113170 1.793561 -2.052639 -1.490108 -3.727084 -0.562196 0.285293 -2.239356 -0.710066 -2.528564 0.972484 -2.876816 2.223589 -0.662152 1.521122 1.266228 -0.450138 0.547225 -0.866028 -2.875382 -0.155573 1.444614 1.071731 -0.878987 0.864233 -0.967639 -0.785336 0.599903 1.624380 -0.905905 -0.381613 0.294162 -0.379893 -0.964180 1.284593 3.616514 1.269719 -2.885178 -2.563892 1.943435 -1.225905 1.928326 -1.853839 0.855881 -0.663340 -1.071464 3.740701 2.118054 -0.154168 2.338557
vakit 0.404117 -2.920729 -1.018183 -1.251621 0.537012 2.048697 2.637465 -0.964435 -0.695081 0.190659 -0.430749 0.037382 -0.020840 1.780325 1.003127 -4.614823 0.098239 3.275815 0.443125 -2.195898 0.113824 5.393098 0.512844 -0.823611 1.070079 0.553632 1.064009 -1.750638 -1.168865 -0.114246 -0.193811 -1.834226 0.469001 -1.199007 -1.448491 -0.235038 0.094298 0.686597 -0.046423 -0.618548 1.733242 -1.316152 -0.330828 -1.713212 0.682074 1.340160 0.196217 0.909630 -1.746828 -0.212131 2.369556 0.854478 2.337813 -0.790519 -2.009703 -0.734314 2.614107 -0.932803 -0.506702 0.524407 1.929482 1.210843 1.299615 0.217175
tarafta 1.676160 -2.358232 -0.741119 4.098973 1.755161 1.795720 -0.811017 0.024101 0.156375 -0.605696 0.999451 0.390492 1.691857 -1.136319 0.475330 0.308471 1.757095 2.453345 0.532051 1.910478 -0.038533 1.286073 1.185036 0.574585 -3.658111 0.369046 0.774824 -2.285430 0.021863 1.072663 1.029164 -0.217355 1.032339 -0.730712 -0.567847 -1.455715 -1.731458 0.663295 0.826517 0.753056 0.011736 -1.583032 0.160351 1.664459 -2.205644 -1.480885 -0.509469 1.059072 -1.044195 -4.004368 -2.585732 -0.101353 0.894738 -0.878168 -0.327356 0.852168 0.803518 0.964240 0.186912 -1.190764 0.447041 0.715924 2.462082 0.915385
zaman -0.422341 2.605305 0.306208 -1.278770 -1.256235 1.150281 2.888543 0.642695 -1.926405 -0.245579 1.446228 0.142801 2.254926 0.376871 -1.240181 4.420725 -0.354089 -2.384786 -0.043348 0.738747 -1.028429 -0.802659 -0.342165 0.271577 3.292118 -2.109452 1.308370 0.108776 -0.941918 1.967442 -0.592897 0.821751 -0.992477 -3.559995 -3.009583 1.278464 -0.486854 0.781424 0.084614 1.247191 -2.107854 0.312007 0.556872 -2.067276 0.728684 0.150896 -0.486497 1.181154 2.879800 1.040562 -1.255055 -0.888502 0.843909 0.696370 -0.643857 -1.116885 -1.958963 -1.804153 1.885571 -3.540109 -0.104629 1.567667 1.078820 -0.152083
diyerek 0.604072 1.675241 1.211619 0.076651 -2.693312 0.765205 0.381393 2.077720 0.153472 -0.012334 2.178890 1.766981 2.201996 1.046549 -0.171927 4.947508 -1.505284 -2.232610 -0.886755 -3.516444 -1.666969 -1.319733 0.090620 0.668605 1.310889 -1.015756 3.753886 -0.192929 -1.810443 1.677662 -0.560231 -1.074481 -0.681594 -2.081362 -3.866002 1.146800 -0.574181 -1.656528 -1.364988 0.388522 0.508003 0.210677 0.253269 0.613141 0.684061 0.495988 -0.531154 3.099213 1.538682 0.223700 0.973743 -1.069349 1.456747 -0.006079 -0.394466 -0.818143 -4.865786 -0.952156 1.488487 -1.376317 -1.367291 0.602381 -1.659320 -3.124480
olmuş -0.441171 -4.263425 -0.543906 -4.304828 1.498784 1.531234 0.530020 -1.829244 0.722788 1.769166 1.167681 -0.331690 1.646816 -2.803179 -2.574847 -2.095969 0.520431 3.424560 1.764138 -2.095498 0.361849 0.187050 -1.301324 -0.890818 -0.085968 -0.976181 0.887103 1.470095 -3.911184 0.139917 2.807056 -3.687937 0.386478 0.252065 0.837744 -0.439665 0.576608 2.096705 0.302148 2.867701 -0.075191 -0.145690 -0.029653 1.749578 2.303357 2.143346 -0.580319 -2.042374 -0.320136 -0.023290 0.743904 0.565044 2.420925 -0.042671 -0.299739 -1.558211 3.312554 2.445245 -0.715057 -1.539809 -0.334453 -1.157691 0.306835 0.074568
talebe 1.295850 -3.549768 -1.670002 -0.507178 -1.161452 4.091084 2.709552 -1.151632 -1.097899 0.232692 0.215020 1.088064 -0.229250 0.027065 -1.172909 -4.450773 0.428725 2.766932 1.143736 -1.258279 0.984728 3.272685 -0.349702 0.771865 -0.925690 0.226337 1.829720 -0.558966 -3.836291 0.378883 -0.333230 -1.822570 -0.079753 -1.147814 0.251905 -0.801655 -0.628384 1.847306 -0.109408 2.654699 2.170406 -1.726488 0.716862 1.044394 0.313695 1.296367 -0.516568 0.267321 -0.238746 0.371457 0.226290 1.365253 2.930478 0.608461 0.136312 -1.064907 3.933885 0.615621 0.303424 -1.097821 1.262550 0.170401 0.586304 1.895518
mazeretler 0.862066 1.089815 3.214315 0.878945 -2.145921 1.318623 1.406606 0.969986 -0.089407 1.065188 -3.397736 -2.358936 0.982475 -1.032577 0.780127 0.008221 0.251377 -1.893672 0.184788 0.162792 2.421439 -0.305807 -0.919109 2.378523 0.787313 2.422740 -1.657813 1.399809 1.603727 -1.133028 0.050226 0.623792 -0.330049 0.998548 0.965585 0.664349 1.812028 0.131900 1.884662 -2.173001 -0.714509 -1.310560 0.709793 3.844690 0.943495 0.470717 -2.418765 -2.798384 0.316453 -0.540149 0.944415 -2.078371 -0.852206 -3.637933 1.284809 2.071432 0.424083 -3.783849 1.517323 1.142352 -0.112728 -0.933175 0.633303 2.309480
uzun -2.182935 1.805030 0.379955 0.076328 -0.887421 0.419251 -0.267208 -0.660788 1.324806 -0.748171 2.765484 0.985982 0.672958 2.415088 1.610481 -0.384970 0.682090 -0.464928 1.163127 1.749852 -2.611243 -0.515821 -1.115579 0.544037 -1.151686 0.198001 -0.170500 1.069004 2.836786 -3.065101 1.230648 -0.591950 -2.812127 0.110901 0.897472 0.406089 2.137188 0.428685 0.437603 -1.584849 0.862340 -0.757867 0.148732 -1.696519 -3.683352 1.132448 -1.117021 -2.243195 0.548639 -0.134055 -0.951229 -0.299102 -0.616862 0.967240 0.024745 -1.253080 1.240992 2.278914 -0.763451 -0.895688 1.091398 2.328372 -2.666720 -0.106282
miktar -0.618052 0.948463 0.879743 -0.213033 1.421173 1.265014 0.037706 -2.192291 1.361553 2.470970 1.661279 4.069927 -1.253045 -1.941180 -1.768319 -0.658657 -3.210212 -0.582561 -3.043835 0.005911 1.778028 -2.336924 -1.177783 -2.169807 -1.635026 -3.654110 -1.333471 2.212213 2.011133 1.528676 0.243988 2.509377 1.981022 -0.818864 -0.109931 3.413348 2.051879 -1.220791 -0.846492 1.987422 1.056014 1.066450 0.622087 1.340142 1.258022 0.414152 0.045461 -1.728671 -1.088152 0.097225 0.072225 -2.300805 -2.427132 3.007867 -1.912564 -0.546427 -2.439916 -1.147089 0.461607 1.054721 2.893086 -1.927842 0.105192 3.584161
saat -2.420487 -0.097307 2.055767 1.192356 -2.813313 -0.827332 1.616699 -1.664127 2.343400 -0.000821 3.969228 1.504674 2.829417 -0.362622 1.347020 0.807606 -0.395445 -1.056237 -2.752604 -0.129961 -0.103134 -2.013226 0.489927 -1.676056 -0.199174 -1.238513 0.521682 0.799557 1.373820 -0.191758 -0.946783 0.559339 -2.640733 0.312479 -0.728051 0.882549 2.137657 1.698860 1.045992 -0.795331 -0.225004 1.606125 1.836508 -2.801545 -2.687245 -0.027603 -2.323369 0.001166 1.906250 1.483791 -1.281433 -1.768209 -3.393641 1.336242 -0.962149 -0.969454 -0.001849 -0.276642 -1.555527 -0.888520 3.351316 -0.019750 -1.172203 1.153888
dakika -2.244544 0.444278 1.228204 0.352469 -2.599760 -0.799043 1.509668 -0.597721 2.291590 -0.578390 3.501630 1.588799 2.847429 0.865692 2.159752 0.725038 0.218603 0.211047 -1.755898 0.326166 -0.106951 -1.983932 0.051653 -0.896163 -0.762129 -1.310965 -0.089410 0.541290 2.573837 -1.063534 1.099681 -0.377408 -3.392069 -1.028842 0.808885 -0.202595 2.497165 1.269162 1.083256 -1.222102 0.139444 0.250381 1.693510 -3.554245 -3.008770 0.265047 -1.850803 0.069630 1.573115 1.621974 -0.833271 -0.966819 -2.724658 1.262524 -0.333650 -1.020004 -0.060868 0.082131 -2.082175 -1.186283 3.218004 0.768740 -1.496036 0.567469
hâl 3.332256 2.882365 -2.425180 -0.113563 -0.199993 -0.216731 1.177863 0.959104 2.766975 -2.239301 -1.081008 -0.250593 2.589158 1.650267 -0.554034 -0.654466 0.694071 -0.050616 -2.441201 1.253369 -2.074828 -1.377784 0.445175 1.211494 1.172358 2.299304 0.261619 1.181267 -0.502330 0.460573 0.651366 -2.223665 0.331394 0.530535 -1.019450 -1.443321 -2.362036 -0.428937 0.434075 0.947594 -1.281547 2.711904 -0.491362 0.074541 -0.069734 -2.330650 1.373747 0.994125 -0.279167 1.952831 1.414632 0.907679 1.735678 -1.326381 -0.219934 0.224343 -2.201680 0.298104 1.859722 -1.403425 -1.782807 0.988997 -3.799596 -0.468569
olunca 2.338006 2.392633 -1.147136 -0.473357 -1.515106 -0.606249 2.277145 1.727851 1.373608 -2.622419 0.006507 0.126530 3.948812 1.727231 1.448427 0.759941 1.296209 -0.208637 -1.330066 1.363970 -1.037658 -2.922186 -0.059422 0.502667 -0.586622 1.544059 2.181546 0.504067 -0.389320 1.277682 -0.117621 -0.791130 0.378961 -0.251082 -0.608129 -1.731001 -1.563776 -1.587034 -1.023911 -0.404066 -1.336146 2.460142 -1.938972 0.907757 1.357307 -2.121894 2.079288 1.506946 1.140207 1.476973 0.669761 0.171457 2.280594 -0.883522 -0.451831 -0.636648 -2.171198 -1.107336 1.541990 -0.249439 -2.125297 0.790138 -2.844108 -0.640712
alacaktı 2.076108 2.685283 -2.327142 -0.583515 -0.850980 -1.328519 0.455551 1.553217 1.312103 -2.916794 -0.136374 -1.037594 3.009073 1.223100 1.846391 -0.476976 1.530629 0.265926 -2.380015 1.167036 -0.360789 -1.713174 0.136068 -0.089125 -0.946473 1.110955 1.506048 1.655703 0.139469 0.532457 -0.999019 -1.468189 0.799077 2.045339 -0.269800 -1.985601 -0.837930 -1.223183 -0.977053 0.281066 -1.442815 1.445943 -0.731276 0.326430 0.909467 -2.025767 1.332682 2.164881 0.276752 1.313483 0.839188 0.247754 2.664787 -1.263480 -2.141341 0.772373 -0.648523 -0.065385 0.376345 0.780459 -2.912095 -0.171013 -2.569249 -1.147003
kişiye -0.186141 -0.456565 -0.320451 0.925198 1.188954 -1.426205 1.015890 1.507296 -0.862506 -1.446630 -1.404589 -3.958390 -1.652739 0.616006 1.867761 -1.687095 -1.079197 -3.204585 2.059005 -0.696817 1.721373 1.042834 1.525372 -2.199695 -0.576204 0.139397 -2.930026 -1.978919 0.718383 -1.430637 -1.599755 -1.550619 1.138167 -1.449186 0.497975 2.295358 -0.811965 -0.454675 -1.299725 0.381200 0.525081 0.285549 -0.449670 -0.931056 0.469167 -1.475023 1.965591 1.845669 1.534808 -0.286712 -1.276578 1.582115 -0.284319 1.630020 0.113902 1.201517 1.062022 -0.264520 1.308423 -0.359649 1.273882 -0.040233 -3.087360 -0.869107
olurdum -0.385181 -1.485289 0.563913 -0.056812 -0.028707 -1.514982 -0.358449 2.124330 0.764776 -1.182738 -1.270437 -3.149434 -1.524268 -0.107890 0.022265 -0.733093 -0.687902 -1.589441 3.224262 -0.960088 1.900182 1.593276 3.328761 -0.092999 -0.609528 0.824903 -2.041154 -2.723989 1.920708 -2.050899 -0.973174 -1.558499 0.077418 -0.582922 0.733993 1.045997 -1.084996 -0.708024 -1.017691 0.006303 0.247767 2.149762 0.065204 -1.686734 1.505801 -1.715656 2.332483 1.271609 0.791792 0.776277 -3.085959 1.389076 -1.754216 1.412971 -1.074813 0.904997 0.581564 -0.279356 2.228177 1.316934 1.529585 0.756307 -1.486112 -0.997310
almasaydım 1.877803 3.603894 -2.806383 -0.523784 0.145644 -0.938922 -1.599502 1.343300 0.358150 -3.491064 -0.546256 -0.629143 1.670990 -0.469034 1.029900 -1.460561 1.809204 -0.006034 -3.040428 0.138724 -1.158523 -0.675231 0.272915 0.504135 0.100031 1.055833 0.026998 1.349056 1.114397 0.246711 -1.192983 -2.019946 -0.290682 3.123367 0.176258 -2.675171 -0.042992 -0.690231 -0.762117 0.948115 -1.330830 1.476938 0.025814 0.020064 0.455381 -2.233528 0.289854 1.965166 -0.432899 1.132217 0.328080 -0.358877 2.803857 0.120789 -2.841937 2.107828 0.568111 -0.152325 -1.016369 1.110378 -2.355313 -1.341369 -2.107583 -0.947514
yoktu 0.678163 2.504001 -2.549762 1.262092 0.201057 -2.103104 -0.764703 0.937003 -0.665306 -2.584132 0.158553 -0.858483 0.444142 1.034635 0.500573 -1.148532 2.716356 0.841499 -3.314049 0.978119 -2.043939 0.249163 0.859768 1.864707 0.616437 1.533842 -0.114911 0.928858 -0.246722 0.531143 0.512197 -1.148720 0.861136 1.948732 -0.905292 -2.775710 1.598352 -0.962863 -1.145721 1.788066 -0.649025 1.920411 1.514116 0.518398 0.443559 -1.492119 2.324874 1.245915 0.514744 1.476205 0.036324 -0.330879 0.916485 -1.734425 -2.733482 2.056505 0.762379 -0.569781 -1.409415 0.136145 -1.854163 -1.736553 -3.025366 -0.911293
kemiren 1.337766 2.636210 -1.612480 0.703074 1.090316 -0.337694 -2.922748 1.188825 -0.507710 -0.469077 0.835051 0.187947 -1.753292 1.247202 -0.984873 -0.561383 2.781358 1.256899 -1.215424 0.604497 -0.103500 1.579337 -0.627701 2.059274 2.427117 0.513692 -1.444085 0.341269 0.905661 0.277786 0.593184 -0.052345 -0.964071 2.690828 0.118249 -2.216016 1.076412 0.355520 -2.196935 0.293565 -1.447570 2.913812 2.185876 0.204226 -0.017026 -2.673947 0.902680 2.967206 1.576366 0.469153 1.524072 -1.095402 0.849437 1.557824 -2.131927 1.869660 1.076864 0.073713 -2.085294 1.627574 -2.470340 -0.412841 -1.172074 -0.733803
başkası 2.344535 2.806829 -2.325076 -0.110560 0.526608 -1.460487 0.264018 0.542375 1.067818 -2.928391 -0.917399 -0.405631 1.884462 1.604697 0.390863 -1.326826 2.546319 0.069613 -3.200125 1.626158 -2.807165 0.117482 0.819758 1.727972 1.017032 2.499998 -0.490065 1.204769 -0.645631 1.522595 1.034097 -0.880628 0.400108 1.471634 -1.523522 -1.955922 -0.098968 -0.986830 -0.084358 1.193539 -1.344914 2.639085 0.161723 0.527717 0.060599 -2.000624 2.411275 0.233711 0.158194 2.339442 -0.147595 0.715297 1.289334 -0.912981 -1.716451 1.297357 0.168942 -0.145741 -0.260582 -0.125648 -1.866522 -0.459427 -2.900099 -0.477425
soruları 0.616988 1.658214 -2.402604 1.674020 0.114228 -1.304502 -1.264217 0.750041 -2.292057 -1.563028 1.062897 -0.891530 -1.254655 -0.105793 -0.426272 -0.624185 2.369046 1.970385 -2.348079 0.779645 -0.431089 -0.587102 -0.119314 2.688751 1.436615 0.563825 -0.988654 0.387947 1.426285 0.775203 0.111185 -1.537403 0.443152 2.086829 0.452962 -2.718599 2.588554 -0.123954 -1.209211 1.619352 0.189408 1.826380 1.716020 -0.211792 -0.178129 -1.858486 1.400068 1.306179 0.514015 0.955878 1.739623 -0.881724 0.447736 0.368116 -3.136189 3.087038 0.630191 -0.524477 -1.280311 0.750230 -3.212379 -0.488205 -2.122387 -1.539767
olsaydım -0.885091 -1.819193 -2.093941 -1.087430 0.173934 -0.519519 -2.198166 2.209354 1.910615 0.559322 -0.785306 -3.993136 -0.828886 -0.302214 -0.594538 -0.953729 1.711826 -0.848466 1.861552 -2.065972 1.517382 -0.620754 1.242715 -0.478378 -0.059886 1.145410 -3.093418 -0.742475 0.859031 -1.549366 -2.263286 -0.330947 -1.067144 -0.677939 -0.669944 1.878271 -1.396640 -1.937453 -1.397059 -0.562495 1.782516 0.891163 0.173657 -2.096904 1.365268 -2.829041 0.944642 1.093351 1.793720 0.052314 -2.075109 2.188908 -3.490847 -0.097426 0.346429 1.123340 0.955732 0.989156 1.891842 -0.851824 0.896326 -1.031252 -0.832750 -0.456438
çevrede 1.819916 3.510968 -2.591431 -0.078001 0.078823 0.166369 -3.182114 1.782276 -0.507713 -2.691150 0.266157 0.145501 -0.196319 0.051372 -0.488667 -1.211415 2.000948 0.229788 -2.128855 -0.627998 -1.578367 0.863474 -0.122907 1.169805 1.582345 1.841040 -1.040577 0.452938 0.839011 0.556187 0.384664 -0.992220 -1.343879 2.973067 0.931430 -2.739423 0.618019 -0.499811 -1.561059 1.070628 -1.416500 2.950401 0.847459 0.382331 0.199191 -2.024483 0.331989 2.392179 -0.014919 1.153061 0.199297 -1.097621 2.047643 1.084808 -3.095340 2.198954 0.606575 0.567935 -1.617525 0.794660 -1.975530 -1.257777 -2.117525 -0.991175
mutlu -1.082566 -2.281990 -0.723301 0.406425 0.918235 -1.144047 -0.097406 1.923655 0.633991 -0.277726 -0.865342 -3.830432 -1.645284 0.486389 1.212557 -0.635321 0.200677 -2.056809 2.593838 -1.116395 1.014569 0.175339 1.181500 -0.814708 -0.338581 1.263168 -3.230146 -1.339476 0.444044 -0.871891 -1.996369 -0.205272 -1.056028 -1.013129 -0.436247 1.947250 -1.328109 -1.934478 -1.111070 -0.321395 1.138610 1.447024 -0.469353 -2.055342 1.202642 -1.354822 1.767059 0.608996 2.147104 -0.069772 -2.039800 2.002558 -1.882306 0.577862 -0.204374 1.913743 1.887697 0.273223 2.718400 -0.723814 0.828803 -0.530730 -2.942309 -0.661019
yardım 0.077048 -1.071105 0.058568 0.965027 1.186335 -1.102331 0.476644 2.005080 0.163204 -1.122727 -0.108336 -2.361824 -2.148247 0.162401 1.197415 -1.221019 -2.189131 -1.870688 3.453963 -1.249002 0.950981 3.002897 1.950893 -1.371674 -1.224204 1.123152 -2.163613 -2.534696 1.220007 -1.635271 -1.085567 -1.643401 0.693192 -0.039163 -0.568483 0.261266 -0.144320 -0.597397 -0.677778 0.315883 -0.124495 1.414367 -0.136618 -0.933111 1.055404 0.005977 3.048644 1.979721 0.276042 1.432142 -1.707411 1.164983 -1.760972 1.969487 0.471415 -0.230523 1.317065 -1.670928 1.717636 1.338855 1.218855 1.718749 -2.480187 -0.170234
vicdanını 1.050782 0.543698 -1.603385 1.350538 0.251614 -0.504133 -1.970797 0.364452 -2.511549 -0.660651 2.043500 -0.403243 -2.078799 1.220892 -0.345515 -0.412726 2.640508 1.214223 -1.544649 -0.038376 1.171176 -0.564973 -1.056035 2.580094 0.942475 0.453948 -2.035585 1.124183 1.324372 2.204085 1.332952 -0.331599 0.045459 2.663821 0.313687 -0.817121 2.254070 -0.215644 -1.182097 0.104864 0.288595 1.654635 1.280062 0.170162 -0.445490 -1.925306 0.730597 0.992120 0.992630 1.457680 2.351053 -0.596247 0.827339 2.209368 -1.986389 2.663361 0.512959 0.541253 -0.589810 1.872993 -3.954862 1.646688 -0.887517 -2.373703
yerinde -0.753232 -1.990389 -0.049466 -0.624073 0.342997 -1.015520 -0.628232 2.887516 0.405725 -0.705250 -2.751589 -4.031956 -0.982009 0.329496 -1.293367 -0.808049 0.812335 -0.807748 2.462924 -0.224952 2.210356 -0.537355 3.626779 0.107607 -1.518653 0.154115 -1.888239 -1.144794 1.242510 -0.769509 -1.563727 -0.849117 -0.764642 -0.145037 0.791307 2.275759 -1.418843 -1.103736 -0.471031 -0.527456 0.654913 0.355175 -0.413607 -2.261298 1.779890 -1.447566 2.070008 0.121495 0.792099 0.067907 -2.540828 1.135445 -1.976877 1.602088 -1.315590 2.048751 0.003328 -0.392374 2.344163 -0.380311 1.888566 0.855769 -1.330762 -0.896581
memnun -1.326055 -0.811251 -0.577269 -1.477861 0.337063 -0.443069 -1.330793 2.513467 0.105693 -0.860102 -2.039632 -3.322430 -1.439825 -0.052462 -2.605971 -1.175742 1.873275 0.439242 3.082529 -0.329063 2.164626 -2.283351 2.925680 -0.463224 -1.845221 1.223531 -1.345656 0.888188 0.400564 -0.666159 -1.423968 0.253315 -0.953514 0.515823 -0.502661 2.908153 -1.250501 -2.468422 -0.428722 -2.070719 1.120338 -0.554274 -1.020095 -1.298203 1.302833 -0.941711 1.729314 0.363549 0.752651 -0.448845 -2.125474 1.960421 -3.371168 1.474422 -0.398723 1.612309 0.172440 0.230070 1.796313 -1.199522 0.397509 0.535908 -1.066251 0.301876
bekleyen -1.272051 0.504465 0.733357 0.241783 -0.170491 -2.484195 -2.104487 -1.133638 0.061046 0.327898 0.705665 -2.060189 -0.470755 -1.090252 -0.591684 -1.117573 -1.421393 2.398587 -1.832298 2.732172 -1.799475 0.587740 1.254130 -0.780291 1.418372 1.947230 -2.741833 -1.642035 -1.527717 2.051071 -0.353965 0.712590 -1.241663 -0.010353 3.647710 -0.520225 -0.183816 -1.831611 0.121768 -2.258846 -0.914429 -0.465993 0.409934 -1.214743 -1.389329 3.152749 -0.630046 1.595230 -0.358048 -0.262466 -1.713655 2.681875 1.588163 -1.072422 3.098442 -1.379012 -2.617181 -1.712780 0.843383 -0.127816 -1.811478 -0.237157 0.218735 -0.312215
kedi 0.975216 0.030397 -0.539609 2.534198 0.356254 -2.894655 -2.036547 -1.182769 -0.517107 1.693781 1.674380 -2.949060 0.765816 -0.790492 -0.537748 -0.696472 -1.882509 2.320580 -0.409859 2.518581 -0.243448 1.647458 0.269358 -0.691994 0.298450 1.725345 -0.151239 -2.052752 -0.963304 2.926854 -0.589002 1.949810 -1.567179 0.029969 2.897382 0.271246 -0.464674 -1.536367 -1.160185 -3.723898 -0.264330 1.118096 0.733931 1.017399 -2.300835 3.057929 0.446068 1.101058 -0.700512 -1.351352 -1.915160 1.376277 0.797543 -0.982738 1.519165 -0.818409 -1.503675 0.496327 1.019624 -0.236365 -1.494990 -1.084909 0.883358 -0.290793
köşesinde 0.253136 1.130625 -0.712466 1.888656 -0.835073 -2.406706 -2.159860 -2.394998 -1.094959 1.368015 1.226033 -1.850195 0.343070 -0.649101 -0.362032 -1.325015 -2.058707 2.124761 -0.223174 1.858682 -0.444145 0.647273 1.939235 -0.571050 0.423392 0.320632 -1.282016 -2.474642 -1.612746 2.470204 -0.366245 1.205602 -1.544215 -0.381984 3.498368 -0.243700 -0.704687 -2.065367 -2.118143 -2.458827 -0.243389 2.014864 -0.165414 0.697125 -2.166117 2.575174 -0.704340 -0.513104 -0.649866 -0.652725 -1.092991 1.615901 0.384502 -1.102611 3.114367 0.720515 -2.520839 -0.815924 -0.390861 -0.286920 -1.402506 0.322061 0.572014 0.001312
almamın 2.353715 2.577082 -2.521050 -0.333769 -1.646340 -0.376566 1.223427 2.086118 1.332749 -1.192853 0.397924 -0.114894 2.717521 2.006772 -0.366500 1.777535 -0.721762 -1.675605 -1.176364 -0.012104 -0.894348 -2.145287 -0.628419 0.882433 -0.152421 2.190984 2.066195 0.600803 -1.058535 0.955105 1.738672 -2.250637 0.791057 -0.143141 -1.111409 -0.636832 -2.667605 -0.032311 0.262405 0.411599 -0.868949 1.875766 -1.207130 -0.254459 0.276430 -1.151865 1.086034 1.967108 1.156369 2.404656 1.387055 -0.433151 1.729073 -2.750417 -0.564863 -0.597432 -3.415210 1.017116 3.139631 -1.831527 -1.696326 1.601706 -3.137269 -0.704194
dalda -0.689728 0.788356 -1.582553 1.832734 0.604159 -2.078852 -2.842785 -0.314440 -0.003606 0.671535 1.384272 -1.506017 -0.180325 -1.723586 0.169766 0.452067 -0.603273 2.592695 -1.112405 2.420718 -1.436437 1.372740 -0.018715 -1.020234 0.282004 2.196884 -1.719825 -1.697766 -1.683782 2.246867 -1.225212 1.416995 -0.437087 -0.409176 4.125821 0.109053 0.061270 -0.655812 0.720205 -2.422316 -0.264469 0.497822 -0.087423 0.337417 -1.959601 2.256466 -0.275513 2.009438 -1.568677 -1.495289 -3.357773 1.871128 2.073736 -1.392203 1.881283 -2.203779 -1.375935 -1.662889 0.575645 0.136630 -0.781072 0.799766 0.690353 0.115804
zarar 0.260336 0.401651 0.560942 0.893545 -0.003434 -1.979464 1.121418 1.978682 -0.575572 -2.271139 -0.782831 -3.110288 -1.718375 -0.958430 1.909890 -2.717150 -1.441058 -2.423439 1.761661 -1.084895 1.619568 2.869183 1.621232 -2.337355 -0.958789 0.762633 -2.229032 -2.429809 0.553641 -2.795828 -1.539682 -2.889491 1.627300 -0.931664 -0.071264 1.858714 -0.670282 1.015183 -1.784965 -0.616083 0.894771 -0.026589 -0.561122 -0.326050 0.308162 -0.828381 2.210265 1.571360 0.605177 -0.137667 -0.381967 0.435219 0.017810 2.013534 0.141922 -0.627690 1.082519 -1.373899 0.399215 0.151925 1.254336 0.812189 -1.847895 -0.737076
arkadaşım -1.198201 -0.429115 -2.954342 -2.502153 1.481304 -0.405352 -1.793212 1.619909 1.518867 1.289443 -1.828303 -2.941194 -1.273759 0.947786 -2.911830 -0.957971 2.676921 0.524183 0.587377 -1.907140 1.759347 -2.589139 1.676356 -0.711534 -0.616007 0.761173 -1.965173 1.067794 1.091886 0.077603 -1.432636 0.319205 0.425273 -0.479633 -0.755831 1.033226 0.247554 -2.130989 -0.773562 -1.106130 2.368181 -1.055035 -0.825720 -1.384883 2.011341 -2.738816 -0.242274 1.547843 0.218090 -0.325838 -2.342056 2.349680 -3.951584 0.682452 -0.191135 1.099806 -0.563034 1.061242 0.948733 -1.321056 1.826149 -0.680898 0.517702 0.691086
vermez 0.729039 -1.069878 -0.397028 1.330166 1.173037 -0.241703 0.915453 2.318854 -0.411762 -1.447012 -0.091402 -2.650930 -1.935092 -0.384938 2.366564 -2.352560 -2.397055 -1.825910 1.882278 -0.592365 0.094944 4.288957 0.663282 -1.229926 -1.384472 -0.010522 -2.578950 -1.489634 0.187411 -0.619157 -1.031526 -2.578371 2.384604 -0.250203 -0.548829 0.124597 -0.312912 0.452904 0.008548 0.646512 -0.933692 0.158978 0.184580 -0.484857 -0.092599 0.736100 3.279124 2.064249 -0.202450 1.360830 1.266481 0.356951 -0.916937 1.709542 1.274943 -1.686083 0.933772 -2.080759 0.592374 0.095345 2.098207 2.519907 -2.260574 -0.634044
zîrâ -3.158377 1.690404 -0.162930 0.903917 -0.507801 0.968688 -1.247230 1.733433 -1.670248 -0.844657 -1.465662 -0.494498 0.527745 2.497301 1.056428 -0.175682 -0.289569 -0.489294 1.965830 1.661161 -3.764257 0.304603 -3.193501 -1.038363 -0.158523 -0.410323 -0.597582 -0.702095 2.131655 -3.422908 0.490138 1.752885 -1.522442 0.914205 -0.358664 0.027747 1.986607 0.941642 -0.514416 1.067086 2.140170 0.156998 0.921069 -0.224618 -2.412198 0.658310 0.654922 -2.712785 0.072981 -0.364378 0.458983 1.115477 -0.195706 -0.431213 1.773143 -1.656396 -0.031226 3.681304 -0.217937 -0.952139 -0.811866 0.778440 -1.203453 -1.294902
saçakta -1.457615 0.197751 1.060451 0.704545 -2.389241 -1.173642 -1.664049 -3.815905 0.057436 0.774012 0.446152 -0.833379 -0.832274 0.263201 0.786233 -0.073227 -0.313958 -1.035989 -2.175519 2.600544 -0.277976 0.375909 2.242164 -1.475161 1.233401 -1.364237 -0.526925 -1.296974 -2.781711 -0.326301 -2.269449 -1.383919 -1.678300 0.340188 1.452599 -0.280808 -2.553638 -1.827163 -0.184559 -0.583255 -0.122718 3.214700 0.006041 -1.372542 -1.379456 0.156108 -1.619670 -0.769641 0.284783 1.685353 -1.251444 -0.661655 0.587921 1.564816 2.614069 1.061036 -2.343327 0.775303 -1.968539 0.300328 -1.134232 0.911479 1.508988 2.828665
cüzdanını -0.423660 -0.665282 1.895341 -2.246648 0.524800 0.187598 0.870312 -1.111911 -1.315750 0.415228 -1.205928 -0.161490 0.483436 -0.238354 -1.885407 3.529459 -0.009164 0.545388 3.201768 1.216872 0.722229 1.140069 1.308047 -1.908634 1.675745 -1.702392 -0.720770 1.820585 -0.724809 0.958759 0.828322 -2.562906 1.121727 -1.379145 0.068814 -3.450087 0.673521 3.138000 0.830789 1.368442 -2.267739 1.034544 -2.631414 0.301505 0.079297 2.579135 -0.936096 -0.328980 1.527909 -1.273790 -0.100624 0.771857 2.201887 1.354516 -2.139785 -0.005611 1.723150 -0.829830 0.055420 -4.350722 -2.301251 -0.335376 -0.162781 -1.470757
önceleri 0.117053 1.623802 -0.457237 0.742399 2.685572 -1.520176 -2.215187 0.648099 -1.766999 0.121978 0.776790 0.520135 -2.262557 -0.048000 -1.181526 -0.342907 2.952899 0.765690 -1.376702 1.512153 1.838328 1.171070 -0.777007 2.743197 1.789193 -1.284958 -1.024143 -0.154145 0.418365 0.914658 0.438998 -0.156542 -0.865015 3.258893 -0.448164 -0.641999 1.788543 1.783504 -1.185897 -0.115615 -0.276080 0.928505 1.942331 -0.843927 0.267331 -2.467511 0.610934 2.323668 2.326362 0.150766 1.481871 -0.834334 0.938836 2.884439 -0.716066 2.789256 1.996613 -0.419877 -1.232363 3.113655 -2.640689 0.834563 0.324402 -1.272609
yapacaklarını -2.860949 1.584997 -0.851830 0.185846 -0.050592 1.004160 -2.030079 2.785845 -1.548565 0.208899 -3.250651 0.463320 0.343649 1.817415 -0.277277 0.724859 0.399358 0.035889 1.295931 2.746433 -2.538359 1.122640 -3.472607 -1.561400 -0.887897 -0.140052 0.422846 -0.299265 3.238398 -2.724614 0.801207 2.759249 -0.105419 1.241445 -1.107068 -0.682525 1.366643 1.111062 -1.685192 -0.143986 2.079092 0.564260 -0.018078 -1.679840 -1.496024 1.772241 0.494362 -1.911078 -1.043234 1.046077 1.841721 1.480260 -0.676086 -0.019459 1.408805 -1.539987 -0.707874 3.819902 -0.282570 -0.589857 -0.714241 -1.336809 -0.184141 0.411003
birinin 0.495254 0.180194 1.675779 -1.725637 0.099015 -0.535414 -0.628670 -0.050913 -0.952991 -0.166914 -0.035599 -0.178866 0.776813 0.056913 -1.158508 3.106070 0.031271 -0.359691 2.458936 0.265459 1.292024 0.834633 -0.740816 -2.255216 2.132697 -2.343768 -0.451723 1.184216 -2.009497 -0.234816 -0.434366 -1.748914 -0.027755 -2.582685 -0.011098 -3.422965 0.794701 2.381083 0.705429 3.264064 -2.222907 0.824298 -2.230819 -0.181393 0.571384 1.832049 -2.235910 -0.657095 -0.032710 -0.150885 -1.762716 0.049331 0.982753 0.529079 -1.985451 -0.322176 1.164833 -0.886284 1.019068 -3.882782 -2.323394 -0.738011 0.947460 -3.807210
şaşırmışlardı -3.517605 2.308434 -1.075894 -0.106187 -0.698316 0.723985 -1.424825 1.423813 -0.746175 0.793598 -2.574148 0.993357 0.737709 1.566692 2.066638 0.397429 0.227097 -0.360940 1.321440 2.836853 -3.094982 0.037740 -2.994595 -0.334572 -1.523718 -1.271595 -0.827102 -0.249878 3.106253 -2.295649 -0.202022 0.358458 0.279437 -0.137345 -0.504951 -1.520762 0.148775 1.189620 -1.512642 -0.034334 2.348717 -1.560441 -0.441134 -0.889589 -0.915394 1.370188 0.253928 -2.504111 1.149213 0.228237 0.402323 2.080906 -0.139663 0.361382 2.223046 -1.181662 0.050210 2.965275 -0.430557 0.440955 -0.263585 0.386061 -0.881482 0.006916
rahatsız 0.663711 1.627646 1.556936 0.709455 0.775629 1.159251 1.078753 -1.247930 1.405936 -0.113560 -4.172872 -1.231208 -1.636300 -1.693633 1.792195 1.255204 1.098571 -0.309179 1.270844 -2.259648 0.923651 -1.309895 0.656280 1.202707 0.571046 1.631308 -1.040386 1.393640 0.352814 -1.098771 -0.190047 2.254935 0.526597 2.968187 1.229695 0.471470 1.662471 -1.354249 -0.246574 -0.991573 0.220568 -0.024942 0.563981 1.362420 -0.078783 1.740964 -2.876882 0.461495 -2.393487 -0.375500 1.187929 -4.749229 -0.681291 -1.653421 1.203675 1.046157 1.627724 -1.143853 2.759841 -0.755386 -0.510423 -0.119238 -0.320193 1.814314
idareciler -2.970266 2.701624 -1.291017 0.004808 0.856178 1.053964 -1.372563 2.395564 -0.818782 0.862706 -3.793329 -0.078952 0.245182 -0.494130 0.653326 0.329534 -1.759457 -0.506650 0.229972 3.164976 -1.767988 -0.198772 -2.985271 -0.030391 -0.986005 -2.912973 0.593245 -1.285423 2.026340 -2.105172 0.862116 0.826876 0.692477 1.344495 -1.687342 -1.394223 0.995308 1.838488 -1.719105 -0.354238 1.805358 -1.234042 -0.943000 -1.563553 0.186414 0.639170 0.452133 -2.377201 0.326533 -0.871974 0.749283 1.016685 0.302600 0.640665 3.006104 -1.006467 -0.689755 2.767674 0.320467 1.468803 0.027155 -1.369565 -0.526008 0.716871
tüneyen -1.397515 1.803706 0.974960 0.909706 0.136610 -1.909703 -0.150617 -4.417343 -0.850602 1.744151 1.252113 -1.317922 0.144111 0.152225 1.223913 -0.399406 -0.538923 -0.263170 -1.795721 1.769817 0.299678 0.111782 2.407239 -0.295991 0.939572 -0.577001 -1.809300 -2.552151 -2.222416 0.625174 -1.407005 -1.630004 -0.795054 1.041621 1.889222 -0.504799 -0.760088 -2.335128 -1.989452 -0.236108 -0.393295 1.987321 0.417048 -0.882421 -1.272070 1.263544 -0.861622 -0.975746 -0.217604 2.045261 0.074215 2.144995 -0.307562 -1.399279 1.636941 0.185436 -3.475965 0.901398 -1.417467 -0.297564 -0.897259 2.204304 2.263142 2.058249
salınan 1.197630 -1.250814 -0.996079 1.880490 1.129710 -3.001473 -3.149444 0.730492 0.103226 1.292490 0.903325 -2.673542 1.811948 -0.921804 0.297286 0.721703 -0.925185 2.433012 -0.766714 3.229116 -0.534090 2.026901 -0.200169 -0.572672 0.417355 2.855000 -0.063284 -0.414288 -0.621161 2.048875 -0.283740 1.756999 -0.983936 -0.696892 3.514251 0.852579 -0.491757 -1.032927 0.532341 -2.241886 0.014952 -0.281316 0.904617 1.119092 -2.913990 2.234687 0.867392 2.982845 -2.167523 -2.060863 -2.725878 0.466302 1.305536 -1.058757 1.039625 -1.295927 -0.678932 1.152284 0.872450 -0.007077 -0.786741 0.191904 1.306307 -0.660800
etse -0.513989 1.669670 1.321131 0.555507 -0.435635 -0.179752 0.690889 -0.577783 1.033868 -1.562699 -3.486674 -1.586266 -1.382863 -1.629028 1.917379 0.606083 -0.834529 -0.867627 1.188151 -0.781567 1.613255 -1.640154 -0.774558 2.399978 1.352676 1.863031 -2.557272 1.150335 -0.361794 -2.167582 -0.192025 1.403714 0.418866 1.707710 0.549537 0.065437 0.556554 0.224190 1.252096 -0.907062 -0.178688 -2.197011 -0.571084 2.698618 -0.101887 0.702220 -3.825087 0.182091 -0.172470 -0.414642 1.548758 -3.381874 -0.161113 -2.480214 1.761674 1.811837 1.115153 -2.394588 2.524748 0.269068 -0.648811 -0.175732 0.206360 3.332282
alsam -2.196909 0.241937 -0.601949 -2.261273 1.083839 0.434106 -1.749243 2.317338 0.746819 -0.821189 -2.019686 -1.382179 -2.246259 -0.472153 -2.221217 -1.475072 1.158553 1.114340 0.727986 -1.445194 2.948495 -3.904354 0.850591 0.244793 -1.836972 2.168272 -0.472906 2.083088 -0.645750 -1.185552 -0.305547 1.135875 1.204630 -0.739936 -1.680565 1.945841 -0.925534 -2.357768 -1.215064 -2.929071 1.104031 0.849069 -0.778557 -0.739113 0.913147 -0.406676 0.558171 0.286191 0.069277 -0.650476 -1.941189 2.452263 -4.207811 0.973808 0.078146 0.319389 -0.168392 0.883869 -0.117354 -1.411045 1.026463 -0.901975 0.160613 1.220059
talebelere -2.958582 3.195005 -1.863606 -0.212928 -0.778128 0.725214 -1.018951 -0.463986 0.679948 0.273216 -0.225411 1.006144 0.842767 3.312549 1.868546 -0.524950 2.232630 -0.461443 1.222018 0.853313 -3.490914 0.687376 -2.526160 -0.590535 -1.381342 0.277939 -1.385663 0.575248 3.312660 -2.908307 0.495866 0.185739 -0.573280 -0.772755 0.991545 -1.008670 1.227555 1.335561 0.252502 -0.499136 2.607857 -1.511957 -0.030224 -0.716120 -1.845461 2.359855 0.663187 -1.654353 0.769087 0.527068 -0.389401 1.830857 -1.518703 -0.349904 1.484107 -0.948646 0.713597 3.758155 -0.226298 0.010164 -1.082608 1.350471 -1.246922 -1.604557
yanlış 0.506884 -0.040661 0.007672 0.716347 -0.173633 -0.890178 1.355795 1.378216 -0.953626 -2.432919 0.093377 -2.561452 -1.319388 -1.386365 1.485244 -4.068841 -1.798378 -0.621813 1.450251 -1.493311 1.221389 4.831608 0.282281 -1.478900 -1.076248 1.675933 -0.734805 -1.294888 -0.442862 -1.838169 -2.288235 -2.843604 1.525090 0.527894 -1.258285 0.195313 -0.125324 1.370945 -1.608259 -1.139021 1.784667 -0.592557 -0.687602 -0.761723 0.810845 -0.213525 1.550847 0.471895 -0.452127 0.822898 0.974996 -0.774861 -0.782084 2.145637 0.327353 -1.849722 1.005552 -2.496584 0.994533 -0.088803 1.196966 1.755427 -0.742846 -0.641832
sokağın -1.492217 1.172843 0.628322 0.973629 0.314862 -2.496795 -1.045778 -3.717308 -0.836163 1.679480 0.932514 -2.608842 -0.315728 0.366209 0.463479 -1.426833 -1.970496 0.595038 -2.175730 2.739086 -1.079881 0.379411 2.156374 -0.222116 2.377042 0.534440 -2.174665 -1.788952 -2.127690 0.914594 -0.512902 -0.142838 -1.511051 0.049379 2.506584 -0.880274 -1.031827 -2.660812 -0.875320 -1.895258 -0.579903 0.653744 0.864911 -0.956757 -1.014037 1.942029 -0.470473 0.446723 -0.527155 0.978769 -0.599999 2.551029 1.026023 -0.514921 2.968333 -0.552903 -2.992728 -0.188370 0.446964 -0.862776 -2.001763 0.225423 1.642339 0.223539
kuş -0.680128 0.636393 0.461656 0.657901 -1.865992 -1.853993 -2.114752 -3.192334 -0.632971 0.734594 0.612635 -1.884708 -0.217029 -0.101668 0.037573 -1.160922 -1.320369 0.587226 -1.197374 2.121910 0.060060 0.534219 2.874775 -1.193519 1.377959 -0.329020 -1.045495 -1.305009 -2.173526 1.839523 -0.386166 -1.097422 -1.233737 0.123202 2.451380 -0.699733 -1.444493 -2.421668 -2.244382 -0.803266 -0.071220 2.011032 -0.413461 -0.678572 -2.286466 2.209771 -1.657722 -0.385348 -0.039983 0.601883 -0.504434 0.520036 -0.081605 -0.708720 4.039904 1.491030 -2.659392 -0.271361 -1.562862 0.243173 -1.710357 0.704062 0.833352 1.218010
mahzuru 1.460282 2.043231 -0.869811 0.690984 -2.411828 0.710998 1.741791 1.414678 1.741732 -1.563722 1.297108 0.971401 3.216139 1.320106 0.111675 1.924186 0.827182 -1.217356 -0.813157 -1.208270 -1.709076 -2.913028 -0.763019 1.336677 0.811523 1.166582 3.115784 -0.306293 -0.825134 0.647755 0.540870 -1.299026 -0.312910 -1.902492 -2.147169 -1.348056 -1.780204 -0.944073 -1.649261 -0.471323 -0.981540 2.607238 -1.816038 1.085352 1.680701 -2.324856 0.648872 1.378185 0.863825 0.832079 0.589067 0.762063 1.969326 -0.226803 0.523298 -1.452850 -3.701192 -1.971425 2.024989 -0.794699 -1.895872 0.640271 -3.010344 -1.138018
vicdanı -1.018455 0.412043 0.875540 0.419127 1.082881 -0.285456 0.586445 -0.945200 2.103344 -0.700032 -4.672721 -0.388877 -2.365028 -1.804483 2.434254 0.784171 -1.079528 -0.461749 -0.491728 -0.315651 1.555501 -1.375808 -1.775419 2.092928 0.239878 0.140141 -1.412108 2.166145 -0.902420 -1.471673 1.213525 3.410504 2.031098 1.608037 1.047092 -0.579962 0.783757 -1.126515 0.713922 -0.232161 -0.021248 -1.312091 -1.751691 1.078032 -0.350564 0.816488 -2.976195 0.732628 -1.464558 1.102049 0.374677 -4.090888 -1.012502 -1.998482 0.470855 1.910743 1.603906 0.359185 2.653790 -1.060727 0.085147 -0.946679 -0.691168 3.175509
uzadı -1.853863 0.709082 1.466912 0.687904 -1.641686 -0.380177 -1.234931 -4.588241 0.046604 0.929836 1.820063 -0.347613 0.409344 0.292481 0.134745 0.885270 0.425184 -2.185128 -2.787439 0.693135 1.242730 0.436399 1.679473 -2.714559 1.079394 -0.709607 -0.682281 -1.642680 -2.461607 0.363884 -2.226067 -2.453337 0.324137 1.033694 1.246611 -0.487996 0.096986 -2.259949 -1.985444 -0.502673 -1.139747 1.664737 0.700102 -1.497910 -1.415877 1.345773 -1.083437 -1.121901 1.403837 1.949761 -0.303968 0.849671 -0.896497 -1.352417 0.657177 0.113934 -3.147882 1.724761 -2.166749 0.901953 0.239370 2.540887 1.661308 3.271421
yaprak 0.031658 0.115194 -2.594176 3.534488 0.368733 -1.862331 -3.317669 -0.918455 0.860948 0.577822 1.559896 -1.532687 0.175454 -2.684683 0.871132 0.911233 0.631097 1.213031 -0.391890 2.334153 -1.063666 1.476454 -0.726973 -0.658163 -0.208063 2.504441 -0.219678 -1.456944 -0.471836 1.799713 -0.873265 1.910815 0.020407 -1.331061 2.692030 -0.717851 -0.914623 0.368054 0.994049 -3.386636 -0.085032 0.287560 0.385428 0.967828 -1.066656 0.774158 0.637255 2.633182 -1.062098 -2.521107 -3.922431 0.782752 2.803967 0.103754 1.364856 -2.396915 -0.215017 -0.391713 0.778645 -0.033399 -0.328757 -0.040334 2.138654 0.325814
söylemek -2.692657 1.388541 0.686844 -0.085294 -0.549921 0.450130 -0.301558 0.040586 -0.559599 -1.877158 0.844192 0.699952 0.069584 3.192737 2.118524 -0.779147 0.487206 0.361806 1.840655 0.879805 -3.629242 -1.134971 -2.309398 0.256538 -1.869417 0.004270 -0.975141 0.203216 2.366339 -3.255736 0.663190 0.616042 -1.835240 -0.148816 1.186385 -0.507317 1.822894 -0.026944 -0.419924 0.384292 1.881951 -0.336614 0.938554 0.274152 -3.295491 0.225013 -0.248685 -2.918975 0.276494 -0.653790 -0.763656 0.827389 0.053851 0.552335 1.495293 -1.523463 0.579669 2.586821 -0.044032 -1.272430 -0.178144 2.579786 -2.376336 -0.604476
bulduğu -0.342562 1.021588 2.396827 1.422182 -0.989057 1.321773 0.917366 -1.231968 -0.007285 0.237546 -4.634499 -1.100156 0.611894 -1.341400 2.519447 1.933567 0.697545 -2.934024 0.583053 -2.606125 1.473599 -1.100435 -0.470257 0.879110 0.866559 3.432728 -1.979360 1.738647 0.925518 -1.398157 0.590503 1.857447 0.479573 1.872210 2.162891 -1.427967 1.977056 -1.067375 -0.309279 -1.351762 0.406970 -1.357992 1.351942 2.557535 0.352028 1.230875 -1.842673 -0.054438 -1.369537 -0.407737 1.229821 -2.328977 0.663118 -2.625214 1.022301 1.570845 1.879514 -1.663423 1.822694 1.236080 -0.461315 0.660054 0.698198 1.095430
hocamıza 2.875275 0.129986 2.821205 -1.731373 -1.278773 -0.984153 -0.730468 -1.697350 -1.945676 0.870938 0.946178 -0.836207 -0.010742 2.035870 -1.409154 0.087523 0.715666 -0.355190 1.931765 -1.890395 -4.321111 -1.686968 -0.303405 1.027672 -0.744004 -2.141072 1.148421 -0.816232 -1.828741 -1.100123 -0.032694 0.046221 1.791295 -1.340233 -2.835727 1.074072 0.282843 -0.010381 1.009652 -0.187591 1.520724 -1.077877 -0.898755 -1.003424 -1.774339 -1.609003 0.559028 2.771688 1.791043 -0.218376 -0.911541 -1.493772 0.647557 -3.016738 0.038023 1.051425 -2.898371 -1.055357 0.016717 2.207655 -0.213686 -1.562851 0.079243 -1.921416
açalım 3.300225 -0.643827 1.510872 0.549418 -0.199120 -0.247545 0.371915 -1.582920 -0.142405 0.888198 0.586262 0.515952 0.716554 0.404108 -0.848397 2.732968 0.315552 -2.172387 1.313453 -1.825784 -4.661922 -0.995921 -1.128889 1.320146 0.077636 -2.800088 1.707694 0.548330 -0.654449 -0.519356 -1.225808 -0.218767 1.720310 -1.554125 -2.471205 1.666070 -1.554013 -0.452870 0.822699 -1.515183 1.379443 -1.461247 -0.235001 -1.355583 -0.517296 0.303544 0.716283 4.111845 2.109404 1.045539 -0.958610 -0.413018 0.172757 -2.254872 1.616799 -0.001604 -2.402401 -2.137404 -0.717848 1.640416 -1.348344 -0.292622 -0.560326 -2.493071
atmıştı 0.078448 -0.117396 -1.021683 0.945524 1.017291 -1.351290 -2.518839 0.651800 -1.852809 -0.609759 1.319288 1.741175 -3.169926 2.238336 0.567740 -0.410473 1.817207 1.155321 -1.694459 0.147260 1.808686 -0.672476 -1.110493 2.048411 0.483534 -0.162589 -1.996776 1.939463 1.029118 1.968699 1.032290 0.262814 0.062853 2.844437 0.069419 0.354155 1.485199 0.628698 -0.753179 -1.240084 -0.086873 1.239608 1.465051 0.706484 -0.057172 -2.235828 -0.474957 1.339387 2.296278 0.649308 2.508044 0.762092 0.790617 2.246680 -0.330519 0.541136 1.745157 -0.494900 0.186785 1.921468 -3.591780 1.734543 -0.473608 -1.895316
çocuklardan -0.611813 0.496504 1.395971 -1.670463 -0.581977 -0.394882 1.322104 -0.142890 -1.902836 -0.320667 0.513346 -0.363693 1.484224 1.000109 -1.223499 5.233821 -0.780353 0.053110 2.417841 0.288083 0.328124 -0.025344 0.976679 -1.918722 1.549446 -1.989770 -0.303065 2.153542 -0.700242 0.365500 0.210354 -0.623261 1.072925 -3.345803 -0.589770 -2.759375 -0.609065 1.772931 0.106063 0.302061 -2.657910 0.737134 -2.079435 -0.644782 -0.025999 3.169116 -1.356559 0.595846 1.150759 -1.486678 0.243981 0.453271 0.451067 2.715368 -1.730858 1.398280 0.694779 -1.311505 1.716177 -3.638604 -2.126997 0.287226 1.310107 -2.482338
onlarda -1.353718 -0.116697 -1.584915 -2.223822 2.283579 -0.683117 0.241790 0.833687 1.181698 1.289380 -2.836184 -0.885816 -2.708343 0.512124 -3.485944 -0.667872 1.288246 1.337292 0.900896 -0.943847 2.065245 -3.557277 0.965775 0.139318 -0.481976 0.172394 -0.368463 2.175236 1.334455 0.614674 -0.345252 0.250816 1.969619 -0.169989 -1.230518 -0.151517 1.759928 -2.654951 -0.271718 -2.377575 1.359773 -1.532021 -0.323669 0.587115 1.735063 -1.307282 -1.124769 1.050692 -1.056087 0.280870 -2.079363 2.527021 -5.795243 1.247087 -1.116130 -0.050608 -0.815318 1.430346 0.544223 -0.651232 1.470883 -1.369135 -0.111480 1.608424
alışkanlık 0.800681 -2.230191 0.273349 4.775912 2.771332 3.860554 1.692049 -0.404940 -0.662702 -0.849174 1.002815 0.882206 1.040567 0.433085 -0.977728 -1.805849 0.967731 2.686862 0.986580 -0.112894 0.484112 1.498240 0.732679 0.935977 -4.553450 0.334972 -0.783269 -2.176682 -0.946907 1.536148 -0.030148 -0.808175 -1.239989 -0.917108 -1.006105 -1.780962 -2.355497 1.090939 0.646367 1.623418 1.162383 -2.786782 0.628003 -0.270491 -1.188645 -1.298703 -1.607712 0.350987 -2.039190 -0.968894 -0.850793 0.028186 2.512564 -0.119873 -0.398922 0.342599 1.329164 0.391188 0.142122 -1.478775 -0.664637 -0.315614 1.723377 0.650005
yurdun 3.329327 -1.710236 0.135205 -0.837448 0.328672 0.629816 -2.524399 -2.526017 -1.736586 0.658010 0.269721 0.379494 -0.040832 2.145770 1.787009 -1.941536 0.030523 -1.129397 2.451432 -1.231547 -2.893938 -2.463534 -0.736750 0.754321 -0.723856 -0.653069 1.818500 -1.462451 -1.452427 -0.570809 -0.762714 0.049904 0.317411 0.888299 -1.223650 0.598550 0.785312 0.322436 1.630030 -0.979004 1.817375 -0.662841 -2.621606 -1.844832 -1.735190 1.470935 1.700161 1.794916 0.164633 -0.262559 -0.434141 -0.881931 -0.090366 -1.959350 -0.575667 1.099723 -0.619597 -2.417967 -0.802031 3.622886 0.322568 -1.205554 1.638112 -2.233107
arkadaşlar 3.920138 -0.641235 0.910372 -0.437671 0.755701 0.589015 -0.699720 -2.247267 -1.687348 0.265097 0.699463 -0.022946 0.062378 1.527834 0.171772 0.311553 -0.214064 -2.241220 2.192665 -2.066055 -3.064582 -2.128113 -1.081229 0.674449 -1.097536 -1.718472 1.619030 -1.036628 -0.410481 -0.928730 -1.435927 -0.449703 1.321341 -0.169248 -2.011351 1.561388 -0.236362 0.238905 0.724798 -1.155234 0.946328 -1.705598 -0.836501 -1.509864 -1.570654 1.261113 0.390575 3.582792 1.191840 1.189824 -1.065906 -0.469303 0.076169 -2.000720 0.693588 1.379557 -1.777071 -2.078368 -0.826243 2.474534 -1.651626 -1.974903 0.459064 -2.634450
davet 0.418034 2.436930 1.658332 -2.132672 -0.737489 0.684720 -0.638989 1.637232 -0.179797 -1.056044 0.344672 -0.771619 1.993968 -0.997013 -2.413475 4.711934 -0.230744 -0.410315 1.907950 -0.081417 0.926438 1.321911 -1.293989 -0.473807 2.887981 -2.430657 0.345497 0.220008 -0.869191 1.211228 -1.443678 -0.633409 0.325109 -3.084036 -0.792151 -2.402362 0.484439 1.187553 0.537957 2.943398 -2.957038 -0.356615 -0.558657 -1.132354 0.393385 1.785292 -1.488856 0.871746 0.793958 0.419194 -1.150765 0.436650 -0.019426 0.981968 -2.100452 -0.122667 -0.927719 -1.599487 1.237485 -3.662058 -2.133889 0.728096 0.012466 -2.814236
anlatmadan 2.784016 -0.988632 0.259346 -1.285249 1.310486 0.292158 -0.551816 -2.628192 -1.971609 -0.481686 -0.442652 0.183116 0.151497 2.120919 1.836690 -2.345907 -1.125959 -1.532416 2.351130 -1.851779 -3.291770 -0.076652 0.335186 1.870034 -0.074256 0.117305 1.670979 -1.813881 -1.358125 -0.307164 -0.521756 0.564055 1.130752 0.317813 -1.829641 0.377596 0.365400 -0.107943 1.210194 -2.138912 1.931665 -1.716966 -1.995017 -1.723187 -1.219395 0.397785 0.826412 0.369402 0.741643 0.659908 -1.276492 -0.274518 1.350484 -1.069973 -2.395955 -0.851541 0.627554 -1.569378 -1.547386 3.440271 -1.002675 -1.738666 2.789082 -0.925424
okuldan -0.139231 -0.124460 2.594406 1.255766 -1.417977 -0.626238 1.145238 0.229452 -1.358215 0.858281 -1.244323 -0.401834 3.606225 -1.118654 0.550479 1.303484 -0.369984 -1.804793 0.651683 0.452592 0.259850 0.062933 -1.390900 1.002698 0.769395 2.303188 -2.268388 -0.465681 1.493457 0.015326 -1.049666 1.250573 -0.021146 -0.145990 0.775499 -0.112752 1.139642 -0.789904 3.233229 -2.435242 0.776627 0.811730 2.270450 4.521545 1.953482 -0.403363 -1.939231 -3.152227 0.476562 0.828636 0.879159 -1.218560 -1.720306 -2.478149 0.212092 2.976730 1.961904 -3.343931 -0.678428 1.415702 0.790895 0.781396 -0.441473 0.636576
söylediğine 1.400100 1.156953 3.026136 -0.724531 -1.805936 -1.911034 -0.365210 0.861379 -2.432171 0.287922 1.327609 -0.533095 0.236433 0.427879 -1.482535 2.620907 0.701752 -0.653613 0.224755 -3.400979 -3.402232 -1.734744 0.287276 1.260481 -0.946148 -1.938937 1.413739 -0.833077 -0.725185 -0.371751 -0.453647 -1.015198 1.553018 -2.143938 -3.527520 2.384478 -0.311782 0.075111 0.432773 0.039733 2.050424 -1.741984 0.693420 -0.268859 -1.412199 0.564657 0.484727 3.116717 2.396986 0.482198 0.905195 -1.536555 2.419001 -2.340568 0.078024 -0.072920 -4.086810 -0.660665 -0.165971 0.084167 -1.058504 -0.992962 -0.640674 -2.291601
görünce 0.424425 -1.621874 0.655747 -2.093123 0.450370 -1.852368 0.888625 -1.479245 -1.384887 1.091637 -0.817791 0.078548 0.771175 0.469401 -1.544306 1.203998 -0.049145 -0.603826 2.408648 -0.198060 1.273762 -0.224759 -0.900497 -3.049606 1.151346 -0.716268 -0.906833 1.372105 -2.010317 -0.404272 1.166438 -2.344992 -0.451483 -1.203365 0.184437 -3.346619 1.563771 3.067357 -0.257336 1.888414 -0.337451 0.383876 -1.613149 1.075067 2.129712 2.320832 -1.290121 -1.250387 -0.122500 -1.083193 -2.415985 0.703724 2.496611 1.297664 -2.030214 0.043028 1.311972 -0.103697 -0.761624 -4.122134 -1.744387 -0.700135 -0.209200 -3.618235
edip -0.116840 -1.919370 0.247926 1.029233 1.570456 -1.024168 1.824416 -0.488011 1.841358 -0.384972 2.283126 -2.480542 0.119148 -2.263649 -1.951443 -2.456881 0.300706 -0.544395 2.471059 0.722555 -2.845776 -0.626300 0.432692 -1.400792 1.261283 0.220901 1.536281 3.606373 -1.300871 -0.920877 3.419021 -0.105060 -1.031850 0.968049 1.750106 2.998290 0.585100 1.007837 -1.741339 3.793687 -1.308372 -1.766039 -1.606746 1.821988 3.114177 1.611087 0.353982 -0.560525 1.911562 0.569821 1.832620 -0.150875 0.721967 0.872403 0.218706 -1.237967 0.639190 1.455353 -1.829118 1.138672 -1.568673 -0.667674 1.400881 0.935356
dondu 1.152553 -2.314342 -3.045444 3.200372 1.063203 -1.051724 -3.490024 0.737449 -0.976849 0.166416 0.865749 -1.117080 2.136063 -1.745106 0.321740 1.060617 -0.484880 2.100173 -0.493009 2.097353 -0.460479 1.526816 0.889553 -0.313393 -0.417513 2.418943 -0.646649 0.264421 -0.081071 0.303324 0.806402 1.752982 -0.014197 -1.691738 3.051913 0.309579 -0.987043 -0.500905 1.269058 -1.397086 -0.223539 -0.408193 0.907548 1.372761 -2.641954 0.186892 0.266255 2.998774 -2.584342 -2.742086 -2.735214 0.090096 2.195720 -0.547161 1.530055 -1.604516 -0.276897 0.663044 0.595533 -0.618207 -0.082419 1.223583 1.736305 -1.205267
pastaneye -0.438912 2.058136 0.709928 -1.388608 -1.458454 0.518733 1.847036 1.478945 -1.605104 -0.731040 1.646900 -0.214206 1.580942 0.010338 -0.261670 6.137924 -1.244922 -1.254195 1.272188 -0.772621 -0.560874 -0.883241 0.462385 -1.527824 1.621196 -1.451070 1.669604 1.595200 -1.967100 0.508777 -0.830042 -0.325363 -0.813371 -3.426596 -1.796442 -0.711923 -0.842720 0.809020 -0.145135 0.782308 -1.881802 0.842071 -1.713473 -1.257888 -0.326899 2.102884 -1.241806 1.417283 1.389528 -1.509139 0.229617 -1.207152 -0.865069 1.630354 -1.695635 1.135575 -0.330695 -0.512782 2.973455 -1.765987 -1.681468 1.638032 2.325707 -3.123474
idarecisi 3.420526 -1.275314 0.812773 -1.230724 -0.091578 -0.481758 -0.305975 -3.119215 -2.392084 -0.020642 -0.545824 -0.579325 0.965330 2.676375 0.179215 -0.803115 0.294376 -1.620855 2.841165 -1.516653 -4.142652 -0.037148 -1.137796 1.709044 -0.916981 -1.482090 1.334133 -1.031703 -2.566301 -0.833555 -0.840687 1.705805 1.298568 -0.015097 -2.179531 0.612975 0.586710 -0.583357 0.706210 -1.402867 0.802089 -1.843716 -1.290288 -1.679467 -1.111601 -1.613936 0.488363 1.656480 0.524671 -0.189631 -1.743764 -0.592068 -0.245040 -1.171893 -1.936497 0.552853 -1.316425 -1.282848 -0.780137 2.880109 -0.822047 -2.007772 1.581811 -1.690115
kontrol 0.328003 -4.061027 -0.701416 -0.983068 0.784388 -0.692348 0.089185 -0.301492 1.881824 1.872663 2.215801 -1.731741 0.591107 -2.575473 -2.139853 -2.566325 0.566750 0.514160 2.672635 -1.175527 -0.593829 -0.819446 -0.157692 -2.251787 -0.204367 -1.345456 0.490980 1.973204 0.243348 0.405944 2.807179 -0.915167 -0.618087 -0.132968 1.782572 -0.404216 0.602281 0.615861 -1.106139 5.133152 -1.745853 -0.862964 -1.169976 2.699795 3.495059 2.485699 -0.441288 -1.587274 -0.129588 0.601537 1.551925 1.180012 1.534601 -1.066505 -1.104249 -0.858468 1.183072 1.549288 -0.906669 2.345307 -1.241957 1.364421 0.915149 -1.118832
ortalıkta 0.324424 -2.609743 0.153962 0.323974 -0.484964 -1.494500 0.383270 -0.352667 2.995825 1.207996 1.241560 -0.685739 0.390932 -1.848866 -1.491191 -3.213156 1.291137 -0.698398 2.521197 0.912669 -2.034910 -0.245740 -0.226321 -2.353465 1.095546 -1.866726 0.615173 2.020728 0.710573 -0.012380 1.613221 1.286739 -1.711495 -0.457062 1.385444 1.500596 0.229869 -0.278039 -2.011266 5.493857 -1.634108 -0.350539 -1.990303 2.453399 3.057145 -0.162273 -0.619538 -0.993382 -0.704193 0.094647 1.295394 0.365110 0.364558 -0.126336 -1.359242 -1.132700 0.322461 1.390825 -1.562525 2.105080 -0.032837 0.833732 1.506292 1.269004
olabilir 1.071249 2.342145 -0.926076 -0.469077 -1.598348 -1.407507 2.168473 2.074987 0.119548 -0.638286 1.228282 0.662645 2.184451 0.643494 -0.383951 3.355250 -0.131390 -2.666812 -0.281484 -1.395611 -1.574304 -1.496531 -0.946888 1.250152 -0.721303 1.226440 2.536846 -0.669884 -1.358750 1.720342 1.776010 -1.569681 -0.070103 -1.859247 -2.202767 0.258999 -3.160769 -0.207125 -0.785799 -0.093523 -0.148465 1.092707 -1.755430 -0.959326 0.178667 -0.629657 1.278043 1.932719 2.749259 2.751617 -0.198009 -2.283458 1.315901 -2.859694 -0.674432 -1.225058 -3.115965 0.020976 2.176600 -1.953348 -2.089499 2.276438 -1.487751 0.065923
düşüncelere 0.611559 -2.498523 -0.445794 0.282132 -0.854537 -1.074626 1.922520 1.011197 -0.942812 -1.713232 -0.796396 -1.086598 -2.366214 0.131805 1.862623 -3.410779 -1.234937 -0.573658 1.002877 -0.311091 -0.457094 5.578939 0.239307 -1.012097 -0.996999 0.927105 -1.262848 -1.404638 -0.474605 -0.065064 -0.446483 -2.246201 3.351223 -0.986621 -0.123955 -0.366347 0.304694 0.997672 -0.199283 -0.823957 0.129657 -0.513683 -0.715938 -1.196982 -0.185569 0.929014 2.564923 1.183993 -1.274312 0.540134 2.889147 -0.378363 0.312017 1.512231 -0.793455 -2.571750 0.432515 -2.197085 0.672450 0.082138 3.016736 3.167261 -1.144109 -0.469323
parası 0.944257 -0.505029 -1.017095 4.340582 0.728081 1.994292 -0.780166 1.584546 0.500289 -0.359447 -0.153639 0.900523 1.647420 -1.632608 0.979767 0.188579 1.924888 2.238157 1.191156 0.721081 0.945363 1.155178 1.774234 -0.146046 -3.269812 0.109182 -0.952262 -1.784105 0.098882 1.112312 0.776706 0.246530 0.209365 0.102191 0.353046 -0.054045 -1.447689 0.807632 0.368471 0.837304 -0.457176 -0.144457 -0.326407 1.581580 -2.230396 -1.849772 -2.058878 1.267557 -1.105598 -1.989822 -1.363440 0.759387 0.708689 -1.033991 0.450096 -0.016481 -0.576800 1.798270 -0.503537 -0.186226 0.788370 0.824792 2.684370 -1.748485
zordu -1.888777 3.385379 -1.161035 -0.119231 -1.262038 0.667135 -0.210568 -0.822681 1.848931 -0.802539 2.084633 1.110648 1.091078 2.682510 1.252948 -1.094992 1.367095 -0.271991 0.934895 0.544243 -3.088299 0.694727 -1.290687 -0.380102 -1.062280 -0.282929 -1.603265 0.299665 3.317182 -3.327933 1.446067 0.184143 -2.259916 -0.763749 1.336041 0.596221 2.669628 1.118766 1.056548 -0.984646 1.026423 -1.796921 0.409568 -1.259657 -2.710064 1.385694 -0.218395 -1.272192 0.927368 0.055852 -0.874635 0.754073 -1.637204 -0.365658 0.510905 -0.968550 1.009771 2.844219 -0.795611 -0.467468 0.272355 1.882856 -1.872224 -1.753820
kimseler -0.172050 -1.089172 1.298552 1.884443 1.637430 -0.868048 1.131313 -0.339886 2.536970 0.122182 1.596626 -1.510649 -0.100284 -2.158336 -2.321159 -2.636471 -0.637064 -1.470291 1.528640 0.636849 -2.419113 -2.110427 -1.043275 -0.881897 -0.619631 -0.352269 0.258677 3.264617 1.103222 -0.253751 0.780890 1.497762 -1.324948 -0.660504 1.507729 1.665717 -0.439611 -0.322900 -1.365104 4.451673 -1.034227 -0.585999 -2.216660 1.804196 2.286123 1.147470 1.327760 -1.690415 -0.082118 0.578754 1.502403 0.457162 0.474976 2.391150 -1.412509 -1.719186 -0.652472 -0.644561 -2.399618 2.284154 -1.601269 -0.021214 1.492676 1.861393
olaydan 0.074248 2.579817 0.217151 -0.464430 1.544255 0.722052 1.160885 -1.613098 2.280135 0.341417 -4.012845 1.342995 -4.093646 -1.734774 0.876969 1.180126 0.281643 1.086576 0.428422 -0.549138 0.820426 -1.660299 0.026239 3.145633 -1.121539 -0.892693 -0.056188 1.520240 0.095430 -1.532840 -0.816418 3.681142 0.424351 1.935710 0.512217 0.684386 0.915106 -3.006497 -0.403079 -1.594112 -0.212672 0.444471 -0.048537 0.564288 0.679961 1.397613 -4.109191 1.254788 -1.814725 0.315388 1.869628 -3.643931 -1.358568 0.105167 1.520342 -0.869373 1.558846 -1.317924 2.560163 -1.546827 1.519564 -0.626884 -0.254654 1.895741
kaldı 0.875390 -1.387364 -0.791403 4.193930 0.302291 -0.820702 -3.325154 -0.243224 1.727752 0.165050 0.801738 -0.909275 1.500865 -2.276886 0.812985 0.440651 2.169227 1.760244 0.311468 2.900740 -1.161646 1.074704 0.567815 -0.335503 -1.656917 1.894921 0.872183 -1.726054 0.033328 1.691870 0.418353 1.756605 0.176549 -1.661123 1.218498 -1.292925 -1.849681 0.486059 1.210336 -1.866024 -1.069527 -1.443635 0.148801 1.713154 -1.313235 -1.133036 0.328759 2.606049 -0.757343 -3.600943 -3.212066 0.202108 2.174363 0.695804 1.260072 -0.351376 0.678143 0.988011 0.703489 -0.630149 0.216699 -0.231792 2.722891 0.111199
çalmayı 0.460716 -1.684551 -0.309605 4.493830 -0.155339 3.438040 0.969260 2.465256 0.311821 -1.438943 1.307734 0.559918 0.467950 -0.591991 -1.070011 -0.863572 1.503189 1.827561 0.291963 1.173737 0.770477 1.521366 2.645961 -0.112219 -3.801824 1.591156 -0.263226 -1.614201 -0.585579 0.504066 0.028844 -0.128406 0.945330 0.148612 -0.791802 -1.747550 -2.058878 0.643539 1.503754 0.365469 0.446773 -0.882928 0.471268 1.096117 -1.477083 -0.868700 -2.193360 1.216594 -0.580563 -2.121739 -0.560629 0.665869 2.560997 -0.882253 0.289270 -0.356232 1.451630 2.794270 -0.647936 -0.623013 0.049109 -0.021678 3.601553 -0.821058
hâline 0.658334 -2.608282 -0.174582 3.165913 -1.275910 3.798864 3.248324 1.563743 0.469470 -0.119694 0.879418 0.291137 -0.133907 0.709545 -1.860839 -3.031304 1.463102 2.600095 -0.364277 1.384995 1.425319 2.431554 2.026594 0.456869 -3.298490 1.360250 1.251718 -1.848869 -2.373951 0.564855 -0.769827 -0.730490 0.132351 -0.000034 -0.900338 -2.459959 -1.398971 0.707875 0.608787 1.589969 1.638224 -1.474968 1.097872 1.384786 -0.535079 0.210168 -0.712573 0.631828 0.476059 -1.216715 -0.375804 1.328297 3.657768 -0.950719 0.369613 0.451266 3.551735 1.820979 0.081167 -1.102802 0.589410 -0.005129 2.538352 0.403901
cebine -0.948513 0.472449 0.994715 0.696264 2.182304 -1.574893 -3.116055 0.935939 -2.147957 -0.510498 -0.633661 1.882540 -3.987015 1.314076 -1.251274 -0.224975 2.152324 0.006587 -1.502381 1.583409 2.526789 0.616813 -0.249249 2.836567 1.145849 -1.630091 -0.768113 -0.311090 -0.413741 2.900307 1.518300 0.329726 -0.739520 2.874329 -0.010947 1.523451 3.103496 1.485986 0.995162 0.190078 0.497206 0.487179 1.170638 -1.200477 0.426667 -1.769485 0.132923 1.331828 1.018806 -0.401565 1.206272 -0.146880 0.459052 3.414762 0.148069 2.541262 2.429544 0.090175 0.534126 2.862023 -2.252755 0.780801 -0.053153 -0.771859
çocuklar 0.974037 -0.539330 -1.033376 4.293312 0.708762 2.148770 -0.663143 1.655936 0.309073 -0.427484 0.086164 0.981362 1.593976 -1.667953 1.011014 0.281200 1.694857 2.144890 1.097450 0.657766 0.952657 1.138640 1.567816 0.196975 -3.269826 0.097458 -0.974065 -1.740071 0.061708 1.127884 0.707433 0.009338 0.291322 0.117984 0.260581 -0.270099 -1.387208 0.923655 0.490709 0.855925 -0.278445 -0.011797 -0.160510 1.666541 -2.232017 -1.965278 -1.945875 1.199320 -0.908291 -1.835127 -1.506260 0.594424 0.735459 -0.895617 0.576654 -0.199721 -0.548460 1.638879 -0.316681 -0.349774 0.787229 0.918236 2.583693 -1.684054
çalınan 1.454337 -0.687349 -1.453206 3.232029 0.695207 2.250861 -0.688262 1.028212 0.465608 -1.527791 1.011059 0.391234 0.913821 -1.237463 1.365872 0.898217 1.961973 1.492030 1.021995 1.203428 0.512203 1.746615 0.395300 0.558294 -3.454925 0.380367 0.018180 -2.307943 0.241749 0.885144 0.043929 -0.635453 2.034003 0.226867 -0.396411 -0.327759 -1.488207 0.733955 0.833166 0.777008 0.235041 0.036108 0.112387 1.452190 -2.653764 -0.953084 -0.986594 0.726859 -0.393195 -3.768702 -2.433053 0.288923 0.294501 -1.620146 -0.993450 0.156994 -0.096817 1.298605 0.062023 0.386842 0.627457 1.539659 2.737781 1.077878
davranalım 1.400626 1.059171 1.764645 -0.002081 -1.089263 -0.536813 1.960493 -0.154940 0.562881 1.258553 1.370294 1.306804 0.951025 -0.709089 -1.692898 4.062314 0.948613 -1.731033 0.695121 -1.765225 -4.423800 -0.294315 -0.689551 1.399167 0.570940 -2.461450 2.213370 0.458063 -1.250754 0.515733 0.324290 -0.330672 0.824979 -3.131493 -3.695842 1.805441 -2.733491 -0.345337 -0.380455 -0.735048 1.032041 -0.205586 -0.515214 -1.576686 -0.267605 -0.728256 1.141789 3.216209 3.162939 0.993583 -0.943345 -1.429664 -0.063361 -3.292875 1.277582 -0.610790 -2.010798 -1.849690 0.908282 0.293557 -1.224250 2.081065 -0.577123 -1.845604
resimde 1.043317 -2.014273 -3.002844 4.978706 0.820818 1.271813 -2.279650 0.948168 -0.759297 -1.316659 1.168211 0.064549 1.488780 -2.498260 0.428299 1.100089 0.348073 0.971589 0.246057 1.137828 0.194688 0.959293 1.636857 -0.048078 -2.366875 1.779847 -1.262576 -0.455779 0.720544 -0.171221 0.748720 0.993515 0.555603 -1.188309 1.302694 -0.530806 -2.058814 0.254279 1.842331 -0.881181 0.015517 0.142208 0.628880 1.048063 -2.237320 -1.028183 -1.016412 2.486724 -1.583226 -2.723677 -2.526987 -0.005132 2.699354 -0.153253 1.157355 -1.668731 -0.236210 1.526357 0.002540 -0.550671 -0.068589 0.633876 3.014271 -1.222915
uzadıkça -0.304284 -0.313634 3.308327 1.195943 -2.049099 -0.628011 -0.162301 -3.555987 -0.195989 1.262675 1.228026 1.404685 0.632330 -0.867026 -0.512188 1.467956 -0.422455 -1.478005 -1.383436 1.078021 0.703065 0.196667 1.942117 -1.512466 0.170609 -2.670397 0.133167 -2.451308 -1.968729 -1.260849 -3.598396 -0.801574 -2.374439 -0.850064 1.825681 0.774973 -1.641550 -1.109402 0.074797 -0.825371 -1.798949 3.117249 1.072795 -2.219738 -0.278651 0.162264 -0.451263 -1.578453 1.133813 2.240440 0.442675 -1.303308 0.674513 2.376261 0.099371 1.001218 -3.987679 1.545487 -1.387771 -0.646806 0.193218 3.018978 1.267559 3.216577
içi 0.273092 -2.082304 0.974570 -3.328707 2.032556 -0.801350 0.543841 -1.442823 0.241849 1.040147 -1.335358 -0.402839 0.469129 -1.919426 -1.632224 1.457915 1.098981 2.069508 2.916976 0.698396 0.752218 -0.387732 0.967203 -2.504178 1.340614 -0.523984 -0.490894 1.131345 -2.133698 1.073093 1.953958 -3.068996 -0.126668 -1.805707 0.567771 -0.808290 0.246826 3.474903 0.775078 2.289709 -0.522817 1.108070 -2.155149 1.206711 0.795539 2.202850 -0.588803 -1.464098 0.990205 -0.387797 0.473730 0.359859 1.775297 -0.044251 -1.334157 -1.483396 3.867385 0.200300 -1.473916 -4.360383 -2.377053 -0.198655 -0.895324 -0.759228
durumu 2.757663 -3.297475 -0.776077 -1.599915 -0.141186 0.386700 -1.792859 -1.023501 -1.590014 0.553628 -0.559471 0.089025 0.881371 3.165005 2.092573 -2.522386 0.727160 -0.238312 1.874686 -1.164463 -3.112883 -0.162722 -0.344333 1.431676 0.522660 -0.014215 1.694099 -1.881317 -2.080268 -0.580139 -0.806818 0.914846 -0.549379 0.785258 -1.474715 -0.875112 0.692993 -0.887148 1.616710 -1.259495 1.559916 -0.627257 -3.550120 -2.302426 -0.869543 1.193094 0.991316 0.482600 -0.689954 0.202238 0.450366 -0.701032 -0.544564 -0.801331 -1.550714 -0.611848 1.436607 -2.379903 -1.139966 3.309015 0.711873 -0.338150 3.219949 -1.018616
bitince -0.563011 1.543829 3.279611 0.032530 -1.576427 0.971742 -0.446924 -0.909301 -0.170659 0.152496 -1.473703 -0.303164 2.732286 -1.268667 0.815431 2.056618 -0.043264 -4.195546 0.558562 -1.145750 1.719342 -1.561409 -1.302468 1.723270 0.036173 2.441565 -2.985346 1.089362 0.318006 -1.067858 0.059629 -0.152057 -0.117708 1.271582 2.241320 -0.859167 1.603275 -0.762418 0.517400 -2.415895 0.835199 -1.478709 1.862269 3.341026 2.161108 -0.964932 -1.467365 -1.070493 -1.073740 -1.365647 2.648286 0.663988 1.264148 -3.357901 0.825248 2.180332 2.009088 -2.577962 0.703559 1.122007 2.041950 1.136529 1.092509 1.167881
parayı -0.858256 -0.032505 0.721143 -1.986040 0.672213 -2.027539 -2.492221 -0.879926 1.068558 -1.785141 -1.662006 2.808848 -2.845108 0.773070 -0.145901 -0.252692 0.622987 0.264635 -3.166613 -0.002338 2.179432 -0.635888 -0.745650 3.177301 -0.710315 -2.576558 0.862915 0.778815 2.095564 3.217795 1.726999 1.060475 2.139947 -0.367155 0.543620 3.449946 2.009692 0.285697 1.009358 -1.183291 -0.938833 0.077648 1.313166 0.233095 2.980615 -1.267438 -0.933725 0.739145 -1.015591 -0.967983 1.793804 0.906157 -1.456083 3.114951 1.744172 -0.428901 1.105163 1.495802 1.268481 2.170854 -2.523733 0.050523 2.227413 1.126375
arkadaşlarına -0.379296 1.135244 3.873451 0.046258 -1.034414 -0.415144 -1.192666 0.007591 -1.457031 1.161989 1.151968 -0.387865 4.685883 -1.739392 -0.997627 2.215110 -0.288156 -2.841914 -0.559543 0.982098 0.364321 -1.110332 -0.167332 0.976570 -0.375075 2.138825 -0.981125 -0.634351 -0.156894 -0.347293 -1.231687 -0.191888 -0.005997 1.140090 0.701504 -0.288660 0.414270 0.945960 1.486354 -2.760153 0.589614 -0.744660 1.549738 1.950318 1.832767 -1.946292 -2.398078 -2.399275 -0.063650 0.320929 3.597925 0.243438 -1.231244 -2.404769 -0.655188 2.660514 2.118913 -2.819649 0.299544 -0.214650 3.121651 1.012297 -0.456219 1.864744
sevk -0.472990 -0.037162 -0.823734 0.265528 0.942619 0.952349 2.502104 -0.789538 -1.416060 -2.528631 0.371799 -2.517440 -0.599153 -0.574746 1.681738 -4.983799 -1.372625 1.317571 1.827657 -1.179652 1.446714 6.331488 0.692146 -0.528153 0.476576 1.376582 0.961689 -0.194487 0.312678 -0.170069 -1.244712 -2.203668 1.420386 0.009721 -1.530758 -0.259090 0.072642 1.104905 -0.921047 -0.589662 1.185991 -0.207453 -0.127996 -1.699426 1.385050 -0.127735 1.264294 0.668422 -1.088116 1.188679 2.314745 -0.225628 -0.206432 0.409089 -0.329813 -1.688143 1.130741 -1.206263 1.025619 -0.057644 1.960947 2.901703 0.739830 -0.827113
bulununca -1.184591 0.778204 -0.727452 -1.700148 0.586031 0.330880 -1.811825 2.820782 -0.667017 0.569373 -4.345026 1.921324 -0.583136 0.844756 -2.258296 1.631360 -0.203435 0.172212 -0.529373 3.258446 -1.454527 0.566874 -2.545671 -0.465332 -1.937834 -1.061563 0.901945 -1.034801 4.347641 -1.893740 0.601545 1.655693 1.128889 0.160901 -0.755420 -0.943155 1.930832 0.713795 -2.991680 -0.860786 1.368556 0.000209 -0.784217 -0.922283 0.151829 1.846966 0.528230 -2.195384 -1.764832 0.972980 1.442774 0.633695 -0.315592 -0.937778 2.974960 -0.931291 -0.357077 2.814711 0.334589 -0.149582 -0.438671 -1.116289 0.267494 1.932354
çağırıp 2.055492 -1.736261 -0.011989 -1.947269 0.842099 2.055382 -0.483905 -1.503896 -0.704643 -0.928768 -0.754447 1.319400 0.427448 2.411035 1.160126 -3.515588 -1.557708 0.065402 1.982112 -2.222198 -2.186378 0.912050 1.443737 1.094523 1.820800 1.105142 1.985818 -2.314461 -1.248856 0.630797 -0.184441 -0.264214 0.720846 -1.051438 -1.095050 -0.961762 0.503121 0.188486 1.075312 -1.790859 2.643731 -1.373155 -3.070737 -1.982803 -1.319103 0.843396 0.454196 0.266096 0.634697 0.258881 0.149015 -0.108480 1.409787 0.004755 -1.255793 -0.422918 1.993687 -2.573184 -2.030887 3.256736 0.065576 -1.441134 2.201817 0.315760
kendisininmiş -1.007383 -0.342803 -0.077300 -1.017515 1.363464 -2.313060 -2.669401 0.581478 -1.033468 -2.027614 0.049348 2.678513 -3.455768 0.734958 0.398390 -0.426086 1.083866 0.873377 -3.233126 -0.421559 2.407454 -0.443871 -0.704392 2.260730 0.222353 -2.055350 -0.319784 0.853871 1.551685 2.084501 0.817336 -0.019823 0.964701 1.821476 0.399406 2.119992 2.855342 1.814388 -0.186554 -1.520308 -0.612503 0.081788 0.510061 0.062946 1.188503 -2.391574 -1.391838 1.868974 1.177135 -1.165515 2.099392 1.198600 -0.114301 2.114712 1.632651 0.060245 2.194284 0.455415 0.598029 2.090444 -3.528231 1.402897 1.238942 -0.628181
yok -2.434715 0.805572 0.102521 -2.780371 3.214219 0.227795 -1.300710 1.311565 1.662445 -0.287370 -2.468471 0.018837 -2.205751 -0.211680 -2.245958 -1.221368 0.501783 1.168634 -1.268634 -1.031610 3.442481 -4.048470 -0.288116 0.682263 -2.130314 0.216951 -0.390345 2.562291 -1.065454 -0.051783 0.227981 1.337562 3.383101 -0.707201 -1.778888 1.785874 0.799225 -1.909054 -1.181220 -2.269776 0.865357 1.964804 -1.552567 0.299570 1.897119 -0.424283 0.349519 -0.653563 -1.882964 -1.380526 -1.690490 0.864302 -4.147795 1.282224 1.146171 -0.262874 -0.948673 1.828845 -0.760478 -1.259414 2.286143 -1.481160 0.831714 1.466695
almış -1.624810 -0.188243 0.848437 0.252519 1.287005 -1.551244 -1.863187 1.085847 -0.445448 -0.211643 -1.290304 3.160370 -4.097395 2.212748 -0.804568 -0.587863 0.702433 -0.192030 -0.797045 1.573853 2.519580 -1.253909 -0.860685 2.450958 -0.207962 -1.828959 -0.203228 1.390928 0.217133 3.116914 -0.224465 0.205884 0.168280 1.115485 0.785736 2.600358 2.509761 1.081927 2.356480 0.201416 1.237350 1.731873 0.553637 -0.202734 0.348505 -2.469714 -0.340087 0.916336 -0.634752 -1.642636 2.555182 1.150172 -0.319195 3.056934 1.142764 0.588093 1.068609 -0.169922 1.216534 1.446100 -3.205597 -0.133087 -1.105909 0.021170
almıştı -0.760764 0.088525 0.517434 -0.756091 2.125311 1.207116 0.524032 -0.029019 2.505680 0.138995 -4.164390 0.358683 -2.678064 -0.861985 1.687438 0.064785 -0.711262 0.453536 -0.615348 0.126877 1.892715 -1.884510 -2.092022 2.152882 -0.246690 -1.938889 -0.891395 2.536382 -0.738107 0.290752 1.614384 3.491529 2.739200 1.044489 0.648627 1.161055 1.299688 -2.736904 0.656551 0.277762 0.532361 1.040336 -1.571288 0.366975 0.616628 0.495722 -0.874417 0.352717 -3.310141 0.538992 -0.044547 -3.564505 -2.218205 -0.556395 0.870589 1.522762 0.574194 1.994859 1.970895 -1.484640 0.856771 -2.107299 -0.319829 2.765682
çocuğu 2.020589 -3.460460 -1.230431 -2.345118 0.682347 1.395644 1.143352 -0.455734 -1.382595 1.035776 0.288135 -0.112646 -0.275302 3.821390 2.333903 -3.081028 -0.150885 2.000731 0.304492 -1.813884 -2.460299 2.274945 0.062746 0.820584 1.826809 1.181916 1.558144 -2.861137 -0.909918 -0.515724 -0.845494 -0.445922 -0.804104 0.442990 -1.766107 -1.459603 0.447476 -1.235087 0.913079 -1.838139 2.564448 -0.272110 -2.196353 -2.125904 1.012735 0.822606 -0.713883 0.354849 -1.340904 0.840707 -0.162884 -0.147417 0.875229 -0.970103 -2.172111 -0.760224 2.613333 -1.339662 0.004409 2.498243 0.316043 0.720416 2.506583 0.577132
görmekten 1.027145 0.702065 2.914298 0.461711 -1.326452 2.691610 -0.010923 0.447241 -0.708572 2.240568 -4.355412 -1.204295 -0.180683 0.662541 0.980334 0.347966 0.702539 -2.765708 -1.633549 0.150641 3.647375 -0.821046 -0.783648 1.890214 0.054732 1.007703 -1.015166 2.936691 1.511992 -0.179622 2.341297 -0.690840 -0.215492 -0.300032 0.616823 0.748020 3.223722 -2.063464 0.435905 -1.150235 -1.659294 -1.334826 1.253531 3.189951 0.466975 0.743789 0.117036 -1.749484 0.374474 -1.217564 1.000517 -0.388234 -0.223858 -2.123401 2.542743 -0.120394 0.588950 -1.872705 1.424654 1.082706 1.431660 -2.407681 1.409207 1.304291
olmadığını 1.561721 -0.962552 0.559498 1.360263 1.089103 -2.275408 0.087425 -0.045004 1.896731 1.381219 0.603302 -0.000446 -0.028558 -2.182467 -2.359457 -2.775892 0.326304 -0.050305 0.706750 2.175385 -1.668429 -0.796003 -0.030070 -0.520596 0.866399 -1.728540 -0.611788 3.749470 0.978848 -0.559614 1.907190 1.970832 -1.180190 -1.014283 0.581247 3.489615 -0.488762 -0.960892 -2.557128 4.516537 -0.228783 -0.074411 -1.287459 1.597892 1.758743 -0.741039 -0.230982 -2.223893 -0.986561 -1.224925 1.881573 -0.298260 -1.708263 0.442448 -2.494911 -1.806327 -2.239652 -0.984302 -1.443668 1.675853 0.294227 -0.232075 0.674183 1.566671
istırap -2.862205 0.442230 1.053142 0.803334 -2.547159 0.624702 -1.446232 -3.492964 0.626574 0.539378 2.090140 1.514226 1.008375 0.363257 -0.829427 2.035556 -0.932103 -2.861814 -4.471236 -0.454864 -0.065373 -0.019007 1.635768 -3.646866 1.824739 -1.269665 0.434361 -0.133168 -2.157530 -0.964467 -3.160198 -0.785658 0.862620 0.179523 -0.462035 0.443696 0.437457 -0.774984 -0.854961 -1.108286 -1.217641 1.612574 1.896774 -1.590730 -1.477245 -0.684288 -1.647260 -1.561090 2.141162 1.636665 -1.405070 -0.612865 -1.241969 -0.182225 -1.182477 -0.428853 -1.802671 1.375944 -1.812898 0.167351 0.833343 1.293818 0.878281 3.286830
görmüş -1.559446 -0.486593 0.544474 -1.250227 1.983500 -0.835365 -0.223584 1.097355 1.259665 -0.020605 -1.767249 2.791173 -3.032600 1.062384 -0.540707 -0.882124 -0.222095 -0.156735 -1.919617 0.975834 3.497685 -2.615108 -1.929571 2.067362 -1.153425 -2.969124 -0.003381 2.045627 0.756158 1.931059 -0.789418 -0.270814 2.116776 0.462739 0.598478 3.000685 3.482844 0.287366 1.702242 -0.526579 0.775351 1.985672 -0.860324 0.901999 1.047866 -2.252887 -0.217639 0.445178 -2.324653 -2.219682 2.102724 0.264591 -1.824908 1.803578 3.263540 -0.266344 -0.137407 1.000139 0.689639 0.577746 -1.804903 -1.230371 -0.068854 1.052862
gerçekleri -0.212010 2.081052 2.190455 0.161174 -0.787114 1.886739 -0.254093 0.356534 0.293067 1.289735 -4.144037 0.758736 -0.138014 -0.160583 1.216285 0.201744 -1.226697 -4.023537 -0.547370 -1.284842 3.217467 -0.170275 -0.999190 1.707826 0.732926 2.644670 -2.085147 1.623860 1.304517 -1.134478 1.896755 0.378783 0.697014 0.309377 1.688588 -2.589610 2.311386 -0.799791 1.090431 -1.153385 0.244518 -1.201930 2.374653 3.643833 2.109221 0.636824 -1.041454 -0.251847 -0.298278 -2.341132 0.219081 -0.104787 1.365455 -3.060416 -0.094798 0.671213 -1.028292 -1.934062 0.419959 2.430687 2.015263 -0.371593 1.058537 0.500265
görünmeden -1.128737 -0.877075 2.231402 1.784202 -1.516695 0.063673 -0.978927 0.504041 -1.423272 0.720074 1.271091 0.348386 4.052634 0.200297 0.203144 2.941290 -1.764134 -2.864681 0.863545 1.173028 -0.444530 -0.365625 0.079136 -0.798044 1.385314 1.741813 -1.026841 0.361215 0.111741 0.802342 -1.199585 0.867068 -0.200679 -0.108985 0.448209 1.394148 0.770154 -0.606550 3.444799 -1.611465 0.286217 1.597902 3.148514 2.698348 2.263022 -0.028187 -1.133088 -2.472944 0.096276 1.776701 2.251616 -1.118403 -1.150264 -2.069317 -0.251374 2.963324 2.006009 -2.022602 -1.142515 1.671058 3.384689 1.319705 -0.818797 0.784135
etrafı 0.148508 -3.848041 -1.527271 -1.318437 1.178647 -1.045620 2.326889 -0.189010 1.716409 0.173371 0.338225 -0.740956 -0.791215 -1.307888 -0.373979 -2.285532 0.960491 1.264943 2.986966 0.574047 -1.400461 -0.053819 0.701190 -2.557196 1.862728 0.153497 2.382113 1.541607 -2.036976 -0.533762 3.774594 -1.414144 -0.978952 0.357676 1.732282 1.710441 0.326193 1.938461 -1.610633 3.305532 -1.323167 -1.589864 -0.526980 1.286362 4.212682 2.713737 -1.154968 -0.813846 1.624277 0.396472 0.536557 0.044382 1.805500 0.555721 0.843307 -0.024918 2.398931 2.175624 -0.807496 -0.737149 -1.343519 -0.989940 0.799811 0.481233
garip 0.667998 -3.409208 -1.267604 -3.082058 0.857976 -1.488103 1.823646 -2.229567 -0.455199 1.451018 -1.796416 0.199342 0.182470 -1.296245 -1.842480 -0.226143 0.282672 0.830818 2.667198 -0.503478 0.407360 -0.367721 -0.742529 -3.200025 0.841693 -0.493580 0.293654 0.693594 -2.054815 0.158903 2.174260 -2.890688 -0.380121 0.616685 1.024239 -2.017381 1.369217 3.865901 -0.831621 1.483054 -0.179755 -0.265332 0.158094 1.284240 3.397410 2.651426 -0.894575 -1.710381 0.885347 -0.894256 -1.875271 0.394378 3.292901 0.854713 -1.096601 0.765198 1.767048 1.339420 -1.240528 -2.636794 -1.472148 -0.015456 -0.480210 -1.863410
geçiştiriyordu -0.672628 0.788991 1.609377 0.325996 -2.489994 -0.636463 0.833176 1.600055 0.475932 1.386541 2.504508 1.119389 1.942375 -1.439397 0.222772 4.311568 -0.531431 -0.706683 -2.174802 -3.310923 -2.058802 -0.372118 -1.031237 0.018643 0.213643 -0.973740 3.371488 -1.007743 0.171670 0.684360 0.078805 0.435751 0.367373 -3.920170 -3.377294 2.552861 -1.243651 0.403492 -2.349898 -1.883138 -2.089929 0.580388 -0.684845 -0.643706 0.290358 -1.258045 -0.094929 0.155806 2.219754 4.048448 -1.404417 -2.071023 -0.188220 -1.217781 -2.285733 0.345001 -1.580955 -0.115438 0.530785 -0.431471 -1.197167 1.562131 0.540179 0.043036
uzaklaştırmış -0.218485 1.830323 2.287034 -1.030832 -0.360439 1.686062 -1.455666 0.840849 2.464741 1.435215 -3.955458 0.402588 -2.786881 0.016986 -0.656176 -1.746127 -1.116038 -3.073309 -1.090390 -0.214893 4.357438 0.214896 -0.633027 1.362838 -1.084595 0.704975 0.761526 2.965413 2.508685 0.042595 2.172337 -0.170029 0.653538 0.853558 0.791019 -1.602845 2.237139 -0.959660 2.162058 -1.879163 -0.551049 0.335188 1.967323 2.234371 1.900339 1.204655 -0.915445 -0.684632 -0.282627 -3.177241 -0.218377 -0.548620 -0.025527 -3.074443 -0.638393 -0.088817 -2.234675 -0.871527 0.706994 1.460513 2.130104 -2.079012 0.240952 0.571827
getirmiş -0.626587 -2.504983 -0.578103 2.194611 1.991950 4.021476 2.659219 -0.133779 0.459485 -0.508196 1.209524 0.328658 1.314223 1.393986 -1.729102 -3.152851 0.743475 3.805160 0.859828 -1.595617 0.423771 2.326763 -0.303911 -0.420308 -2.840916 1.044109 -0.634772 -1.880148 -2.453559 0.560544 0.716971 -1.334584 -0.718610 -0.572779 -1.157907 -1.078659 -2.365872 1.111568 0.786217 0.741554 0.478750 -3.103046 1.915569 -1.241382 -0.103421 0.612505 -1.356162 -0.258375 -2.314779 -0.073448 1.888194 0.758379 3.310375 -0.618488 -1.007557 -0.140272 2.354870 0.292217 0.052842 -0.776630 -1.033616 -0.941583 1.538139 0.756451
anlayınca -0.238267 0.163324 0.336024 0.828386 0.841934 0.570425 0.341544 -0.430531 1.801596 1.563743 1.022732 1.191945 -1.207655 -1.502641 -1.074168 -2.405530 -1.519943 -2.109087 -0.665757 1.330797 -0.736111 -2.609467 -0.865436 -1.712581 -0.409408 -0.618847 -0.596937 2.942938 2.344218 1.244210 0.626235 3.132757 -0.266957 -2.041159 0.729506 2.263687 -0.160410 -1.483107 -1.636570 4.895424 -0.286270 -0.095857 -1.846275 1.250269 1.743142 0.752452 0.019953 -1.662351 -1.206424 0.138221 0.482490 0.260520 -0.771840 3.370385 -2.288157 -1.370502 -0.990837 -1.681817 -0.450186 1.777588 -0.282411 -1.303173 1.810725 4.203573
düşündüler -2.061581 2.360509 0.491262 -0.801179 -2.482848 0.023834 1.034891 -0.345597 1.996131 -1.504141 3.490350 1.485650 2.401309 1.828203 1.656034 0.677809 0.491728 1.171485 1.077205 0.868708 -1.669886 -0.487686 -0.411758 -0.276066 -1.277820 -1.390306 -1.834952 0.059774 2.934729 -2.382690 2.114491 -0.183521 -3.488030 -1.514619 1.489889 -0.141285 2.109348 0.336977 0.995188 -1.623558 -0.099971 -1.139058 1.462185 -2.746002 -2.885962 -0.244109 -1.592877 -0.340007 1.485510 1.053877 -0.573497 0.348036 -1.252794 0.657100 -0.207846 -1.037383 0.438485 0.570503 -1.535598 -1.309762 2.499488 2.031875 -2.207116 -0.301839
üzerinde -2.076792 2.607652 1.829322 -0.428137 0.152864 1.913871 1.177497 2.331582 -0.150364 0.177985 1.709330 0.467780 0.915351 -2.283578 -1.202462 3.008472 -3.968808 -1.934491 -2.003789 -1.424366 -0.298389 -1.445088 -0.489646 -2.195185 3.346708 -2.378378 3.015027 0.517602 -1.911319 2.394295 -1.868287 -1.668813 -2.084800 -2.137822 -1.266874 -0.790715 1.083313 0.559519 2.276375 0.312412 0.024908 0.444251 0.300229 -1.628888 -1.538113 0.255339 0.408140 0.903647 1.699855 -1.034178 -0.431215 -1.802031 -2.217818 -0.207900 -2.448210 0.660601 -2.439844 -0.556807 0.727423 -2.227367 0.325432 2.637891 1.083575 -1.308684
cüzdandan 0.800091 -1.733768 0.240999 2.004289 1.676313 -1.239932 0.206991 1.482990 1.838480 2.131148 -0.704759 2.246976 -0.175736 -1.888928 -1.427234 -1.398156 -1.545778 -0.357173 -3.068810 1.859380 -0.037768 -2.370678 -0.431351 0.559668 0.533084 -1.449173 0.662865 4.541734 1.713031 -1.812601 -0.653149 1.984166 0.517857 -2.493309 1.127145 3.235386 -0.787201 -0.897891 -1.092272 3.440289 0.622041 0.928642 -0.781712 0.045763 1.280360 0.515609 -0.279709 -2.375837 -1.400139 -0.584555 1.091411 -0.921345 -2.927536 1.614400 -3.189342 -1.445107 -3.457639 -1.214271 -1.467283 0.737557 0.795623 -1.078761 0.528236 1.544837
beklediler 1.415546 -2.974760 -1.004486 -2.251234 -0.693044 3.210436 0.740708 -0.820701 -0.395576 -1.271709 -0.657766 1.029826 1.859964 2.496221 -0.398601 -5.015092 -1.106858 1.573986 2.309392 -1.837034 -0.580535 2.952333 0.490405 -0.058416 2.543411 1.070349 1.564012 -1.917767 -1.864681 0.228517 0.165849 -0.338029 0.146408 -1.269416 -0.776876 -2.359322 -0.138748 0.162057 0.052407 -0.019827 1.812662 -0.972923 -2.872199 -1.801728 -0.970158 0.160672 -0.416222 -0.014091 -0.392760 -0.129176 2.649571 0.306001 0.419359 1.002945 -0.448561 -0.320589 2.149838 -2.908834 -0.886275 1.976901 0.945343 -0.635426 2.016118 -0.047631
hilminin -0.812684 0.894330 -0.756948 -2.009363 3.052604 0.998617 -1.140054 2.310196 1.052197 0.799499 -4.388972 2.194218 -1.953873 -0.249126 -2.977327 0.633085 -1.942565 -0.248383 -2.288981 2.826595 0.334417 -0.982599 -2.042002 0.703125 -1.345181 -2.576048 0.243812 -0.628328 2.788640 -1.297616 0.310842 0.802397 2.416409 0.490051 -0.999004 0.239410 2.593977 -0.577197 -2.259611 -0.621363 1.019794 1.074446 -1.741497 -0.135237 1.705571 0.834884 1.212187 -1.964607 -2.582101 -0.511158 -0.019726 -1.236229 -1.466734 -0.862950 3.277532 -0.577498 -0.805563 2.463649 0.148400 0.224197 1.402902 -1.505470 0.756011 2.444833
dolabında -2.164414 1.822783 -1.547346 -0.217061 1.900416 0.871744 -0.902392 1.327090 0.374190 1.540967 -4.247756 0.009491 -0.183065 -0.441306 -0.573718 -0.205565 -1.410741 -0.096005 -1.070411 2.059886 1.031724 -0.516559 -1.615066 0.479630 -3.257827 -3.232501 2.172737 0.064451 1.754223 -2.893195 2.075289 2.696625 1.023454 1.063929 -1.084670 -1.562781 1.653629 1.641839 -1.985984 -0.957929 1.436468 0.328252 -0.127469 -1.581281 0.304631 0.981748 0.706817 -2.531195 -1.326857 0.045639 0.327924 0.604324 -1.160450 1.425961 2.409452 -0.685905 -1.541089 2.427697 1.827377 2.271756 -0.406986 -3.872409 -0.458320 0.883188
etmişti 0.481439 -3.279261 -1.315354 -1.057492 -2.505941 0.589082 2.364127 -0.515144 -0.850763 -1.894047 -0.672810 0.340295 -0.854427 0.921152 -0.416091 -4.952850 -0.731690 1.370977 1.412375 -1.028919 -0.009394 5.135469 -0.916933 -0.668563 0.001387 1.994931 0.107288 -1.433153 -1.935803 0.262398 -0.147838 -1.210556 2.151428 -0.383565 0.211497 -1.745452 0.150664 0.904550 -0.591899 -0.657019 1.641533 -1.461714 -0.811739 -1.366341 -0.463371 0.285279 0.425323 -0.054262 -1.060672 0.258253 3.430567 -0.043527 0.756344 1.446759 -1.294045 -2.009222 0.421807 -2.547502 1.390547 0.178292 1.946585 2.006155 -0.117228 -0.017070
ayrılmaya -0.233179 0.876107 3.596989 0.587984 -0.841383 0.306850 -1.203709 -0.206805 -2.182620 1.011972 1.701931 1.476092 5.482175 -2.330021 -1.558769 1.709520 -1.198877 -2.310786 -1.964217 0.147436 -0.805900 -1.763135 0.647004 -1.564657 0.657884 1.770682 0.307617 -1.909277 -0.276749 -0.963004 -1.586026 0.264008 1.180633 -0.591900 -0.652519 -0.576424 -0.249324 -0.213549 1.244530 -1.022020 -0.573712 0.397720 2.909556 2.108460 0.233534 -1.955402 -2.081064 -2.193376 0.638569 1.770006 3.510403 -1.466181 -3.497771 0.852140 -0.853431 2.914476 1.033321 -1.510187 -0.622509 -0.102798 3.286103 1.235784 -0.795586 2.315376
koridorda -1.895757 -1.189883 0.341182 1.234996 -0.037440 0.343773 0.441587 1.142237 2.137173 2.164456 -0.083211 4.962271 0.154820 -1.414422 -0.006578 1.241152 -3.095429 -1.685989 -5.660372 0.512778 0.116811 -2.839549 0.185501 0.161501 0.546669 -1.619853 1.531559 2.615692 0.203187 -1.428654 -3.255365 1.726147 1.015108 -1.351106 0.065912 3.230880 0.266172 0.892131 0.096855 1.452137 -0.730206 2.813610 1.328353 -1.297337 0.385304 -0.686698 -2.112271 -2.600705 -0.184405 1.536590 -1.273968 -1.678754 -3.241928 1.645645 -3.126143 -1.552459 -1.725561 -0.445056 -1.311172 -0.871150 0.997591 -1.087228 0.590316 2.746660
başlamıştı -2.681755 -0.544109 2.445596 2.122958 -1.829110 0.540230 -1.510300 0.822561 -0.687669 1.602032 2.836659 0.991306 2.987908 -0.459160 -0.205109 3.301691 -2.434904 -1.626007 -0.734416 1.704314 -1.091924 -0.812085 1.165867 -1.404159 0.693115 0.853619 0.712176 1.148158 -1.340035 0.619454 -2.404385 1.590957 -0.020941 0.657186 -0.312672 2.725281 -0.005279 1.322726 2.442869 -1.178291 -0.772443 2.858888 2.683355 -0.091639 1.352848 -1.008398 -1.599266 -2.609353 0.810724 3.325439 1.512021 -1.387685 -2.050923 -0.847870 -2.333662 1.013008 0.411071 -1.428453 -1.082531 0.993230 3.466270 0.775941 -1.002191 2.650042
başka -0.978148 -0.293919 2.747372 1.170034 -0.962199 -0.748765 0.209353 0.300185 1.277443 1.335811 2.527174 4.575106 2.173009 1.094394 -0.223891 3.473982 -1.983639 -2.393507 -2.168798 -2.116037 -0.247830 0.602751 2.304300 -0.745617 0.017203 -1.433476 2.626996 -0.014136 -1.442058 1.669402 -1.963702 0.272629 -1.330224 -0.808229 -2.819587 2.490708 -0.434866 -0.815992 -2.170892 0.480936 -0.260640 1.573704 2.309596 -0.465593 -0.625798 -0.288550 -1.814008 0.134101 1.827675 2.451472 -0.973326 -3.222368 -1.653319 -0.455434 -1.569116 -1.188659 -2.658052 -0.860673 -0.415020 -2.345857 0.169370 1.356488 -2.196990 -0.071312
bende 0.008481 0.484150 0.978690 -0.919511 1.474525 2.330648 -0.828271 0.701649 0.365370 2.812699 -4.582405 0.981011 -1.386888 1.184958 0.445824 0.019765 -0.236689 -1.709280 -2.995656 0.233761 4.028263 -1.386853 -0.860548 2.012176 -0.691045 -1.050242 -1.330019 2.772528 0.835563 0.016107 2.482964 -0.482196 1.066994 -0.653903 -0.218399 1.224032 3.636751 -2.974062 -0.748456 0.086438 -0.670658 -0.225177 0.429105 2.080688 1.507616 0.348340 1.038138 -1.063041 -0.824013 -1.368198 -0.369536 -0.231393 -1.197947 -0.354725 2.515368 -1.734652 -0.450856 0.364237 0.673684 0.298517 3.183753 -3.652275 1.148893 1.141968
parasını 1.435322 -3.049813 -2.413691 -0.845654 -1.455396 2.429819 1.685567 -1.162667 -1.338780 0.152769 -1.807838 1.335430 0.751886 1.929785 -0.244083 -3.659200 -0.474854 0.962084 0.938915 -1.587245 0.622597 3.872422 -0.709953 -0.084219 0.688625 0.513313 1.100193 -2.243652 -2.681135 -0.851843 0.076010 -0.486305 -0.806870 -1.138679 -0.088174 0.003491 -0.076704 1.077430 -0.943789 1.243638 2.216995 -1.573812 -0.222207 -0.451677 -0.348985 -0.019102 -0.224633 1.492852 -1.955837 0.838080 1.436904 1.188995 1.043382 0.547781 -0.013062 -0.842435 3.021108 -1.108405 0.233385 0.764939 0.544680 1.193032 -0.816802 1.289530
saniye -1.686612 0.542342 1.059139 1.231767 -1.980749 -0.323146 0.766211 -1.495113 2.317884 0.324865 3.963611 0.403431 1.750107 0.727819 2.101124 -0.300743 0.832147 -1.772491 -0.660350 1.352087 -0.772808 -1.120937 -0.814085 -0.062752 0.007618 0.217213 0.207450 1.456416 2.786963 -2.046761 0.629263 -1.379441 -3.534883 0.926036 -0.913938 1.266597 2.271715 0.863425 1.028144 -1.406350 0.557065 -0.277647 0.350987 -2.299810 -4.347495 1.196245 -1.613036 -0.856123 1.564896 -0.017078 -1.187730 -1.885423 -1.840096 1.313200 -0.981201 -1.281241 1.561483 1.415896 -1.652821 -0.657817 2.719200 0.885773 -2.470055 -0.248855
ranzanın -1.873816 1.967698 0.603709 0.968521 -2.462223 2.145981 1.278204 0.214313 -0.814457 0.265432 2.916870 1.540768 1.928244 -0.897786 -0.731707 3.031401 -3.153984 -1.825179 -2.995135 0.081631 -1.408130 -0.896707 2.705525 -2.292814 2.953387 -3.173478 1.478579 0.632493 -1.088537 0.136778 -1.457696 1.158270 -1.158932 -0.007996 -1.883418 3.047785 1.474073 1.648143 1.270941 1.128843 -2.592153 1.889911 1.471329 -2.322009 -0.110603 -1.642406 -2.146612 0.550103 2.116467 0.618201 -0.638996 -1.038225 0.090931 1.331715 -1.618419 0.085797 -2.100757 -0.585386 1.581314 -1.375117 2.749829 0.041901 0.861326 0.901223
kaybeden 0.354447 -1.670662 -1.032466 -0.767907 -0.529620 2.145078 1.836984 -0.571180 0.305183 0.960670 -0.178459 0.021770 1.895216 1.129014 -0.777697 -4.232181 1.345932 3.994594 0.232477 -1.891796 0.780994 2.912143 -0.422063 -0.899647 -0.304378 -0.797387 -0.123671 -1.155577 -2.704784 -1.328734 0.282932 -0.813234 -0.640685 -0.837098 -1.162910 0.244318 -0.799886 0.182966 -0.408662 1.218493 0.258431 -2.149681 0.990328 -0.564039 -0.525188 1.611429 0.358692 0.700522 -1.521307 -1.537656 3.446033 2.266512 2.911805 -0.818003 -2.329432 0.565350 2.471449 -0.539538 -0.617376 -0.485747 1.246879 -0.929091 1.180801 -0.332818
yapılmıştı 0.583968 -0.978077 -2.100159 -3.554952 2.333608 0.291000 0.707858 0.495512 2.999671 0.521677 -1.919372 1.508811 -2.016110 -0.698635 -0.827881 -1.821002 -2.648251 1.166942 -0.137255 0.230335 2.044939 -2.666990 -2.565871 0.767945 -0.888402 -3.381791 -0.797207 0.813909 -0.839441 -0.223481 2.184894 0.199282 2.265252 1.222297 -1.117386 1.235936 1.176288 0.086579 1.041907 -0.297908 -0.065297 1.547295 3.139890 2.540014 3.180230 1.251253 0.581548 -1.889169 -1.582287 -0.035809 -0.986030 -1.020065 -1.426448 0.369858 2.385405 -1.528621 0.841178 1.480621 0.151528 -1.599184 0.590538 -3.266690 1.508345 0.095496
şikâyetçi 0.057340 -4.409047 -1.993003 -1.641875 1.511562 0.521563 3.790119 -1.144819 1.823885 1.355108 -1.559655 0.499743 0.244409 0.083553 -1.382908 -3.338481 0.667388 4.003310 1.694831 -0.967403 0.534501 1.220948 -0.515775 -2.764137 -0.026460 0.000564 0.824612 -1.636642 -2.747794 -0.378407 2.829423 -1.990535 -0.940374 0.284865 -0.231715 -0.482677 -0.785386 1.935494 -0.647687 1.572121 -0.026584 -2.061036 1.728855 0.090005 3.062168 2.549853 -0.562110 -1.535224 -0.416314 -0.187343 1.766972 0.589406 3.795881 -0.876727 -0.907526 0.971391 3.457394 0.264544 -0.642088 -1.108568 -0.826459 -0.584884 0.392084 -0.132882
arama -1.829030 -3.545727 0.121284 -3.632860 2.710919 -0.182666 1.161489 -1.197887 2.358681 1.365546 -2.091127 2.159450 -0.890705 -3.434171 -0.866429 -0.311345 -0.322548 4.076879 0.512047 -0.999735 0.835495 -0.578827 -2.887751 1.082892 -1.004951 -1.925273 0.241402 0.952063 -1.158735 -1.328513 2.507879 -4.319773 0.841011 2.218044 0.670517 0.072343 0.409045 -0.276593 -0.764412 0.471278 -0.784067 2.094432 1.112636 1.752224 2.881787 0.263379 -0.635445 -1.896709 0.403248 -0.261905 -0.467628 -0.382106 0.733127 0.047046 0.415740 -1.423919 0.056576 0.673887 0.164408 0.268863 0.916401 -4.092916 0.886826 1.721553
yurtta 1.417941 -3.391221 -3.035810 -3.153802 1.940314 -0.894931 2.090321 -0.039094 2.333727 0.416029 -1.147211 1.034060 -2.417886 -1.337000 -0.767828 -2.066906 -1.836174 2.413979 1.833440 0.524619 0.799724 -2.096095 -1.421703 -1.499302 0.295040 -2.512268 0.285869 -0.296644 -1.218697 0.250685 3.457549 -1.302711 0.375170 0.104187 -0.455430 0.729921 0.434396 2.103291 0.673499 1.002053 -0.634420 0.804222 3.528653 2.759670 3.925640 2.426885 0.183547 -2.243296 0.942319 0.828761 -1.521861 -0.121533 0.810394 -0.314739 1.258146 -1.052064 2.196459 1.146066 -0.828112 -2.618902 -0.204114 -1.654853 0.789052 -0.216017
istedi -0.796708 3.293621 0.857475 -1.168221 -1.504430 1.874463 1.206688 2.984916 -0.762187 -0.753632 1.144528 0.016973 0.787979 -2.347758 -0.597398 4.606977 -1.805584 -1.651690 0.122222 -1.634526 -0.999305 -0.487475 -0.743650 -0.706386 1.883615 -0.661284 1.913982 -0.468575 -2.354615 1.279415 -1.110208 -0.745020 -1.923863 -1.478343 -3.147290 0.380605 0.402633 -0.292418 0.145865 1.150106 0.050641 0.370741 -0.069607 -0.397089 -0.093675 0.519766 -0.160049 2.247699 1.319353 -1.714923 -0.052872 -1.657965 -0.640281 0.947602 -1.573789 0.434709 -1.816695 0.023498 1.877887 -0.409362 -0.857438 2.027028 1.895745 -2.406622
