51 64
JUN -0.015090 0.002915 0.001631 0.010260 -0.002916 0.002408 0.009466 0.001754 0.006627 0.001802 0.000681 0.009686 -0.003511 -0.003554 -0.007009 0.000441 0.002387 0.014932 0.004056 -0.006495 -0.012765 0.003369 0.007478 0.006463 -0.012166 -0.007672 -0.008291 -0.003412 0.015573 -0.005892 -0.005273 0.004783 -0.006382 -0.006422 0.011856 -0.006984 -0.007284 -0.007950 0.002958 -0.009072 -0.001216 -0.009509 0.005670 0.002329 0.000021 -0.000837 0.009632 0.002378 0.001367 0.002106 -0.016739 0.004219 0.004893 0.002244 0.002128 0.007106 0.000081 0.008914 0.001517 0.012677 0.009741 0.001163 0.005545 0.002427
MAR -0.007023 0.000129 -0.004574 0.007038 0.003862 0.006483 0.011756 0.010389 -0.003651 -0.002148 -0.001264 0.003770 0.001203 -0.000175 0.003212 -0.007270 0.005486 0.010008 0.008422 -0.001966 -0.006010 -0.002844 0.003063 -0.003351 -0.009982 0.001389 0.004271 0.002384 0.003126 0.000604 0.005079 -0.002213 0.001727 -0.012026 0.014317 -0.001522 0.000867 0.003182 -0.001184 -0.005039 0.001393 -0.004842 -0.005030 -0.009186 -0.009687 0.008093 0.002572 -0.001488 0.001870 -0.000326 -0.015089 -0.007105 -0.005971 0.008425 0.003209 -0.005905 -0.002305 0.008554 -0.003406 0.000504 0.006330 0.005596 0.000875 0.003013
APR -0.010437 -0.003816 -0.001858 0.005053 0.006592 -0.004365 0.014113 0.014726 0.005557 0.002283 -0.005174 0.010473 -0.002046 -0.001920 0.003104 -0.006059 0.009910 0.012891 0.008611 -0.010725 -0.008733 0.000624 0.006936 0.005147 -0.010142 -0.004644 -0.002707 -0.005927 0.009292 0.001715 0.007570 -0.006346 -0.010498 -0.011110 0.015488 -0.005811 0.003514 -0.003674 -0.002722 0.003320 0.010966 -0.007276 0.000941 -0.008794 -0.002225 0.007657 -0.003226 -0.003249 0.000130 -0.003095 -0.013267 -0.008969 0.003977 0.009782 0.005999 0.001558 0.007617 0.008567 0.004234 0.008354 0.006266 -0.008504 0.004296 0.003857
SEP -0.011870 -0.007302 -0.000914 0.003329 0.007905 0.004933 0.010784 0.002683 -0.002076 0.000934 -0.005737 0.004931 0.000364 -0.000645 0.002307 -0.001238 0.009556 0.007913 0.010215 -0.013760 -0.006894 -0.002090 -0.004350 -0.002158 -0.009893 -0.009259 0.003775 -0.006348 0.007251 -0.009987 0.002478 -0.003673 -0.000868 -0.004133 0.012211 -0.002648 0.000369 -0.010872 0.008476 -0.006668 0.009047 -0.009248 0.000108 -0.010557 -0.000457 0.001596 -0.002652 -0.008323 -0.004547 0.004777 -0.012008 -0.002670 -0.002489 0.001393 0.009222 0.006060 -0.003160 0.001546 -0.006002 0.011759 -0.001269 0.001086 0.003083 -0.002892
OCT -0.010230 -0.004123 -0.001189 0.003960 0.005693 0.002520 0.011222 0.012065 -0.006355 -0.006419 -0.001085 0.005389 -0.003939 0.005002 0.002226 -0.007845 0.010223 0.004928 0.006521 -0.003592 -0.002450 0.004483 -0.002222 0.002088 -0.006180 0.000605 -0.008712 0.005138 0.008444 0.001670 0.000732 -0.004342 -0.000912 -0.007767 0.009397 -0.003050 0.004703 -0.010563 0.007582 -0.001831 0.003808 -0.004169 -0.001643 -0.001681 -0.008575 0.005655 0.001292 -0.010137 0.009966 0.007102 -0.006515 0.001265 0.004791 -0.001073 0.008372 0.000151 0.000357 0.006809 -0.001300 0.010650 0.001846 -0.001118 0.006458 -0.002749
AUG -0.015496 -0.008864 -0.008596 0.007980 -0.000442 -0.000315 0.012579 0.009846 0.007129 0.000806 0.001623 0.010579 0.009220 0.008458 -0.001709 0.005311 0.007978 -0.000264 0.008892 -0.013154 -0.009481 -0.000036 -0.006278 0.008224 0.002352 -0.010053 -0.009129 -0.003583 0.010410 0.000197 -0.003904 0.002271 -0.007785 -0.007278 0.011753 -0.004295 0.004611 -0.004372 0.008740 -0.005136 0.009066 -0.004664 0.006238 -0.010047 0.003569 0.005714 0.003988 -0.005378 0.009561 0.009772 -0.014135 -0.001376 -0.001741 0.007289 0.003465 -0.003283 0.005195 0.009579 0.002660 -0.003091 0.003627 -0.002378 0.005658 -0.002488
MAY -0.012386 -0.002552 0.003629 0.004085 -0.004366 0.001693 0.003004 0.007441 0.003142 -0.000592 0.006308 0.003700 -0.001420 0.006314 -0.007343 -0.001953 0.000147 -0.000017 0.007526 -0.009576 0.000115 0.008807 -0.002440 0.000913 0.002384 -0.008664 0.006230 -0.003978 0.010676 -0.008323 -0.006336 -0.007689 -0.003273 -0.006711 0.011123 0.002677 -0.005323 -0.007361 -0.004418 -0.005288 -0.002759 -0.001231 0.003913 0.000518 -0.005155 -0.000543 0.009562 -0.003873 -0.000415 0.006618 -0.010619 0.001655 -0.001452 0.006072 0.001511 0.001498 -0.004896 0.004915 0.002768 0.007823 0.011887 -0.000782 -0.003442 0.002400
JAN -0.004055 0.000492 -0.002508 0.004319 -0.005044 -0.001393 0.011854 0.012827 -0.005280 -0.003955 -0.004217 0.006003 -0.001847 0.002612 -0.002540 -0.001833 0.006486 0.011319 -0.002053 -0.009987 -0.003927 0.007884 -0.000685 0.008471 -0.002453 -0.007263 -0.002959 0.005976 0.013974 0.000712 0.004612 -0.006566 0.002472 -0.008611 0.013117 0.000327 0.006200 -0.008801 0.003220 0.003784 0.008369 -0.007665 0.004564 -0.002809 -0.003530 0.000046 0.004420 -0.001380 0.008277 0.008261 -0.007445 -0.007169 -0.005268 -0.000875 0.004634 0.001739 -0.000362 0.003419 0.005185 0.009592 0.003884 -0.006067 -0.001158 -0.004979
FEB -0.015089 -0.008888 -0.000320 -0.000776 0.009145 -0.006143 0.001110 0.004273 0.001198 -0.006092 -0.003961 0.007036 -0.001549 -0.003993 -0.007894 -0.007056 0.010771 0.013346 0.000026 -0.008826 -0.008402 0.009999 -0.003423 -0.003265 -0.005666 0.001820 -0.003168 -0.004705 0.013951 -0.005924 0.001589 0.000230 -0.006535 0.001653 0.011410 0.002818 -0.007284 -0.000639 0.008321 -0.000283 0.002097 0.005458 0.000699 -0.002358 -0.001058 -0.005622 0.009666 -0.008145 0.000811 -0.001759 -0.010635 0.005767 -0.007879 0.007514 0.002120 -0.006692 0.008745 -0.003044 -0.003070 0.001618 0.002287 -0.006754 -0.006125 0.007236
JUL -0.015418 0.002049 -0.005238 0.004692 0.007738 -0.005527 0.004653 0.013195 -0.006028 -0.002746 -0.002842 0.006431 -0.000119 0.001863 0.001451 0.002919 0.003042 0.012370 0.000457 -0.001956 0.003027 0.005809 0.006626 -0.000260 0.001252 0.001418 -0.006265 0.005078 0.015340 -0.004182 -0.004873 -0.006281 -0.005858 -0.007210 0.013475 0.001980 0.003826 -0.006013 0.005870 -0.004006 0.010895 0.001387 0.001831 -0.008671 -0.002442 0.003607 0.002638 -0.007628 0.006841 0.008462 -0.013841 -0.005583 0.005063 -0.002307 0.002119 -0.000545 0.005112 0.000347 0.008486 0.008816 0.008106 -0.006638 0.006868 -0.003203
NOV -0.011808 -0.009299 -0.007419 -0.000222 -0.005684 0.008052 -0.002538 -0.000767 0.006217 0.004839 -0.004882 0.001879 0.005980 -0.002591 0.000107 -0.006351 0.010350 0.013616 0.001926 -0.012338 -0.011393 -0.000988 0.001192 -0.003985 -0.008129 -0.002347 0.005481 0.001074 0.003470 -0.007980 0.004365 -0.007914 -0.006815 -0.010828 0.007219 0.003360 -0.002415 -0.002281 0.000775 0.001722 0.003587 -0.002739 0.009092 0.000368 0.003770 -0.006132 -0.000030 -0.001414 -0.004036 0.006634 -0.007198 0.004914 0.002043 0.006187 0.002821 0.005257 -0.004260 -0.001426 -0.001989 0.005339 0.010676 -0.001182 -0.003676 -0.005754
DEC -0.011267 0.000555 -0.005126 -0.002884 -0.003217 0.000769 0.006710 0.010419 0.001935 0.000228 -0.003498 0.003927 0.006286 -0.004759 0.003091 0.001198 0.005904 0.010652 0.006652 -0.003782 -0.009566 -0.001736 0.000480 0.009312 -0.012454 0.002939 0.001115 0.003371 0.002290 -0.009807 -0.006354 -0.001900 -0.011265 0.000180 0.012379 0.002696 -0.004104 -0.007888 0.004697 -0.010340 0.005871 0.004423 -0.001809 -0.004398 0.000641 0.002877 -0.000382 0.002999 -0.000699 -0.002655 -0.013689 -0.003039 0.007330 0.000444 -0.002448 0.002554 0.002607 0.000168 0.008634 -0.001684 0.008596 -0.000882 -0.004817 0.002220
day -0.015053 -0.000979 -0.008511 -0.004130 0.008751 0.002868 0.001674 0.011555 -0.004272 -0.005775 -0.005364 0.006123 0.008672 0.007643 -0.002908 0.001038 -0.002705 0.010319 0.004008 -0.006431 0.001092 0.008506 0.003359 0.006475 -0.002726 -0.004663 -0.007750 -0.001829 0.013084 -0.011367 -0.000591 -0.003647 -0.009158 -0.010341 0.009636 -0.007184 -0.001101 0.002009 -0.004452 -0.001305 0.011493 0.000786 0.002851 0.005111 -0.005666 -0.002648 0.009868 -0.000100 0.001448 0.002954 -0.004453 0.003932 -0.000815 0.002819 0.003543 -0.006196 0.003471 0.010295 0.002603 0.002608 0.010661 -0.008168 -0.003486 -0.001983
13 0.002516 0.004342 -0.005059 -0.007023 0.003123 0.002506 -0.004644 0.009358 -0.005756 -0.007196 0.005371 -0.003572 0.006491 0.007169 -0.000657 -0.007141 0.001729 0.007465 0.006008 0.005430 -0.004905 -0.001434 -0.005761 0.000571 -0.007591 -0.003728 -0.004752 -0.006273 0.009870 0.002940 0.000986 -0.008357 0.003904 -0.008203 0.004755 -0.004311 -0.001728 0.001698 0.005258 -0.003061 0.007705 0.006773 -0.001547 -0.007359 -0.005751 -0.005101 0.007704 -0.000897 -0.005803 -0.006241 0.002623 0.006993 -0.003253 -0.006244 0.003887 0.002586 0.005653 -0.000592 -0.000471 0.005729 0.001020 -0.006442 0.002782 0.003129
2014 -0.001436 -0.006344 0.002128 0.008252 0.004533 0.000566 0.001520 0.001435 -0.002950 -0.006859 -0.000946 -0.005610 -0.001227 0.005080 -0.000267 -0.000697 -0.001096 -0.000094 0.003223 -0.010320 -0.005542 -0.004670 -0.004083 0.004427 -0.009066 -0.006153 0.001251 -0.005481 0.010043 -0.009563 -0.000119 0.005437 0.005999 -0.006736 0.008579 -0.000053 -0.001237 0.002838 0.003426 -0.001471 0.005064 0.000550 -0.001446 0.004675 -0.008207 -0.006703 0.004528 -0.009454 0.007402 0.006762 -0.004958 -0.007644 0.006005 -0.000049 0.005569 -0.002214 -0.001552 0.007727 -0.001063 0.004440 0.003090 0.004596 -0.002338 -0.004497
5 0.004078 0.001779 0.001619 0.006831 0.006265 0.000319 0.009129 0.007186 -0.003426 0.000275 0.005775 0.003951 -0.006254 0.006861 -0.002222 -0.007478 0.003287 0.002545 0.004810 -0.003215 -0.007262 0.005834 -0.003463 0.008512 0.000196 0.004043 0.001431 -0.000474 0.006607 0.000084 0.005122 -0.006701 0.003912 -0.000642 -0.003998 0.007269 0.001334 -0.007958 0.005970 -0.007226 -0.001315 0.005132 0.002230 0.000774 0.003984 -0.004551 -0.001130 -0.007146 -0.006969 -0.004700 -0.006879 -0.006419 0.000958 -0.006576 0.002348 0.001605 -0.001443 -0.003330 0.001286 0.001912 0.006517 -0.000149 -0.005110 0.007020
16 -0.004951 0.006856 -0.003874 -0.006781 0.000788 0.006265 -0.003018 0.002581 -0.005524 -0.000301 0.004584 0.003377 0.001159 -0.006591 -0.000965 -0.004708 -0.001812 -0.000886 0.002946 0.002000 -0.005687 0.004745 0.002523 -0.003197 -0.001444 -0.003405 -0.003171 0.005438 0.001527 -0.002510 -0.000448 -0.005110 0.004508 -0.001370 0.008578 -0.003927 0.007163 -0.007441 -0.003393 -0.006359 0.004769 -0.005358 0.006903 0.000654 -0.003588 -0.005496 -0.005877 -0.006706 -0.002538 0.005358 0.000408 0.006512 0.007197 0.007192 0.000325 -0.005217 0.007043 -0.000793 -0.000606 -0.003260 0.000250 0.005895 0.003936 0.003899
18 0.002454 0.003045 0.005051 0.006144 -0.007241 -0.005244 -0.001194 -0.004543 0.001169 -0.005376 -0.001686 0.002632 -0.001175 0.007635 -0.006751 -0.004741 -0.001995 0.000078 0.002153 -0.003794 -0.002396 -0.004957 0.004858 0.005986 -0.005272 -0.008012 -0.006818 -0.000707 0.003497 -0.007145 -0.000055 -0.001831 -0.002916 -0.000563 0.004801 -0.003506 -0.007262 0.004359 0.006236 -0.001600 0.001214 -0.003093 -0.002139 0.005336 -0.000021 -0.007133 0.005290 -0.001704 0.004266 0.004904 -0.004740 0.004133 -0.007759 0.007276 0.004830 0.002264 0.002803 0.003470 0.002144 0.008111 0.007394 -0.005256 -0.002537 -0.004835
2017 0.002518 0.004235 -0.003163 0.001837 -0.004939 0.007328 -0.000962 0.000744 -0.003746 -0.004839 0.005079 0.003467 0.006807 -0.006739 -0.003497 0.007433 -0.005217 0.009696 -0.002997 -0.009029 -0.000787 -0.006405 0.002488 0.007653 -0.009567 -0.000125 0.004685 0.000477 0.011112 -0.006795 -0.000869 -0.005145 -0.007990 0.000184 0.008196 0.002120 -0.006889 0.002540 -0.004039 -0.000979 -0.005562 -0.003309 0.002152 -0.006692 0.000949 -0.005918 -0.003035 0.001954 -0.001691 0.003804 -0.001411 0.002192 -0.006264 -0.004589 0.003428 0.000166 -0.005484 -0.004313 -0.002444 0.000505 0.008949 -0.002332 0.000214 0.003390
23 -0.007581 0.004896 0.002291 0.004421 0.006580 0.001790 -0.000719 0.003157 -0.005986 0.004067 0.005035 -0.005822 -0.002232 0.004565 -0.001719 0.003006 0.003292 0.003554 0.004763 0.004496 0.003427 0.008450 0.001210 -0.005357 0.004797 -0.000740 0.004548 -0.000569 0.005430 -0.004033 -0.006079 0.005077 0.001093 -0.002417 0.007387 0.000514 0.004496 0.001473 -0.002365 0.000974 0.006455 0.002546 -0.000040 -0.005197 0.003378 0.003705 -0.004609 -0.008510 -0.007235 0.001224 0.004919 -0.005130 0.002345 -0.007233 0.004237 -0.003673 -0.006228 0.002618 -0.004104 0.003877 -0.003977 -0.001748 -0.000707 -0.005493
4 -0.000770 0.004944 0.001610 0.006388 -0.001456 0.002850 -0.002589 -0.002169 0.002340 0.005442 0.002589 -0.004486 0.004901 0.002825 -0.003458 -0.006530 -0.003829 -0.001162 -0.002439 -0.005925 0.000860 0.006977 0.001460 -0.005491 -0.008365 0.002335 0.004647 0.001870 0.010046 0.000068 -0.000795 0.002461 -0.005682 -0.006920 0.004187 0.005048 -0.004942 0.000729 -0.001042 -0.001627 0.001260 0.001372 0.006936 -0.008449 -0.004895 0.001708 0.001723 -0.004947 -0.002275 -0.003455 -0.002300 -0.003905 -0.003753 0.008272 0.006821 0.005875 -0.003458 0.001409 -0.002134 -0.004104 0.001681 0.001284 -0.004820 -0.002909
year -0.006171 0.001571 0.005776 0.010220 -0.001926 0.005098 0.010129 0.004598 0.005911 -0.000242 0.002314 0.008897 0.002688 -0.005435 0.006469 -0.005404 0.001151 0.001522 -0.000819 -0.010429 -0.005470 0.003642 0.000418 0.006874 0.000158 0.005104 0.006780 -0.008006 0.007757 -0.008207 -0.004091 0.000804 -0.003705 -0.004817 0.012561 -0.001138 0.002494 -0.007467 0.000141 -0.004927 0.007074 -0.003763 0.005325 -0.008553 -0.003770 0.000317 -0.004330 -0.005055 0.009721 0.004099 -0.009641 -0.002459 -0.002533 -0.002824 0.009292 0.001488 0.006134 0.001724 0.005878 0.009366 0.000245 0.006207 -0.004096 0.006395
2015 -0.007883 -0.006001 -0.003229 -0.003877 -0.006146 -0.001022 -0.000992 0.000883 -0.007318 -0.005269 -0.007426 -0.003346 -0.002421 0.007605 -0.007723 -0.003834 -0.005220 0.005388 0.005394 -0.009380 -0.008572 0.003948 0.002676 0.006883 -0.004800 0.001462 0.000863 0.005089 -0.001626 -0.001610 0.005004 -0.003269 -0.007223 -0.010086 0.010058 -0.001685 0.000387 -0.000522 0.004408 -0.000257 -0.002280 0.006151 -0.001220 -0.003090 -0.003225 0.005513 0.002730 -0.002419 0.006806 -0.001648 -0.007935 0.003006 -0.003773 0.000576 0.006679 -0.006417 0.004786 0.001689 -0.004704 -0.000716 0.008895 -0.008090 0.004134 -0.002505
15 -0.003541 -0.003429 -0.000743 -0.003208 -0.003261 -0.005699 0.005992 -0.003065 -0.006837 0.006090 -0.007401 0.007154 0.001644 -0.006189 -0.002276 0.003187 -0.002428 0.005138 -0.001781 -0.001564 0.004143 0.006933 -0.007144 0.008334 -0.002814 -0.004472 -0.002956 0.006617 -0.002751 -0.009052 0.001139 -0.001865 0.003643 0.001580 0.004975 0.004277 -0.000316 -0.006927 0.008553 0.000840 0.008708 0.005957 0.005573 -0.008344 0.002120 -0.003899 -0.006385 -0.002910 0.008217 -0.001478 0.002898 -0.001307 -0.006711 0.007104 -0.002311 0.002583 -0.004612 -0.002470 -0.003875 -0.002442 0.003953 -0.003823 -0.003901 0.001301
2016 -0.004087 0.002449 -0.006154 -0.003252 0.001497 0.008097 0.006245 -0.003700 -0.002820 -0.005413 0.003069 -0.005807 0.003844 0.005614 0.004286 0.002790 -0.001016 0.008703 0.002142 0.002440 -0.008460 0.003565 -0.003101 0.006942 0.001911 -0.005249 0.001813 0.000345 0.000894 -0.008318 0.006462 0.002274 -0.000940 0.005206 0.004356 0.006035 0.007296 -0.003669 0.002118 0.000754 -0.000140 -0.005011 -0.004089 -0.001166 -0.002428 -0.000407 0.003382 -0.006594 -0.004040 0.005385 -0.008654 0.000343 0.003789 0.006228 -0.002151 -0.005560 -0.006192 0.002691 -0.005068 0.002427 -0.002953 0.004009 0.007539 0.007568
2013 -0.011054 -0.002676 -0.002368 0.000547 0.006063 0.004064 0.003574 -0.001858 -0.002575 -0.006441 -0.003404 -0.006501 0.002657 -0.005384 0.007075 0.003796 0.005652 -0.001276 0.008888 -0.000714 -0.007587 0.004773 0.001271 0.005648 -0.000287 -0.005260 -0.000852 0.005921 0.010145 -0.004639 0.007714 -0.008166 -0.008394 -0.000630 -0.000681 0.003219 -0.000212 -0.008573 -0.003472 -0.004413 -0.000584 -0.005077 0.006992 0.004266 -0.006194 -0.000416 -0.006621 -0.008600 0.006146 0.005500 -0.003770 -0.006897 -0.003565 0.001583 0.002928 -0.006865 -0.006882 0.004980 0.004189 -0.000935 0.007923 -0.006190 0.004000 0.001949
12 0.001944 -0.005718 -0.006410 0.002863 -0.001130 0.001970 0.007412 0.009394 -0.003412 0.001094 0.005639 0.007144 0.004033 0.006933 0.003160 -0.004803 -0.000008 -0.000863 0.003782 0.004660 -0.004318 -0.003618 -0.001090 -0.003427 -0.004160 -0.006731 0.000216 0.000406 0.007210 0.004445 -0.003272 -0.003638 0.000602 -0.003083 -0.004472 0.001048 -0.000580 0.001621 0.004550 -0.002024 0.005729 -0.002652 0.003310 0.005195 -0.001194 -0.005847 0.006489 0.001058 0.004534 -0.006911 -0.003378 -0.002078 -0.003862 -0.003015 0.004169 -0.000658 0.006976 0.002306 -0.001443 0.002830 0.009302 -0.004416 0.006466 -0.007439
1 -0.007532 -0.004033 0.006181 -0.006163 0.003208 0.005160 0.001628 -0.003506 -0.001483 -0.003850 0.004220 0.003933 0.003617 -0.001285 -0.007407 -0.003385 0.001377 -0.003633 -0.000053 -0.001650 0.006041 0.006690 -0.004112 0.002787 -0.008088 -0.000690 0.003322 -0.005877 0.000567 0.000988 -0.006419 0.001604 -0.001045 0.006246 0.007233 0.002421 0.005545 -0.008230 -0.001759 0.006198 0.007355 -0.004624 0.001446 0.002258 0.004398 0.005588 -0.006575 -0.000599 0.001277 0.004689 -0.002677 -0.007368 0.002503 -0.006844 0.003909 0.007545 0.005907 0.002588 0.002569 -0.002170 0.001186 0.005996 0.004673 0.003374
9 -0.005724 -0.001639 -0.000408 0.000023 -0.005933 0.001104 0.003359 0.006092 -0.006459 0.004488 0.004008 -0.005186 0.007020 0.000660 0.006070 0.000831 0.006925 0.001504 -0.004300 -0.005228 -0.001151 0.007414 0.003181 0.006571 0.005144 -0.006272 -0.005320 -0.004016 0.000043 -0.005181 -0.001261 0.006968 0.004530 0.003747 -0.000256 -0.004891 0.006917 -0.002876 0.005328 -0.007928 0.004535 -0.000381 0.002802 -0.008054 -0.007803 0.006602 0.005784 0.003547 -0.000504 0.005311 0.004218 -0.004813 -0.002785 -0.003811 0.006022 -0.001146 -0.002867 -0.003140 0.001564 0.003211 0.006945 -0.007998 -0.004546 -0.004844
19 0.004784 -0.001957 -0.007188 -0.006053 0.007715 -0.002961 -0.006799 0.005952 0.000870 -0.004885 -0.003673 -0.006292 -0.002460 -0.005210 -0.005416 -0.001270 0.005306 0.006163 0.002873 -0.002575 0.003293 -0.004060 -0.002761 -0.006772 -0.001064 0.001146 0.004925 0.006788 0.007284 -0.000057 -0.002094 -0.007635 0.006024 0.002457 -0.004724 -0.000901 0.007950 0.003292 0.000947 0.006439 -0.002770 -0.000982 0.001942 -0.002777 -0.003201 0.000171 0.006677 0.003507 0.003713 -0.006527 -0.005591 0.005428 -0.000370 -0.004994 0.000300 -0.004231 0.003454 0.004136 0.006298 0.000343 -0.005141 0.000889 -0.004736 -0.002914
month -0.002574 -0.004020 -0.008002 0.008328 0.002512 -0.002198 0.000083 0.002736 0.000776 0.003851 0.000892 0.001335 0.004475 -0.000333 0.004028 -0.004405 -0.001793 0.007309 -0.005477 -0.008776 0.000485 0.005442 0.007598 0.005063 -0.009001 -0.004301 0.007075 -0.002675 0.003802 0.002860 0.005259 0.002381 -0.000694 -0.002269 0.005949 0.002827 0.006270 0.004023 0.007707 -0.006798 -0.004822 0.000820 0.004022 0.005263 0.002299 -0.005598 0.005579 0.002934 -0.001080 0.002465 -0.001607 -0.001926 -0.005958 -0.002950 0.001735 0.003350 -0.001082 -0.004801 -0.004514 0.005060 -0.003681 0.001242 0.005820 -0.004860
6 -0.000568 -0.005793 0.007192 -0.004132 0.002973 -0.007246 0.004965 0.008039 -0.001619 0.001383 -0.006056 0.000206 0.003269 0.006454 0.007197 0.006789 0.000781 -0.001268 0.007350 -0.005204 0.005220 0.001957 -0.007110 -0.001272 0.001080 0.004711 -0.007112 -0.001866 0.004931 -0.004334 0.004474 -0.003999 -0.000688 -0.007532 -0.005509 -0.005754 0.004712 -0.001278 -0.006402 -0.007220 -0.004853 -0.008263 0.004267 -0.007669 -0.000761 -0.000570 0.003832 -0.001359 0.006113 0.002038 -0.003774 0.003458 -0.001455 -0.000496 -0.005447 -0.001226 -0.006826 0.003004 -0.002747 -0.004606 0.004193 0.000994 -0.006715 -0.001984
27 0.003930 0.001352 -0.000315 -0.006816 0.007403 0.007229 -0.000553 0.002070 0.001668 -0.003238 -0.003361 -0.001946 -0.001902 0.005065 -0.001080 -0.005246 0.002617 0.001186 0.003115 0.000592 -0.003574 0.004704 -0.002845 -0.003333 -0.007222 -0.003236 -0.005916 0.002389 0.005709 -0.001552 -0.001596 -0.001698 -0.007608 0.004602 0.004441 -0.007012 -0.002020 -0.007628 0.006083 -0.007128 -0.001193 -0.007858 -0.001399 -0.005384 0.003234 0.003075 0.000481 -0.001664 0.007420 -0.006276 0.003414 -0.001953 0.003201 -0.000389 0.003659 -0.005935 -0.003277 -0.005801 0.003646 -0.001279 0.000975 -0.000984 0.005129 0.005471
11 -0.003999 0.001972 -0.000814 -0.004870 0.004058 -0.004051 0.004341 0.001030 -0.007625 0.002042 0.007159 0.002347 -0.003413 -0.003747 -0.007500 -0.001159 -0.006460 0.000997 0.004435 -0.006294 -0.001304 0.006407 -0.003842 0.008348 -0.006436 0.005618 0.005956 -0.000975 -0.004518 0.003218 0.000605 -0.003410 -0.006125 0.001536 0.005198 0.005175 0.007451 -0.007877 0.003877 -0.002464 -0.004857 0.001325 -0.006413 -0.005736 -0.007750 0.000639 0.000956 -0.000607 0.002005 0.003987 0.000105 -0.003338 0.005967 -0.005522 -0.005424 -0.007976 0.007390 0.007945 0.000410 -0.001059 0.003764 0.006108 -0.004674 -0.002076
20 -0.001186 -0.003001 -0.004274 -0.004802 0.002480 -0.005290 -0.006451 0.004820 -0.006490 -0.002221 0.002170 -0.001418 0.006460 0.006860 -0.007627 0.005634 -0.004523 0.006524 0.006895 -0.000626 -0.001148 0.004878 0.001333 0.006380 0.002966 0.004289 0.000892 0.001298 0.006331 0.005999 0.001220 0.001935 -0.001888 0.000681 0.002907 -0.000353 0.002972 0.005000 0.002509 0.000941 -0.000984 0.003730 0.001041 -0.004512 -0.006767 -0.000264 0.007563 0.006059 0.000670 0.004010 -0.000964 0.000575 -0.003467 -0.001644 0.003639 0.001075 -0.002976 0.001688 0.007091 0.005561 -0.002239 0.007004 -0.007836 0.002006
3 -0.001830 0.005633 -0.005695 0.002930 0.000131 -0.003073 0.004018 0.005345 0.004399 -0.007408 -0.001626 0.006692 0.006301 0.000118 -0.007800 0.007174 0.003020 0.000299 0.002384 0.002346 0.002206 0.002750 0.002284 0.006562 -0.005253 -0.007124 -0.007714 0.000752 -0.001436 -0.006879 0.004132 0.006487 -0.002524 -0.006971 -0.003251 -0.000520 -0.005812 -0.004700 0.002484 -0.004353 -0.006332 0.006221 -0.005870 -0.002195 -0.007340 -0.003080 -0.001187 -0.008381 0.000681 -0.003899 0.001999 -0.006822 -0.004866 -0.000122 0.007073 0.000232 -0.002778 -0.001123 -0.001913 0.005081 0.006231 0.001487 0.006743 -0.002330
22 0.001314 -0.004655 -0.000244 0.000318 0.006600 0.003295 -0.001969 0.007761 0.005218 0.004408 -0.004466 -0.002126 0.000818 0.005300 -0.003584 0.006610 0.008436 0.006744 -0.001708 -0.004772 -0.006274 0.008406 0.001446 0.005945 -0.005430 0.005845 0.004713 -0.006617 0.005340 -0.002262 0.006709 -0.007352 -0.005350 -0.000338 -0.003409 -0.001141 -0.007542 -0.005726 -0.000461 0.002156 0.004902 -0.007083 -0.006852 0.004957 0.001289 -0.001374 0.003516 -0.002808 0.005965 0.002510 -0.003952 0.005731 0.001964 0.005589 -0.004114 -0.003071 -0.003011 0.001057 0.001936 -0.001316 -0.004491 -0.005442 -0.006067 -0.003720
25 -0.002059 -0.002780 0.004103 0.005597 0.002134 0.003532 -0.000116 0.008435 -0.004762 -0.001901 0.000994 0.001901 0.004853 0.005973 -0.002853 -0.002633 0.005406 -0.004743 -0.006617 -0.005798 -0.004153 0.003148 0.003256 0.000238 -0.003271 -0.000044 0.007044 0.004265 0.004176 -0.007658 -0.003241 0.005119 0.003335 -0.008796 -0.004878 0.003979 0.007032 -0.004408 -0.003460 0.000019 -0.004036 -0.004025 -0.003140 0.002722 -0.007651 0.006955 0.002320 0.005331 0.001634 0.007535 0.003496 -0.004576 -0.006241 0.000065 -0.003778 -0.004975 -0.001759 0.004546 -0.002146 0.004793 0.007001 0.007267 0.004428 -0.007249
28 -0.007934 -0.006369 0.004968 -0.005148 0.003067 0.005947 0.005091 0.008879 -0.002210 -0.004762 0.005274 -0.000556 -0.000110 -0.006719 -0.005587 -0.002512 0.004044 0.008809 -0.004837 -0.000660 0.001738 0.000168 -0.001499 0.007722 0.000614 0.002362 0.002838 0.002427 0.003566 -0.003899 0.005243 0.003257 -0.000182 -0.002507 -0.001800 -0.006519 -0.000741 0.001839 0.000792 0.005416 -0.005468 -0.007095 0.001313 -0.002801 0.004436 0.000371 0.007924 -0.005774 -0.002774 0.000131 0.002122 0.000018 0.006453 0.004889 0.007940 -0.006005 0.004855 0.004744 -0.004349 0.006976 0.005723 0.000230 -0.007384 0.003856
21 -0.001884 0.004385 0.005769 0.001088 0.007061 0.007769 -0.003450 -0.006086 -0.000978 -0.004760 -0.003204 0.005760 -0.003139 0.004721 -0.000699 -0.007216 0.005288 0.007582 -0.003301 0.005432 0.005680 0.000260 -0.007114 -0.002806 -0.007104 -0.000684 -0.001677 0.003091 0.002968 -0.003422 -0.000077 -0.002904 -0.007470 -0.002239 0.001836 0.005526 0.001238 0.001236 0.001359 -0.007787 0.001988 -0.008141 0.005151 0.004610 -0.004597 0.000556 0.006234 0.001219 0.006939 0.007253 -0.003099 -0.000043 0.003029 -0.000874 0.000174 0.001947 0.001287 -0.004999 0.004459 -0.001712 -0.006257 -0.005009 0.002722 0.007654
7 -0.004193 0.006107 0.006468 0.008016 0.001202 -0.002567 0.001174 -0.005464 0.002219 0.002017 0.002106 -0.000838 0.007612 0.004225 0.005529 -0.003421 -0.003703 0.007577 -0.001845 0.001062 -0.008371 -0.003415 0.000813 -0.001044 -0.007947 -0.007590 -0.000428 -0.006978 -0.003350 -0.000242 0.000574 0.003633 -0.007891 -0.004538 0.007783 0.004209 0.005101 -0.006778 -0.001907 -0.008271 -0.000801 -0.001980 0.003454 0.004544 0.001805 -0.005504 -0.005601 0.002704 -0.003434 0.004449 0.000184 0.006193 0.005962 0.004442 -0.004933 -0.002728 0.002309 0.005950 -0.001663 0.004704 -0.004917 0.003634 -0.002611 -0.000845
17 -0.009281 0.004280 -0.004405 -0.003589 0.001682 0.001505 -0.002110 -0.004086 0.007352 0.000194 0.007535 0.006381 -0.002790 -0.006304 0.002708 -0.004356 -0.006257 0.004741 0.006951 -0.001075 -0.005932 -0.002810 -0.007431 0.005137 -0.006238 -0.006618 0.005907 0.004075 -0.001568 -0.008064 -0.000469 -0.004228 -0.003504 0.000239 -0.000681 -0.005724 -0.000229 0.003121 0.007238 -0.007581 -0.000533 0.007249 0.001201 -0.006874 -0.003948 0.003554 0.001261 0.006434 0.004068 -0.006277 0.001497 0.001697 -0.005421 -0.006884 -0.001054 -0.006821 -0.003129 0.001077 -0.007624 -0.000741 0.007720 -0.004621 0.006698 -0.006011
26 0.005399 0.001707 -0.003564 0.007039 -0.000953 -0.000205 0.003046 -0.004123 0.004483 0.005876 0.000219 -0.003608 0.000626 -0.005257 -0.005217 0.007051 0.007853 0.008157 -0.002475 -0.000918 0.004597 -0.000395 -0.001376 -0.001776 0.005595 0.006458 -0.003462 -0.003388 -0.000368 -0.001894 0.007525 -0.000532 -0.001277 -0.004014 0.003822 0.001918 0.001962 -0.003252 -0.000672 0.002039 0.000534 -0.004746 0.006693 -0.003372 0.006893 -0.000183 -0.006418 0.005562 0.002967 -0.003044 0.001079 -0.007910 0.003581 -0.003359 -0.006974 -0.002138 -0.001627 -0.003023 0.001615 -0.002871 0.000958 0.006126 -0.006528 -0.002539
8 -0.006766 -0.005287 -0.002520 0.003894 -0.006490 -0.000292 0.003730 0.004861 0.004191 0.007523 -0.006138 0.007551 -0.006739 0.001015 -0.008093 0.004961 -0.000586 -0.005543 0.007094 -0.000247 -0.002405 0.005012 -0.006373 0.003322 0.001854 -0.005119 -0.003618 -0.005599 0.007692 -0.008447 0.001297 -0.003894 0.001578 -0.006717 -0.004149 0.006038 0.003554 -0.004853 0.007109 0.002800 0.005582 -0.003099 0.007100 -0.003803 0.003245 0.002287 0.002459 -0.002499 -0.000976 0.003491 -0.006795 -0.003858 -0.005904 -0.001041 -0.002613 0.003743 -0.006487 0.002595 0.007775 0.004066 0.005976 0.007401 -0.007089 0.004034
30 0.001186 0.001787 -0.002633 0.000013 -0.000532 0.003206 -0.001219 0.001434 -0.006608 0.000434 -0.005406 0.000752 0.001024 -0.004398 0.003995 0.000886 0.002972 0.000473 -0.002973 -0.007257 -0.005490 -0.004934 -0.005974 -0.002303 -0.000621 -0.007748 -0.007588 0.000415 0.002927 -0.005657 -0.006251 0.002175 0.004056 0.001064 0.009822 -0.001649 -0.003730 -0.001922 -0.003082 -0.002115 0.005655 0.001821 0.004983 0.000186 0.000359 0.004823 -0.000142 -0.005837 -0.006701 0.001752 -0.005501 -0.002814 -0.003646 -0.007205 -0.006578 0.005548 0.006152 0.007770 0.003363 0.006411 -0.002637 -0.004838 0.003903 0.007315
14 -0.002080 0.002290 0.005063 0.001311 -0.003965 -0.000931 -0.000617 -0.001219 -0.004932 -0.000241 0.000841 0.001917 -0.004022 0.000083 0.002938 -0.001914 -0.001780 0.001216 -0.002405 -0.008903 0.000251 0.006119 -0.002101 0.004550 -0.002237 -0.002208 -0.005436 -0.003214 0.005784 0.000451 -0.005623 0.006108 -0.001117 -0.002930 0.007954 -0.007648 0.000029 0.000846 -0.002560 -0.003709 0.005055 0.003105 0.004575 0.005746 0.002396 0.005649 0.008653 -0.005403 0.001263 -0.004778 -0.007006 -0.008259 0.001774 -0.002769 -0.001190 0.001855 0.005628 -0.005142 0.007593 -0.002585 0.006879 0.004741 -0.001981 0.004745
29 -0.006433 -0.001109 0.007372 -0.001887 0.002093 -0.005487 0.008299 -0.003317 0.000985 -0.001172 -0.004891 0.002655 0.003083 0.001976 -0.007947 0.003905 0.000055 0.005091 -0.001126 0.001499 -0.002488 -0.004129 -0.001197 0.005954 0.000246 -0.008284 0.001553 0.007342 0.008368 0.006025 0.000397 -0.004991 -0.008555 -0.007333 -0.004585 -0.001001 0.008044 -0.008694 0.006348 0.006831 0.000552 0.007024 -0.001450 0.005769 -0.006153 0.004091 0.003987 -0.008338 0.000261 0.005714 -0.004633 -0.002028 0.006216 0.002500 0.000219 -0.006168 0.001653 0.007749 -0.000704 0.006101 -0.002374 0.001073 -0.000971 -0.002606
2 0.004462 0.002001 0.003822 0.006204 -0.000772 -0.000027 -0.001352 0.006275 0.003321 0.005305 0.002197 0.007213 0.004591 0.004541 0.006575 0.005902 0.004044 -0.003530 0.003069 0.001492 0.000177 0.003959 -0.000515 0.008169 -0.000351 -0.004256 0.001633 0.002927 0.007801 -0.000904 0.005562 -0.003770 -0.008055 -0.005559 -0.001365 -0.005663 0.004119 -0.003272 -0.000425 -0.002176 0.000039 -0.003317 -0.004663 0.001550 0.005386 0.004653 -0.003890 -0.006423 -0.003523 -0.005793 0.005145 -0.004033 -0.000941 0.003143 -0.002072 0.006593 0.008054 -0.000081 0.001845 -0.006549 -0.001670 -0.006165 -0.003164 -0.000383
24 -0.002896 -0.002760 0.005706 0.001385 -0.005588 0.000973 0.004232 0.000639 0.006114 -0.003375 0.001036 0.008484 0.004548 -0.003846 -0.003818 -0.004870 -0.000425 0.008015 -0.001659 0.006088 -0.005870 0.004489 0.007173 0.001769 -0.006662 -0.006866 -0.004805 0.000310 0.003996 0.003455 -0.006301 -0.002934 0.005414 0.000696 -0.001351 0.007643 -0.001538 -0.002806 0.000263 0.003528 0.002340 -0.001690 0.006632 -0.003264 -0.004508 -0.006137 -0.004798 0.003349 -0.000249 -0.000810 -0.006343 0.002452 -0.005082 0.002108 0.003552 0.007601 0.001102 0.000770 0.000843 -0.000373 -0.001626 0.005861 -0.001957 0.000274
31 0.001933 -0.000812 0.007343 -0.002261 0.006183 0.007563 -0.002981 0.007519 -0.006131 -0.005821 0.005005 0.003434 -0.005772 0.002498 -0.006740 0.007031 -0.003300 -0.000370 -0.004463 0.001871 -0.002148 -0.006200 0.006970 -0.001819 -0.000865 0.003759 -0.006582 -0.005628 -0.004912 -0.008401 -0.005699 -0.003256 -0.007149 0.005009 0.003011 -0.005485 -0.000620 -0.008263 -0.000278 -0.003422 0.008429 -0.003750 -0.006518 -0.001018 0.000327 0.006605 0.007885 -0.003263 -0.002785 -0.005825 -0.005592 -0.004839 0.006668 -0.004135 -0.005055 -0.002381 0.002639 0.005820 0.000190 0.006290 0.008410 0.006745 -0.006877 0.005138
10 -0.001365 -0.006770 0.004812 0.006319 -0.004138 -0.000404 0.007055 -0.001718 0.004421 0.000144 -0.004144 -0.004184 0.008110 0.004899 -0.006859 -0.007093 -0.002563 0.006992 -0.001068 -0.001702 -0.005035 -0.002988 -0.003818 0.007001 0.002073 -0.008020 0.000711 0.004474 0.007452 0.006316 0.000452 -0.007413 -0.006326 -0.007525 -0.005042 0.000665 -0.005441 0.000215 0.007248 -0.003642 -0.001949 0.006938 -0.002587 -0.004769 -0.000107 0.007274 0.003321 0.004006 0.006363 -0.005054 -0.009438 0.004058 -0.000505 0.003412 -0.003824 0.005304 -0.004022 -0.004260 -0.000643 0.004306 0.008888 -0.006134 -0.001043 -0.000820
