51 64
JUN 0.000899 0.001045 0.007337 -0.012182 -0.002115 0.013746 0.007467 0.003723 0.004512 0.000675 0.007687 -0.000634 0.010955 0.006310 0.006991 -0.006861 -0.007750 0.006255 -0.002938 0.007077 -0.005342 0.008430 -0.010838 -0.001848 0.006552 0.005030 -0.007980 0.000389 0.004232 0.012088 0.006668 -0.007691 -0.013514 -0.007604 -0.001221 -0.003328 -0.011943 -0.000732 -0.004633 0.007574 -0.008552 -0.001346 0.005368 -0.004552 0.001747 0.005432 -0.002969 0.002871 -0.004909 -0.008458 0.003821 0.011332 0.001672 0.006505 -0.010713 0.009922 -0.009576 0.007602 0.004837 -0.008632 -0.011814 0.009424 -0.000016 0.003724
OCT 0.007177 0.001359 0.007005 -0.010513 -0.004765 0.014137 0.014270 -0.005089 0.004476 0.005998 0.009825 0.011384 0.001388 -0.007518 0.008191 -0.000263 -0.008803 0.008808 -0.007143 -0.002944 0.008531 -0.003702 -0.012010 0.008311 -0.008572 -0.007064 -0.005446 -0.010555 -0.006191 0.010927 0.005297 -0.007556 -0.013634 0.004379 0.003200 -0.007945 -0.012397 0.009141 0.000837 -0.001674 0.002063 0.001737 0.006724 0.003154 0.005489 -0.004391 0.011100 0.003713 0.004056 -0.005409 -0.004005 0.007018 -0.010046 0.004256 -0.002357 0.003309 -0.005319 0.002547 -0.007036 -0.007053 -0.005015 0.004245 0.006289 0.011413
JAN 0.003302 -0.008367 0.006094 -0.008832 -0.005435 -0.000229 0.007928 0.005347 0.009335 -0.004340 0.014890 0.003395 -0.001428 -0.005015 -0.001506 -0.002160 -0.000122 0.003631 -0.005029 -0.002688 0.002044 0.009306 -0.005306 0.007800 -0.000921 -0.009458 0.005989 -0.011298 0.005090 0.000840 0.007034 0.004075 -0.007871 -0.006850 -0.005044 0.001283 -0.010924 0.009926 0.003097 0.003926 -0.008728 -0.008001 0.013567 -0.006699 -0.008096 -0.002431 0.008602 -0.010096 -0.009225 -0.006945 0.008731 0.009017 -0.004798 -0.000285 -0.008279 0.004421 -0.006781 -0.003713 0.002860 -0.003998 -0.006036 0.003109 -0.004923 0.003896
DEC 0.005530 -0.000186 0.000884 -0.008184 0.000172 0.014568 0.010483 -0.004429 0.012554 0.001712 0.010185 0.005671 0.009180 -0.005652 0.003396 -0.001088 -0.004247 -0.002043 -0.011375 0.003851 0.002818 0.006067 -0.008392 0.007963 0.001329 0.002204 0.005492 -0.011881 -0.000561 0.012206 0.010030 0.000430 -0.001874 -0.008706 0.006471 0.001850 -0.011779 0.007191 0.004730 -0.003469 -0.010262 -0.003345 0.013734 -0.000804 0.005960 -0.006130 0.006191 -0.002145 -0.005975 -0.004999 0.007187 0.004818 -0.001530 -0.000854 0.001901 0.000605 -0.005127 -0.003649 0.000842 -0.009709 -0.012160 -0.002608 -0.005724 0.009009
APR -0.000792 -0.003048 0.001821 -0.012450 -0.000226 0.005664 0.013973 -0.006182 0.010126 -0.002867 0.010937 0.003700 0.008061 -0.009007 -0.000757 -0.001917 0.001639 0.010484 -0.008464 0.007933 0.005670 0.008976 0.000086 0.004474 -0.004762 -0.000626 -0.006555 -0.008360 -0.006142 0.005168 -0.000807 -0.001954 -0.006825 -0.009859 -0.005275 0.003238 -0.009963 0.004608 -0.003001 0.007708 -0.001192 -0.000241 0.010471 0.007286 -0.008112 -0.002101 0.007820 -0.001022 -0.006742 0.004293 -0.004730 0.002166 -0.008467 0.008342 -0.002407 0.002387 -0.009670 -0.000231 -0.003436 0.002076 -0.011044 0.004569 -0.006118 0.006448
JUL -0.003255 -0.008016 0.005820 -0.008981 0.002856 0.002962 0.009460 -0.004235 0.006330 0.001495 0.011183 0.002806 -0.001173 0.002981 0.009544 -0.009235 -0.003122 0.008528 -0.012716 -0.002050 0.006596 0.002023 -0.009570 0.008924 0.004254 -0.000718 -0.006257 -0.007175 0.000031 0.007873 0.005868 -0.008873 -0.013914 -0.010198 -0.001497 -0.005928 -0.005997 0.009271 -0.005827 -0.002682 0.002384 0.005181 0.004078 0.003624 0.004208 -0.000462 0.008516 -0.003802 -0.000193 -0.009060 -0.000277 0.010295 -0.003976 0.009781 -0.006523 0.007729 0.000142 -0.000662 -0.005049 -0.004206 -0.004801 0.007459 -0.001929 0.000722
SEP 0.002853 -0.008844 -0.001021 -0.008253 -0.006942 0.006628 0.012749 -0.000493 0.011028 0.000320 0.001845 0.006139 -0.001227 -0.000730 -0.004146 -0.009737 0.003601 -0.001348 -0.008121 0.002793 0.006264 0.006200 -0.012006 0.006512 -0.004411 -0.009514 0.001719 0.003881 -0.006660 0.001505 0.004624 -0.006229 -0.011518 -0.002933 0.005234 0.001270 -0.009199 0.003941 -0.002452 -0.001129 -0.007676 0.006182 0.006818 0.001587 -0.004174 -0.005457 0.009603 -0.004168 -0.001844 0.004041 0.004257 0.005131 -0.009228 -0.002401 0.003319 -0.004957 -0.002400 0.002790 0.006066 0.003637 -0.009358 0.000039 0.006379 0.002464
AUG 0.001793 -0.000385 0.008764 -0.010387 -0.007177 0.008235 0.010857 0.001468 0.005969 0.007006 0.011039 0.008419 0.007816 -0.002469 -0.004745 -0.009910 -0.006248 0.000999 -0.001441 -0.004941 -0.004536 0.004228 -0.001755 0.000812 -0.006516 -0.008887 -0.008138 -0.002688 0.004129 0.010219 0.007535 -0.007557 -0.013418 -0.008128 0.009170 -0.005798 -0.012953 0.003951 0.006691 0.002648 -0.002913 -0.006852 0.003707 -0.001300 -0.005769 -0.001366 0.005410 -0.003584 -0.007305 0.004675 0.001521 -0.000833 -0.007447 0.005722 -0.010317 0.006444 -0.007565 0.002492 -0.000917 -0.008333 -0.007225 0.004959 0.002577 -0.000798
MAR -0.002092 -0.006400 0.011106 -0.007227 0.001663 0.012865 0.002337 0.000621 0.005666 -0.005172 0.015626 0.009292 0.008574 0.003941 -0.003007 0.000558 0.004061 0.004756 -0.008193 0.004288 -0.004240 0.009392 -0.007104 0.003158 -0.002927 -0.006498 0.006830 -0.001613 -0.002752 -0.002750 -0.003293 -0.008099 -0.002344 -0.000980 -0.005617 -0.004384 -0.008118 -0.002579 0.007386 -0.006170 0.003388 0.003174 0.005944 0.001418 -0.005676 -0.002385 0.005810 -0.005367 -0.005322 0.004749 0.009571 0.002478 -0.000284 0.009594 -0.007065 -0.000803 -0.000742 -0.002342 -0.004485 -0.004384 0.003229 0.008933 0.005882 0.005312
FEB -0.007899 -0.011550 0.002535 -0.002881 -0.006656 0.008912 0.014730 -0.003949 0.008671 -0.001234 0.014826 -0.001588 0.004661 -0.002228 0.003141 0.002817 0.005453 0.008387 -0.007381 0.007971 0.000081 0.000378 -0.011908 -0.000199 -0.003580 -0.006549 0.006412 0.000208 0.006616 0.007418 0.007247 0.000487 -0.011372 -0.006183 0.000375 -0.002927 -0.000149 0.002061 0.000608 -0.004720 -0.009671 -0.007688 0.009385 -0.006804 -0.003970 -0.002194 0.005901 -0.007681 -0.005650 -0.003005 -0.005039 0.009232 -0.003652 0.003272 0.000262 0.007795 -0.003531 0.002663 0.006652 -0.000906 -0.009228 0.009699 0.000601 0.005565
NOV -0.001893 -0.006051 -0.001458 -0.005941 0.000528 0.008199 0.003885 -0.002242 -0.000089 -0.006794 0.015118 -0.003180 0.005430 -0.008554 -0.002341 0.004341 -0.001275 0.001075 -0.013109 0.008498 0.008289 0.009753 0.000355 0.004380 0.003150 0.004581 -0.007377 -0.001075 0.003984 0.011443 0.010458 -0.005305 -0.013304 0.001224 -0.002934 -0.001345 -0.014093 0.005427 -0.005655 0.007304 -0.004616 -0.005258 0.000310 0.007115 0.004298 0.000885 0.007241 -0.003049 -0.005472 -0.004580 0.006931 0.011130 -0.007606 0.002965 -0.002322 -0.001127 -0.006648 0.002157 0.004347 0.001801 -0.007954 -0.002170 0.007170 0.008345
day 0.000699 -0.005618 0.008612 -0.004736 -0.004930 0.001647 0.012201 0.004719 -0.001676 0.000293 0.013343 0.009223 0.009200 0.003855 0.008868 0.001819 -0.007348 -0.000244 -0.004932 0.002557 0.006528 -0.005536 -0.002143 0.008458 0.006310 0.002537 0.001831 -0.006562 -0.003785 -0.004001 -0.003490 -0.004174 0.001514 0.002832 0.006119 0.000243 -0.009922 0.005958 0.004688 0.002763 0.000302 -0.003950 0.002311 0.002124 0.000493 0.003575 0.003105 -0.003113 0.002262 -0.009301 -0.003446 0.000904 -0.006776 0.008686 -0.007323 -0.002713 -0.004020 0.004701 -0.006752 0.004583 0.001214 -0.004661 -0.005475 0.004869
MAY -0.003355 -0.010709 0.009822 -0.006014 -0.001584 0.007352 0.007034 -0.008743 0.002296 -0.007333 0.013482 0.010812 -0.003734 0.005942 0.009944 -0.009293 0.002750 0.005251 -0.002411 0.003206 -0.005265 -0.004688 0.000706 0.006935 -0.006041 0.000090 -0.007293 -0.000462 -0.003232 0.005248 0.002415 -0.009139 -0.006832 0.001141 0.006060 -0.000213 -0.003943 0.001160 -0.003849 0.004497 0.004847 -0.001617 0.011088 -0.005910 0.002198 0.004482 -0.002261 -0.006675 -0.002591 -0.006651 0.009672 0.005159 0.005289 0.007086 0.004568 -0.003758 -0.008176 -0.003653 0.005085 -0.009530 -0.002689 0.002463 -0.003789 -0.001366
2015 0.001078 -0.003167 0.000032 -0.010246 -0.000936 0.009857 0.007709 0.005447 0.004490 0.003092 0.003630 0.002417 0.003041 0.004126 -0.001293 -0.001527 -0.003253 0.004320 -0.009859 -0.005095 0.004838 0.000363 0.001394 -0.001630 0.007093 0.006395 0.002274 -0.008809 -0.006371 0.004010 0.006853 -0.007324 -0.002705 -0.007769 -0.004247 0.006150 -0.010355 -0.003457 0.002407 0.001551 0.004168 0.000940 -0.002830 -0.003988 -0.000324 0.008134 -0.001858 0.004546 -0.001438 0.006043 0.002463 -0.001714 0.006207 0.005244 -0.008118 0.001868 0.005887 -0.004370 -0.006617 -0.006541 -0.003742 0.007245 0.004472 -0.004021
year -0.001744 -0.004837 0.010343 -0.012347 0.003927 0.011529 0.009531 0.003216 0.002678 0.000016 0.008954 0.009224 0.004465 -0.000067 0.006685 -0.004905 -0.008848 -0.003963 -0.005054 -0.006556 -0.003811 -0.002133 -0.010044 0.006276 0.001742 0.002453 -0.000814 -0.006148 0.000178 -0.003869 0.007571 -0.002685 -0.013217 -0.001075 0.002040 -0.000923 -0.010555 0.005216 -0.007311 0.004473 -0.006688 0.004040 0.010715 0.003212 0.005618 0.007778 -0.005106 -0.005843 0.003709 -0.003359 0.004811 -0.000967 0.001617 -0.003345 -0.010029 -0.006050 -0.003686 -0.004185 0.003571 -0.001319 -0.007623 -0.001335 0.001155 0.010757
16 0.007413 -0.009009 0.005971 -0.006537 0.005777 0.002052 -0.003471 0.003238 -0.004725 -0.000142 -0.001134 -0.000192 -0.000980 -0.006525 0.003546 -0.003642 0.001764 0.003392 -0.005021 -0.003492 -0.003250 0.004682 0.004440 -0.005145 -0.000065 0.006501 0.007300 0.006114 0.000682 0.006788 0.007116 -0.002135 -0.007261 -0.001834 0.001819 -0.003360 0.005137 0.001243 -0.004983 0.007193 0.002519 0.006453 0.001389 0.000226 -0.004199 -0.002921 0.008223 -0.004704 -0.008513 -0.000706 -0.005585 0.006067 -0.004710 -0.006988 -0.002416 -0.000125 -0.001730 -0.001586 -0.005031 0.006103 0.000419 0.003179 0.006961 -0.000190
18 -0.007566 -0.007600 0.000355 -0.000179 -0.004079 0.000456 -0.002503 -0.004688 -0.006676 0.006533 0.003565 -0.003153 -0.002584 0.000232 0.008393 -0.003249 0.007244 0.003405 -0.008377 0.002886 0.002409 -0.007054 -0.008360 0.001429 -0.005741 0.000534 -0.007634 0.006228 -0.003070 0.002681 -0.003990 0.006929 0.000796 0.004677 0.000973 0.002229 0.005495 -0.005615 -0.003259 0.001439 0.005673 -0.004613 0.008751 -0.004463 -0.006145 -0.002648 0.002085 -0.005094 -0.006879 0.002602 0.003477 -0.004332 0.001476 -0.006604 0.006836 -0.005495 -0.001116 -0.001390 -0.005502 0.001935 -0.003185 -0.001888 -0.003653 -0.000952
24 -0.005987 -0.008658 -0.006335 -0.003850 0.001305 0.000126 -0.002575 0.001494 -0.006214 -0.000121 0.002756 -0.000745 0.002347 -0.004700 -0.001352 0.002692 -0.001414 0.004443 -0.003845 -0.004473 0.003301 -0.006980 -0.005630 0.003872 -0.006199 0.001282 0.005787 -0.002048 0.007045 -0.002724 0.007363 -0.007801 0.000988 0.004069 -0.004029 0.006423 0.003307 -0.000898 -0.003565 -0.007254 -0.008352 -0.005951 0.007736 -0.003477 0.005411 -0.001188 -0.001832 -0.004204 -0.002457 -0.004437 0.007333 0.004954 0.003321 -0.002797 0.004187 -0.000486 0.001197 0.005270 0.002500 -0.003837 0.001586 0.000271 0.005983 0.003050
2013 -0.006708 -0.004477 -0.002295 -0.008349 0.004394 0.001129 0.000048 -0.002138 0.002922 0.007127 0.003024 0.005148 0.004836 0.006725 0.000780 -0.004300 0.003558 0.003247 -0.001540 -0.006840 -0.004498 0.005004 0.001199 0.000446 0.000453 0.003093 -0.006610 -0.006745 0.005898 0.001632 -0.006889 -0.000801 -0.007493 0.005700 0.007956 0.006164 -0.007784 0.007027 0.005417 -0.003059 -0.001119 0.006986 0.000513 -0.005133 -0.005779 0.007281 -0.002540 -0.007358 0.003153 -0.008567 0.002714 0.006042 0.005784 0.004566 -0.005378 -0.001587 0.000631 -0.007151 0.003288 0.006156 0.004164 0.001232 -0.002415 0.008485
2014 -0.005896 0.002891 0.004308 0.001710 -0.001697 0.003652 0.004952 0.001182 0.004058 0.007864 0.010548 0.005040 0.005000 0.005255 0.006671 0.004637 -0.001127 0.003714 0.003958 -0.000464 0.004821 -0.006281 -0.004690 0.004309 0.004960 0.001832 -0.000731 -0.006612 0.005237 -0.000382 0.001463 0.001860 -0.004145 -0.002170 -0.001499 0.005426 -0.003338 0.009205 0.007838 -0.005599 0.004245 -0.004941 0.005976 -0.001835 -0.006330 -0.002011 -0.003521 0.002644 -0.008060 0.004231 -0.000477 -0.001755 0.003324 -0.005626 -0.007144 -0.004089 0.000321 0.000337 0.004304 -0.007963 -0.001000 0.000147 0.003320 0.008079
20 0.003286 -0.001665 -0.002038 0.003082 0.002977 0.005844 0.006136 -0.004024 0.000018 -0.005624 0.007389 -0.002474 0.000819 -0.004123 0.000172 -0.002444 0.003429 0.004105 0.002242 0.002710 0.006599 -0.001971 -0.001487 -0.006097 -0.000124 -0.001584 0.005141 -0.005898 0.007526 -0.001776 0.003963 0.003075 -0.009230 -0.004054 0.002254 -0.006367 -0.006085 0.008076 0.006073 -0.006595 0.005094 -0.005208 0.007990 0.003340 -0.004086 0.006975 0.004011 -0.001236 -0.006485 -0.005030 -0.000903 -0.001783 0.000541 -0.003852 -0.006245 0.007351 -0.001558 -0.007545 0.001599 -0.001235 -0.000606 -0.006300 -0.006820 -0.005775
5 0.003770 -0.007575 0.005996 0.000818 0.002838 0.001711 -0.001514 -0.005173 -0.000747 -0.003902 0.000732 -0.002812 0.006282 0.007229 0.004645 -0.007538 -0.002228 -0.001231 0.000489 0.002170 0.000878 0.007518 -0.007547 0.007427 -0.002864 0.000406 0.006917 -0.000124 0.006283 -0.006564 0.003759 0.002655 0.003575 0.001780 0.007820 0.003191 -0.006175 -0.001159 -0.002057 0.005077 -0.005772 0.002773 -0.002633 0.002110 -0.003447 0.003743 -0.004175 0.004878 0.004378 -0.001526 -0.000648 0.005626 -0.002048 -0.002865 -0.008131 0.000626 -0.000852 0.006334 0.007342 0.001536 0.002347 0.005976 -0.003859 0.003973
15 -0.004114 -0.001466 -0.004123 -0.001244 -0.000805 0.001222 -0.001365 -0.005788 0.006675 -0.002201 0.004639 0.008583 -0.002777 -0.002855 0.000369 -0.005005 0.003036 -0.000846 -0.005311 -0.003199 0.001358 0.004600 0.004946 0.004964 -0.006850 -0.003004 -0.004605 -0.002396 -0.006809 0.004238 -0.000086 0.001253 -0.001785 0.001546 0.003673 -0.004422 -0.001637 0.007732 0.006958 0.007073 0.002948 0.007438 0.004808 -0.003204 0.000278 -0.001346 0.004249 -0.000960 0.004088 -0.004860 0.006271 -0.003802 -0.001402 -0.002652 -0.006194 -0.005200 0.004886 -0.005463 -0.003722 0.005611 0.001845 -0.000914 -0.006170 0.005618
21 0.004998 -0.007703 -0.004110 -0.003267 0.006732 -0.005501 0.007806 -0.005962 -0.000925 0.006395 0.001506 0.006479 0.006840 -0.007830 -0.001428 -0.004942 0.003594 0.002885 -0.000233 -0.004968 0.003745 0.000500 0.001164 0.004617 0.005307 -0.007923 -0.002033 -0.004474 0.003345 0.007686 -0.007031 -0.005840 -0.009130 -0.007270 0.004423 -0.007375 0.005464 0.003457 0.001750 0.002516 -0.002471 -0.002763 0.008011 0.005230 -0.005374 -0.004962 0.002921 0.000420 0.003058 -0.003276 0.002804 0.002834 -0.006955 -0.001428 -0.005654 0.005814 0.005670 0.004842 0.000173 0.002763 -0.005011 -0.006505 0.007151 0.007322
2016 -0.000171 -0.005459 -0.000284 0.003296 0.006222 0.000983 0.009192 -0.004440 -0.002712 0.005849 0.002628 0.007824 -0.003408 -0.007870 0.003281 0.006375 -0.005094 -0.005342 -0.007553 -0.001233 0.004674 0.008112 -0.003372 0.000075 0.001235 -0.003325 -0.001291 -0.004586 -0.003745 0.003447 0.000487 0.002822 -0.002490 0.003500 0.007355 0.001239 -0.009970 0.006568 0.005567 -0.000474 0.002237 0.003794 -0.004035 0.001716 0.001875 0.005221 0.003456 0.000568 -0.003191 -0.004247 0.007934 0.008079 0.003702 -0.004259 -0.005867 -0.002669 -0.005789 -0.001676 -0.005805 -0.001691 0.003035 0.005905 -0.000282 -0.003312
19 -0.001595 0.003933 0.002915 -0.007948 -0.000288 0.005795 -0.002317 0.004469 -0.004933 -0.002767 -0.000655 0.001431 -0.002962 -0.006079 0.008514 -0.004270 0.006982 0.005909 -0.005943 0.007097 0.007164 0.003367 0.002901 -0.002436 -0.002653 0.006416 0.004396 0.002939 0.005104 -0.003247 0.000729 -0.002402 -0.007653 -0.004164 0.001697 0.000583 -0.007627 0.008039 0.002305 0.000509 -0.005411 -0.003778 -0.003905 0.002957 0.000282 -0.005940 0.005082 0.004457 0.005929 -0.008002 0.002827 -0.003291 0.002761 0.001175 -0.007597 -0.004080 0.005369 -0.005367 -0.005273 -0.000317 0.003162 -0.001258 0.005812 -0.005097
3 -0.006162 -0.006654 -0.001839 -0.008792 0.004640 0.008118 -0.004864 -0.001913 -0.002239 -0.000167 0.000658 -0.004424 -0.005057 -0.006289 0.003830 -0.005302 0.000389 -0.002391 0.000411 0.002333 -0.002806 -0.003010 -0.005401 0.006473 0.007412 -0.002661 -0.001222 0.002336 0.005543 0.006928 -0.006834 0.000378 -0.000367 -0.007179 -0.004021 0.002530 0.005727 -0.004880 0.004068 0.007605 -0.005223 0.001290 -0.006074 0.004468 0.002975 -0.004654 -0.005311 -0.006399 0.001798 -0.007973 -0.001511 -0.002350 -0.002462 -0.004816 -0.003660 -0.004463 0.000483 0.007665 0.006766 0.005687 0.000478 0.007950 0.007355 0.006453
14 0.003671 -0.005862 -0.007167 -0.006395 -0.003217 0.005943 0.007941 -0.004883 0.006834 0.003252 -0.002838 -0.001233 -0.001224 -0.003192 0.005479 -0.002644 -0.006819 0.003145 -0.001028 0.007179 -0.004561 0.005758 0.006165 -0.006662 0.002642 -0.007286 -0.001915 0.001595 0.004053 -0.005652 0.002582 0.006285 -0.006913 -0.005146 -0.004914 0.004006 0.003833 -0.002170 -0.000508 0.002383 0.000602 -0.001671 -0.002487 0.007185 -0.005840 0.007149 -0.001204 -0.006881 -0.007938 -0.001710 0.003522 0.005865 0.006945 0.000700 0.001791 0.006680 -0.006346 -0.003631 -0.000774 -0.005256 0.003077 0.008249 0.004928 -0.005393
27 0.005450 0.005449 -0.002543 0.000842 -0.000919 0.006036 -0.004308 0.004606 0.008200 -0.000699 -0.001231 -0.003793 0.002049 -0.001904 0.007025 -0.001394 -0.001011 -0.002460 -0.008272 0.005716 0.003430 0.006912 -0.004376 -0.003002 -0.002295 0.006108 0.000141 -0.005699 -0.005509 -0.006211 -0.002504 -0.001944 0.004723 0.002605 -0.002607 -0.000946 -0.007483 -0.006135 0.003939 -0.005228 0.006718 0.002494 0.005549 -0.005586 -0.000678 -0.003792 -0.003619 -0.002994 0.000275 -0.000235 0.000457 0.000831 -0.002837 -0.005401 -0.003339 0.001259 0.005908 0.003195 0.000366 -0.002326 0.006357 0.005167 0.003548 0.004192
1 -0.007274 0.002081 0.006582 0.000793 -0.003843 -0.005948 0.000699 0.007123 0.004057 0.007363 -0.002442 -0.006427 -0.003626 -0.006109 0.007944 0.003133 0.007037 -0.005840 0.005581 0.007092 -0.003283 0.007121 -0.005131 0.003678 -0.007773 -0.008247 0.005193 -0.006883 -0.001166 -0.004289 -0.004803 0.004161 -0.006740 -0.005976 0.007136 0.004307 0.002112 -0.001154 0.000826 -0.001596 -0.005988 -0.001174 0.002885 0.005999 0.006523 0.003978 0.003523 0.001727 -0.007687 0.004608 0.001058 0.007885 0.001890 0.007830 0.005743 0.005650 -0.006617 0.006664 -0.003506 0.006591 0.006200 0.001180 -0.001161 0.005427
4 0.001468 0.001035 0.007345 -0.005312 -0.000741 -0.000324 0.003068 -0.005696 0.000235 0.002189 0.009071 -0.001086 -0.002343 -0.005843 -0.003460 -0.006532 -0.008089 0.002260 0.004663 -0.006122 0.005442 -0.001251 -0.004662 -0.003274 -0.000118 0.001851 0.005781 -0.006365 0.006372 -0.004016 0.001320 -0.002923 -0.000536 0.003671 0.005260 -0.004764 -0.007869 0.002131 0.003405 0.005188 -0.003934 -0.004244 0.000678 -0.003149 -0.000103 -0.006733 -0.002992 -0.003800 -0.004383 -0.000790 -0.003658 0.001248 -0.004215 -0.004020 -0.007758 -0.005042 -0.000216 0.003332 0.001832 0.005640 0.006224 -0.002695 -0.002715 0.008578
11 -0.000260 -0.002066 -0.004043 0.005935 0.000574 0.004763 0.006740 -0.004961 0.004675 -0.001543 -0.003231 -0.003017 0.006167 0.003496 -0.002979 -0.003971 0.001394 -0.006582 -0.002280 0.006069 0.005600 -0.001927 -0.008154 0.003965 -0.001501 0.003367 -0.007227 0.005945 0.005844 -0.005744 0.007629 0.003213 -0.000306 -0.001157 -0.005612 0.002030 -0.002279 -0.000607 -0.003217 -0.000953 -0.003116 -0.006342 -0.003617 0.007408 -0.004139 0.002711 0.007312 0.006130 0.005101 -0.000087 -0.001811 0.007348 0.004474 -0.001365 -0.005106 0.005239 0.002254 0.006365 0.001586 -0.001317 -0.000660 -0.000380 -0.002102 -0.002460
6 -0.001804 -0.007188 0.004691 0.001611 -0.004148 0.004606 0.004243 -0.004973 0.008106 0.001607 0.001043 0.000704 0.007776 -0.002647 -0.001975 -0.007511 -0.004679 0.003150 -0.002701 0.003729 -0.004087 -0.003187 0.005673 0.000966 0.002079 0.000048 0.002758 -0.008373 -0.007430 -0.001276 -0.003008 -0.004187 0.004552 -0.000485 0.007184 0.000544 0.001937 -0.000841 -0.005648 -0.006582 0.002214 -0.000444 0.003774 0.006909 -0.002539 -0.000458 -0.006888 0.002732 -0.003618 0.001710 -0.003166 -0.002655 -0.006966 0.003349 -0.003045 -0.003395 0.002050 -0.000782 0.006912 -0.007876 -0.001243 0.000449 -0.001978 -0.000326
28 -0.005429 -0.008993 0.003650 -0.003279 -0.006655 0.009525 -0.001637 0.006031 0.008408 0.002011 0.004239 -0.000489 -0.005879 0.007003 0.007585 0.002744 -0.007037 0.006383 -0.004614 0.003402 0.008074 0.006133 0.000675 0.009001 -0.003713 -0.000694 -0.004668 -0.001991 0.004499 0.007707 0.007074 -0.005397 -0.010055 0.001337 0.000399 0.000744 -0.006486 -0.004226 -0.002653 -0.000695 -0.006246 -0.005355 -0.004292 0.006524 0.001941 0.001181 -0.001188 -0.004571 -0.008882 -0.002224 0.004770 0.007440 -0.002109 0.001621 0.003468 0.006905 0.000680 0.001132 0.002308 0.000170 -0.006979 -0.004985 -0.005409 0.008252
2 -0.002573 -0.008602 0.008424 0.004610 -0.002103 -0.003877 -0.005721 0.004594 -0.004432 -0.000827 -0.001576 0.005981 0.004606 0.000429 -0.000132 -0.006290 -0.006607 -0.001164 0.004619 -0.001283 -0.002106 -0.002962 0.000034 0.002126 -0.005307 0.006243 0.006112 0.004312 0.004214 0.007473 0.004397 0.005178 0.001024 -0.004651 0.008064 0.004128 0.002051 -0.004526 -0.005281 -0.002893 -0.008431 0.002416 0.002529 0.005452 -0.002218 0.000102 -0.000868 -0.003619 -0.002337 0.006154 0.001132 -0.002878 0.000177 0.007363 -0.005913 0.003799 0.006401 -0.001480 0.005587 0.004113 -0.005174 -0.002934 0.005852 -0.000094
30 0.002086 0.005937 -0.006032 0.005184 -0.007829 -0.003555 0.003008 0.002827 -0.004208 -0.007213 0.005442 -0.001422 0.000119 -0.000902 0.002337 -0.002308 -0.007234 -0.001942 -0.006863 0.006453 -0.002708 0.008032 -0.003510 0.007575 -0.007717 -0.007498 0.003357 -0.005492 0.002656 -0.002016 0.004094 -0.006422 -0.006228 0.005837 0.002224 0.006728 -0.003591 0.002718 0.004100 0.004326 -0.006959 0.005473 0.008796 0.005065 0.004526 -0.006787 -0.005605 0.001439 0.001823 0.005722 0.003456 0.001258 -0.007114 -0.004278 -0.006539 0.004480 -0.007563 0.007155 0.001248 -0.006772 0.000775 0.005193 0.006905 0.006236
2017 0.004913 -0.004111 0.002006 0.005140 -0.004052 0.001363 0.004975 -0.006534 0.008804 0.000893 0.004898 0.001300 0.002695 -0.002894 -0.000857 0.003048 -0.004847 0.007468 0.001509 -0.005855 0.000981 0.001638 -0.003553 0.005924 -0.004704 0.002503 -0.005853 -0.002299 0.004816 0.007048 -0.001783 0.000620 0.003743 0.003799 -0.000250 0.001833 -0.008466 0.005070 0.006926 0.006956 -0.001361 -0.002720 -0.004600 -0.006186 -0.001350 0.007863 0.003995 0.002277 -0.000754 -0.005250 -0.004433 0.002677 0.004410 0.007068 0.005954 0.007180 0.000573 -0.006102 0.002475 0.004158 -0.003427 -0.004198 -0.004903 0.004887
17 -0.000352 -0.004837 0.005699 -0.004984 0.003406 -0.001100 0.006087 -0.007117 -0.002671 -0.005824 0.005220 -0.000448 0.006691 0.007045 -0.005308 0.003510 0.003058 -0.001849 0.003004 0.001014 0.007074 0.007193 -0.005494 0.002061 -0.002841 0.000290 0.005843 -0.008851 0.000521 -0.002067 0.004661 -0.006488 -0.009392 -0.002844 0.005497 -0.001712 -0.008957 0.007929 -0.003110 -0.000276 -0.006970 0.006718 0.003168 -0.003038 0.001056 0.007592 0.001246 0.003315 -0.000207 -0.002102 0.007260 -0.003745 0.001955 -0.006708 -0.004629 0.001478 -0.007194 -0.002659 -0.004850 0.000385 -0.002734 0.002849 0.008070 0.004974
7 -0.004379 -0.008989 0.000057 -0.008318 0.005259 0.008789 0.002926 0.006987 0.008422 -0.000057 0.009633 0.008087 -0.006920 -0.006895 0.007730 -0.006117 0.002804 -0.000798 -0.005432 0.005192 -0.002708 0.006937 0.000204 -0.004307 0.002971 -0.003916 0.007015 -0.008131 -0.004181 0.006042 0.004130 -0.004684 0.004456 -0.006969 0.007714 0.003125 -0.003488 -0.001369 0.000051 -0.006193 -0.008821 0.000522 -0.005267 0.004390 -0.001825 0.005861 -0.003405 -0.003640 0.006091 -0.004133 0.008168 0.006975 -0.006656 0.007856 -0.005998 0.004941 0.005057 -0.000379 -0.006938 0.003036 0.006220 0.003950 0.003497 0.008231
29 0.000621 -0.004387 -0.002964 -0.002181 -0.007921 -0.000507 -0.001535 0.001588 0.003366 0.006674 0.001400 0.006680 0.001152 -0.007432 0.006505 -0.003584 0.005688 -0.006255 -0.000305 0.005290 0.005417 -0.004534 0.001314 0.004638 0.005158 -0.003100 -0.001657 -0.006673 0.007941 -0.005868 -0.005377 0.002841 -0.000310 0.005438 0.007185 -0.003566 0.000822 -0.002064 0.004165 0.000121 -0.007155 -0.002982 0.004519 0.007733 0.001972 0.003684 0.002132 -0.007806 0.003226 -0.008428 -0.003029 0.008591 0.006730 0.001191 0.002130 0.005533 0.004080 -0.005580 -0.001497 0.007197 -0.003385 0.003224 0.003970 0.000158
10 -0.003537 -0.008438 0.000349 -0.001245 0.005460 -0.002521 0.007172 0.003423 -0.003880 0.001908 -0.002538 -0.002280 0.002013 -0.001610 0.005370 0.005988 -0.001113 -0.002916 -0.006267 -0.006324 0.007190 0.000378 -0.005593 -0.001521 0.000064 0.000971 0.006773 -0.004828 -0.004123 0.001272 -0.004074 -0.008327 0.000003 0.000088 0.006879 -0.005089 -0.008748 0.004726 0.004323 0.001704 -0.004204 0.000129 0.006426 -0.007115 0.000660 -0.004083 0.005737 0.004324 0.004568 -0.003137 -0.002435 -0.005263 -0.005499 0.008423 -0.005238 0.002774 0.003561 -0.000026 0.007117 -0.002835 -0.008279 -0.006731 0.000036 -0.001366
9 0.004541 -0.000477 0.002659 -0.007766 0.007174 0.003065 -0.005114 0.005661 -0.003794 0.003461 -0.002127 0.004475 -0.007311 -0.005984 -0.006700 0.005997 -0.003761 -0.006873 0.002561 0.001354 0.000658 -0.007099 -0.002777 0.005532 -0.006852 -0.000031 0.003153 0.006250 0.004564 -0.005868 0.007669 0.004873 -0.003761 -0.000848 0.003934 -0.003324 -0.002849 0.006139 -0.007583 0.000470 0.001303 -0.002697 0.002708 0.003479 0.000644 0.000443 -0.001303 0.005161 0.005137 -0.002374 0.007429 0.004800 0.001891 -0.001857 0.006694 0.006879 0.005358 -0.002328 -0.003516 -0.000341 -0.005562 0.003488 0.001534 -0.000201
26 0.007500 -0.008806 0.003733 -0.004221 0.005918 -0.000235 -0.001160 -0.007206 -0.005696 -0.000664 0.001530 0.008224 -0.005927 -0.007509 -0.005153 0.007179 0.002108 -0.001329 0.000847 -0.002031 -0.007291 -0.004664 -0.008040 0.002359 0.002460 -0.000823 -0.007124 -0.002141 -0.003548 -0.004804 -0.005774 -0.006123 0.001553 0.004817 0.000208 0.007066 0.005004 -0.004637 -0.005561 -0.005442 -0.006042 -0.005278 0.001926 -0.003963 0.001616 -0.000758 -0.005721 0.000866 -0.005646 -0.005510 -0.003699 -0.005846 -0.001980 -0.002939 0.000968 -0.006310 -0.004382 -0.004433 -0.002002 -0.007273 -0.001955 -0.001602 0.000436 0.003522
12 -0.007146 -0.009084 0.007778 -0.004870 -0.001125 0.000337 -0.004540 -0.004955 0.001310 -0.002115 -0.005364 -0.003142 0.000923 0.004220 -0.000976 -0.002451 -0.007668 -0.004586 -0.005758 -0.003477 -0.005634 0.000253 0.000571 -0.005372 0.001169 -0.003972 0.006348 -0.004574 0.003906 0.007532 -0.005780 0.006062 -0.004073 -0.002966 0.005543 -0.004197 -0.003081 0.007114 -0.004067 -0.006641 -0.001242 -0.005891 0.007749 0.002778 -0.006591 -0.000746 0.007214 0.006651 -0.006995 -0.005412 -0.002112 -0.003941 0.001688 0.001880 -0.001868 0.004227 0.005648 0.006225 -0.001270 0.004952 0.005849 -0.003925 0.006961 -0.002467
month 0.001048 0.000139 -0.001272 -0.001036 -0.005035 0.006734 -0.002629 -0.007509 0.005158 -0.003109 0.003345 -0.002554 -0.002929 0.004488 -0.003952 0.005766 -0.006067 -0.004778 -0.001572 -0.003186 -0.004416 -0.004149 -0.000204 -0.005637 -0.001600 -0.005033 0.004916 0.004697 -0.001286 0.005606 0.002440 -0.000433 -0.009525 -0.000708 0.004991 -0.003234 -0.009607 -0.004869 -0.005544 -0.005725 0.000818 0.000820 -0.003760 0.007429 0.006282 0.007636 0.005939 0.000876 0.002956 -0.002672 0.003963 0.000677 -0.003302 0.004589 -0.001193 -0.000077 0.003981 0.001868 0.005697 -0.007397 0.003260 -0.004177 0.003644 0.000164
22 0.000963 -0.008384 -0.005881 -0.007044 -0.004158 0.000541 -0.005312 0.004006 0.007454 0.001838 0.001239 -0.004667 0.002503 -0.003133 0.006965 -0.003465 -0.002331 -0.003496 -0.000320 0.007032 -0.001490 0.001815 -0.007780 0.004901 -0.006700 -0.008177 0.006984 -0.006727 -0.001627 0.006181 0.008607 -0.004785 0.002282 0.006671 -0.005771 0.004162 0.001292 0.004878 -0.001779 -0.005998 -0.003693 -0.003806 0.007940 -0.004260 0.003846 -0.003527 0.000288 -0.002631 -0.003380 -0.004840 0.006563 -0.000738 -0.008186 0.007552 -0.002327 0.005178 -0.004319 -0.000886 0.002598 -0.004075 0.006203 0.003823 0.001962 0.008950
13 0.004460 0.004531 -0.006833 -0.004651 -0.005587 0.007440 -0.001784 -0.004374 -0.003589 0.005938 0.004787 0.002234 -0.003090 -0.005347 0.003405 0.001132 -0.002602 0.004265 -0.001228 -0.000026 0.000135 0.001779 -0.008518 -0.001114 0.000285 0.003991 -0.006647 -0.007942 0.004292 0.003194 0.003891 -0.008090 0.003277 -0.000393 0.005531 0.002428 0.001306 0.002904 0.004438 0.007829 0.001446 0.006075 0.001638 -0.005214 0.001915 -0.001493 -0.000141 0.006569 -0.005610 0.003807 -0.006612 -0.002360 -0.008261 0.001205 0.000452 -0.006320 0.004220 -0.005965 0.000553 0.004868 -0.001425 0.001122 -0.005642 0.003345
8 0.005940 0.000165 -0.006703 -0.002247 -0.007281 0.008498 0.003900 0.005531 -0.006626 -0.001168 0.009338 -0.005849 -0.001578 0.002530 -0.002680 -0.007226 -0.005250 0.006997 0.006448 -0.004688 0.005537 -0.001395 -0.001650 0.000137 0.003308 -0.005144 -0.003389 0.005603 -0.001276 0.001009 0.000599 0.004528 -0.004663 -0.003142 0.001797 -0.001530 -0.009034 0.007819 0.007474 0.002177 -0.006787 -0.003332 -0.001864 0.007654 0.007075 0.000817 0.003614 -0.002228 -0.005122 -0.001180 0.006779 0.008626 0.003616 -0.000560 0.004814 -0.003670 -0.006403 -0.004409 -0.002020 0.000249 -0.002074 -0.003819 0.001337 -0.005883
25 -0.004524 -0.008656 0.003028 -0.003747 0.003244 0.007460 0.000453 -0.003116 0.001964 0.002435 0.004645 -0.001847 -0.001966 0.004798 0.000488 0.000672 0.003843 0.000174 -0.002443 -0.005596 0.001829 -0.001095 0.001613 -0.001888 0.004770 -0.006549 0.003574 0.005068 -0.007078 -0.004340 -0.007075 -0.006015 0.003897 -0.007005 0.003308 0.005932 -0.005042 -0.005644 0.001836 -0.000317 0.005660 -0.004058 0.007048 -0.001673 0.004198 -0.005113 -0.000845 0.002705 -0.000947 0.005318 -0.001611 0.002193 0.006263 0.008397 0.005641 -0.007108 -0.002275 0.004484 0.002825 -0.001157 -0.005772 0.007621 0.005760 0.008058
23 0.001268 -0.002956 -0.003906 0.002476 0.000807 0.002124 -0.001717 0.001680 0.006146 0.002233 0.001578 0.005834 -0.004111 0.005342 -0.007097 0.000120 0.001466 -0.006234 0.000452 -0.004741 -0.005805 -0.001106 0.003133 0.004895 0.004525 0.002809 -0.002253 0.002112 -0.001873 -0.006623 -0.006901 0.002190 0.003489 0.006851 0.007114 0.001932 -0.006251 0.004585 -0.000557 0.005983 -0.003362 -0.006914 0.006715 -0.001760 0.001961 -0.001204 -0.001231 0.004357 -0.007611 0.006123 0.002769 0.008271 0.005789 0.004117 -0.001283 0.004140 0.006868 -0.002498 0.004536 -0.006500 -0.004965 0.008018 -0.004930 -0.005937
31 -0.002810 0.003646 -0.003780 0.004312 0.006112 0.004793 0.000231 -0.004896 0.003018 0.005444 0.003330 0.002370 -0.006598 0.000946 0.001538 -0.001664 0.006634 -0.007062 -0.006581 0.000381 -0.000140 -0.006826 -0.003315 0.003369 0.006567 -0.006101 -0.001616 -0.007811 -0.001669 0.000199 -0.002519 0.004710 0.004503 -0.000749 -0.004036 0.005136 0.001362 -0.006691 -0.002623 -0.003920 -0.004063 0.001753 0.005833 -0.003840 0.004137 0.007821 0.007221 -0.005837 -0.002752 -0.005971 -0.000643 0.003013 0.002330 0.000758 -0.002195 0.003807 0.006362 -0.001957 -0.007730 -0.006208 0.002243 0.003668 0.006268 -0.002868
